digraph Tree {
node [shape=box] ;
0 [label="avg_interval_RH <= 66.389\nmse = 2.528\nsamples = 28\nvalue = 3.71"] ;
1 [label="Urbanization <= 89.995\nmse = 2.328\nsamples = 20\nvalue = 4.205"] ;
0 -> 1 [labeldistance=2.5, labelangle=45, headlabel="True"] ;
2 [label="tmp*rh <= 559.795\nmse = 0.704\nsamples = 6\nvalue = 5.428"] ;
1 -> 2 ;
3 [label="avg_interval_tmp <= 8.708\nmse = 1.06\nsamples = 3\nvalue = 5.031"] ;
2 -> 3 ;
4 [label="avg_interval_RH <= 64.846\nmse = 0.889\nsamples = 2\nvalue = 5.514"] ;
3 -> 4 ;
5 [label="mse = 0.0\nsamples = 1\nvalue = 6.457"] ;
4 -> 5 ;
6 [label="mse = -0.0\nsamples = 1\nvalue = 4.572"] ;
4 -> 6 ;
7 [label="mse = 0.0\nsamples = 1\nvalue = 4.064"] ;
3 -> 7 ;
8 [label="mse = 0.031\nsamples = 3\nvalue = 5.825"] ;
2 -> 8 ;
9 [label="Urbanization <= 94.85\nmse = 2.108\nsamples = 14\nvalue = 3.68"] ;
1 -> 9 ;
10 [label="tmp*rh <= 631.97\nmse = 1.124\nsamples = 13\nvalue = 3.394"] ;
9 -> 10 ;
11 [label="avg_interval_RH <= 43.502\nmse = 0.514\nsamples = 6\nvalue = 2.717"] ;
10 -> 11 ;
12 [label="mse = 0.0\nsamples = 1\nvalue = 1.605"] ;
11 -> 12 ;
13 [label="mse = 0.32\nsamples = 5\nvalue = 2.94"] ;
11 -> 13 ;
14 [label="avg_interval_RH <= 58.282\nmse = 0.918\nsamples = 7\nvalue = 3.975"] ;
10 -> 14 ;
15 [label="mse = 0.03\nsamples = 2\nvalue = 5.369"] ;
14 -> 15 ;
16 [label="mse = 0.184\nsamples = 5\nvalue = 3.417"] ;
14 -> 16 ;
17 [label="mse = 0.0\nsamples = 1\nvalue = 7.399"] ;
9 -> 17 ;
18 [label="avg_interval_tmp <= 13.601\nmse = 0.886\nsamples = 8\nvalue = 2.473"] ;
0 -> 18 [labeldistance=2.5, labelangle=-45, headlabel="False"] ;
19 [label="avg_interval_tmp <= 8.114\nmse = 0.286\nsamples = 6\nvalue = 2.931"] ;
18 -> 19 ;
20 [label="mse = 0.0\nsamples = 1\nvalue = 1.907"] ;
19 -> 20 ;
21 [label="mse = 0.092\nsamples = 5\nvalue = 3.136"] ;
19 -> 21 ;
22 [label="mse = 0.164\nsamples = 2\nvalue = 1.098"] ;
18 -> 22 ;
}