digraph Tree {
node [shape=box] ;
0 [label="tpc*max_cases <= 0.158\nmse = 0.011\nsamples = 539\nvalue = 0.327"] ;
1 [label="avg_interval_RH <= 50.299\nmse = 0.012\nsamples = 85\nvalue = 0.288"] ;
0 -> 1 [labeldistance=2.5, labelangle=45, headlabel="True"] ;
2 [label="mse = 0.0\nsamples = 1\nvalue = 0.578"] ;
1 -> 2 ;
3 [label="Tests \ Pop <= 0.004\nmse = 0.011\nsamples = 84\nvalue = 0.285"] ;
1 -> 3 ;
4 [label="tpc*max_cases <= 0.098\nmse = 0.012\nsamples = 63\nvalue = 0.3"] ;
3 -> 4 ;
5 [label="avg_interval_tmp <= 20.239\nmse = 0.008\nsamples = 24\nvalue = 0.25"] ;
4 -> 5 ;
6 [label="mse = 0.006\nsamples = 23\nvalue = 0.242"] ;
5 -> 6 ;
7 [label="mse = -0.0\nsamples = 1\nvalue = 0.425"] ;
5 -> 7 ;
8 [label="tpc*max_cases <= 0.146\nmse = 0.012\nsamples = 39\nvalue = 0.33"] ;
4 -> 8 ;
9 [label="mse = 0.011\nsamples = 36\nvalue = 0.341"] ;
8 -> 9 ;
10 [label="mse = 0.006\nsamples = 3\nvalue = 0.195"] ;
8 -> 10 ;
11 [label="avg_interval_tmp <= 14.37\nmse = 0.006\nsamples = 21\nvalue = 0.24"] ;
3 -> 11 ;
12 [label="avg_interval_RH <= 80.729\nmse = 0.005\nsamples = 15\nvalue = 0.27"] ;
11 -> 12 ;
13 [label="mse = 0.005\nsamples = 12\nvalue = 0.252"] ;
12 -> 13 ;
14 [label="mse = 0.002\nsamples = 3\nvalue = 0.341"] ;
12 -> 14 ;
15 [label="tmp**2 <= 237.27\nmse = 0.001\nsamples = 6\nvalue = 0.164"] ;
11 -> 15 ;
16 [label="mse = 0.0\nsamples = 2\nvalue = 0.127"] ;
15 -> 16 ;
17 [label="mse = 0.001\nsamples = 4\nvalue = 0.183"] ;
15 -> 17 ;
18 [label="urb**2 <= 8996.545\nmse = 0.011\nsamples = 454\nvalue = 0.334"] ;
0 -> 18 [labeldistance=2.5, labelangle=-45, headlabel="False"] ;
19 [label="tpc*max_cases <= 11.406\nmse = 0.01\nsamples = 433\nvalue = 0.337"] ;
18 -> 19 ;
20 [label="Median Age <= 37.0\nmse = 0.01\nsamples = 404\nvalue = 0.333"] ;
19 -> 20 ;
21 [label="GDP <= 47021.5\nmse = 0.011\nsamples = 93\nvalue = 0.363"] ;
20 -> 21 ;
22 [label="mse = 0.001\nsamples = 2\nvalue = 0.56"] ;
21 -> 22 ;
23 [label="mse = 0.01\nsamples = 91\nvalue = 0.359"] ;
21 -> 23 ;
24 [label="tpc*max_cases <= 0.162\nmse = 0.009\nsamples = 311\nvalue = 0.324"] ;
20 -> 24 ;
25 [label="mse = 0.0\nsamples = 1\nvalue = 0.085"] ;
24 -> 25 ;
26 [label="mse = 0.009\nsamples = 310\nvalue = 0.325"] ;
24 -> 26 ;
27 [label="tmp*rh <= 414.01\nmse = 0.011\nsamples = 29\nvalue = 0.39"] ;
19 -> 27 ;
28 [label="tmp**2 <= 27.838\nmse = 0.009\nsamples = 4\nvalue = 0.276"] ;
27 -> 28 ;
29 [label="mse = 0.002\nsamples = 2\nvalue = 0.353"] ;
28 -> 29 ;
30 [label="mse = 0.003\nsamples = 2\nvalue = 0.199"] ;
28 -> 30 ;
31 [label="Median Age <= 38.15\nmse = 0.009\nsamples = 25\nvalue = 0.408"] ;
27 -> 31 ;
32 [label="mse = 0.011\nsamples = 4\nvalue = 0.293"] ;
31 -> 32 ;
33 [label="mse = 0.006\nsamples = 21\nvalue = 0.43"] ;
31 -> 33 ;
34 [label="avg_interval_RH <= 72.543\nmse = 0.015\nsamples = 21\nvalue = 0.27"] ;
18 -> 34 ;
35 [label="tmp**2 <= 356.861\nmse = 0.008\nsamples = 11\nvalue = 0.214"] ;
34 -> 35 ;
36 [label="tmp*rh <= 995.682\nmse = 0.002\nsamples = 10\nvalue = 0.191"] ;
35 -> 36 ;
37 [label="mse = 0.002\nsamples = 9\nvalue = 0.2"] ;
36 -> 37 ;
38 [label="mse = 0.0\nsamples = 1\nvalue = 0.107"] ;
36 -> 38 ;
39 [label="mse = 0.0\nsamples = 1\nvalue = 0.448"] ;
35 -> 39 ;
40 [label="tmp**2 <= 98.682\nmse = 0.016\nsamples = 10\nvalue = 0.331"] ;
34 -> 40 ;
41 [label="tmp**2 <= 53.581\nmse = 0.001\nsamples = 2\nvalue = 0.147"] ;
40 -> 41 ;
42 [label="mse = 0.0\nsamples = 1\nvalue = 0.174"] ;
41 -> 42 ;
43 [label="mse = 0.0\nsamples = 1\nvalue = 0.12"] ;
41 -> 43 ;
44 [label="tpc*max_cases <= 0.438\nmse = 0.009\nsamples = 8\nvalue = 0.377"] ;
40 -> 44 ;
45 [label="mse = 0.002\nsamples = 4\nvalue = 0.294"] ;
44 -> 45 ;
46 [label="mse = 0.003\nsamples = 4\nvalue = 0.46"] ;
44 -> 46 ;
}