digraph Tree {
node [shape=box] ;
0 [label="Democracy <= 5.245\nmse = 0.004\nsamples = 128\nvalue = 0.206"] ;
1 [label="mse = 0.0\nsamples = 2\nvalue = 0.063"] ;
0 -> 1 [labeldistance=2.5, labelangle=45, headlabel="True"] ;
2 [label="GDP <= 65682.0\nmse = 0.004\nsamples = 126\nvalue = 0.208"] ;
0 -> 2 [labeldistance=2.5, labelangle=-45, headlabel="False"] ;
3 [label="avg_interval_RH <= 77.921\nmse = 0.004\nsamples = 58\nvalue = 0.193"] ;
2 -> 3 ;
4 [label="mse = 0.003\nsamples = 49\nvalue = 0.182"] ;
3 -> 4 ;
5 [label="mse = 0.003\nsamples = 9\nvalue = 0.251"] ;
3 -> 5 ;
6 [label="tmp**2 <= 93.283\nmse = 0.004\nsamples = 68\nvalue = 0.221"] ;
2 -> 6 ;
7 [label="mse = 0.004\nsamples = 42\nvalue = 0.238"] ;
6 -> 7 ;
8 [label="mse = 0.004\nsamples = 26\nvalue = 0.193"] ;
6 -> 8 ;
}