digraph Tree {
node [shape=box] ;
0 [label="avg_interval_tmp <= 21.187\nmse = 32.104\nsamples = 80\nvalue = 15.758"] ;
1 [label="tmp**2 <= 378.948\nmse = 22.55\nsamples = 57\nvalue = 17.965"] ;
0 -> 1 [labeldistance=2.5, labelangle=45, headlabel="True"] ;
2 [label="mse = 18.316\nsamples = 55\nvalue = 17.548"] ;
1 -> 2 ;
3 [label="mse = 3.057\nsamples = 2\nvalue = 29.417"] ;
1 -> 3 ;
4 [label="mse = 13.809\nsamples = 23\nvalue = 10.29"] ;
0 -> 4 [labeldistance=2.5, labelangle=-45, headlabel="False"] ;
}