digraph Tree {
node [shape=box] ;
0 [label="avg_mobility <= 18.114\nmse = 31.255\nsamples = 80\nvalue = 15.972"] ;
1 [label="avg_interval_RH <= 77.962\nmse = 7.426\nsamples = 22\nvalue = 10.015"] ;
0 -> 1 [labeldistance=2.5, labelangle=45, headlabel="True"] ;
2 [label="avg_mobility <= 14.363\nmse = 6.745\nsamples = 21\nvalue = 10.232"] ;
1 -> 2 ;
3 [label="mse = 0.0\nsamples = 1\nvalue = 13.964"] ;
2 -> 3 ;
4 [label="avg_interval_RH <= 72.41\nmse = 6.351\nsamples = 20\nvalue = 10.046"] ;
2 -> 4 ;
5 [label="tmp**2 <= 342.239\nmse = 5.788\nsamples = 11\nvalue = 9.139"] ;
4 -> 5 ;
6 [label="Tests per 1M <= 26174.0\nmse = 0.895\nsamples = 2\nvalue = 12.528"] ;
5 -> 6 ;
7 [label="mse = 0.0\nsamples = 1\nvalue = 13.474"] ;
6 -> 7 ;
8 [label="mse = 0.0\nsamples = 1\nvalue = 11.582"] ;
6 -> 8 ;
9 [label="avg_interval_RH <= 71.131\nmse = 3.756\nsamples = 9\nvalue = 8.386"] ;
5 -> 9 ;
10 [label="avg_interval_RH <= 69.495\nmse = 2.919\nsamples = 8\nvalue = 8.767"] ;
9 -> 10 ;
11 [label="avg_interval_RH <= 66.844\nmse = 2.583\nsamples = 7\nvalue = 8.46"] ;
10 -> 11 ;
12 [label="avg_interval_RH <= 26.209\nmse = 2.108\nsamples = 5\nvalue = 9.115"] ;
11 -> 12 ;
13 [label="mse = 0.0\nsamples = 1\nvalue = 7.318"] ;
12 -> 13 ;
14 [label="avg_interval_RH <= 47.123\nmse = 1.626\nsamples = 4\nvalue = 9.564"] ;
12 -> 14 ;
15 [label="Urbanization <= 92.0\nmse = 0.46\nsamples = 2\nvalue = 10.696"] ;
14 -> 15 ;
16 [label="mse = 0.0\nsamples = 1\nvalue = 11.374"] ;
15 -> 16 ;
17 [label="mse = -0.0\nsamples = 1\nvalue = 10.018"] ;
15 -> 17 ;
18 [label="tmp*rh <= 1668.869\nmse = 0.233\nsamples = 2\nvalue = 8.433"] ;
14 -> 18 ;
19 [label="mse = 0.0\nsamples = 1\nvalue = 7.951"] ;
18 -> 19 ;
20 [label="mse = -0.0\nsamples = 1\nvalue = 8.915"] ;
18 -> 20 ;
21 [label="mse = 0.018\nsamples = 2\nvalue = 6.823"] ;
11 -> 21 ;
22 [label="mse = -0.0\nsamples = 1\nvalue = 10.915"] ;
10 -> 22 ;
23 [label="mse = 0.0\nsamples = 1\nvalue = 5.339"] ;
9 -> 23 ;
24 [label="avg_interval_RH <= 74.222\nmse = 4.81\nsamples = 9\nvalue = 11.153"] ;
4 -> 24 ;
25 [label="tmp**2 <= 568.998\nmse = 0.462\nsamples = 3\nvalue = 12.817"] ;
24 -> 25 ;
26 [label="mse = 0.0\nsamples = 1\nvalue = 11.934"] ;
25 -> 26 ;
27 [label="avg_mobility <= 17.652\nmse = 0.109\nsamples = 2\nvalue = 13.258"] ;
25 -> 27 ;
28 [label="mse = 0.0\nsamples = 1\nvalue = 13.588"] ;
27 -> 28 ;
29 [label="mse = 0.0\nsamples = 1\nvalue = 12.928"] ;
27 -> 29 ;
30 [label="avg_mobility <= 17.556\nmse = 4.908\nsamples = 6\nvalue = 10.321"] ;
24 -> 30 ;
31 [label="avg_interval_RH <= 76.259\nmse = 2.163\nsamples = 5\nvalue = 11.109"] ;
30 -> 31 ;
32 [label="avg_interval_RH <= 75.203\nmse = 0.394\nsamples = 3\nvalue = 10.074"] ;
31 -> 32 ;
33 [label="mse = 0.0\nsamples = 1\nvalue = 9.279"] ;
32 -> 33 ;
34 [label="avg_interval_tmp <= 22.696\nmse = 0.117\nsamples = 2\nvalue = 10.472"] ;
32 -> 34 ;
35 [label="mse = 0.0\nsamples = 1\nvalue = 10.813"] ;
34 -> 35 ;
36 [label="mse = 0.0\nsamples = 1\nvalue = 10.13"] ;
34 -> 36 ;
37 [label="avg_interval_tmp <= 24.322\nmse = 0.797\nsamples = 2\nvalue = 12.662"] ;
31 -> 37 ;
38 [label="mse = 0.0\nsamples = 1\nvalue = 13.555"] ;
37 -> 38 ;
39 [label="mse = 0.0\nsamples = 1\nvalue = 11.769"] ;
37 -> 39 ;
40 [label="mse = 0.0\nsamples = 1\nvalue = 6.381"] ;
30 -> 40 ;
41 [label="mse = 0.0\nsamples = 1\nvalue = 5.462"] ;
1 -> 41 ;
42 [label="avg_interval_RH <= 60.767\nmse = 21.732\nsamples = 58\nvalue = 18.231"] ;
0 -> 42 [labeldistance=2.5, labelangle=-45, headlabel="False"] ;
43 [label="avg_interval_RH <= 58.282\nmse = 14.318\nsamples = 12\nvalue = 20.213"] ;
42 -> 43 ;
44 [label="tmp*rh <= 636.313\nmse = 9.608\nsamples = 5\nvalue = 16.955"] ;
43 -> 44 ;
45 [label="Urbanization <= 92.59\nmse = 0.692\nsamples = 3\nvalue = 14.537"] ;
44 -> 45 ;
46 [label="mse = 0.0\nsamples = 1\nvalue = 13.491"] ;
45 -> 46 ;
47 [label="avg_interval_tmp <= 10.821\nmse = 0.217\nsamples = 2\nvalue = 15.061"] ;
45 -> 47 ;
48 [label="mse = 0.0\nsamples = 1\nvalue = 14.595"] ;
47 -> 48 ;
49 [label="mse = 0.0\nsamples = 1\nvalue = 15.527"] ;
47 -> 49 ;
50 [label="tmp**2 <= 345.471\nmse = 1.063\nsamples = 2\nvalue = 20.582"] ;
44 -> 50 ;
51 [label="mse = 0.0\nsamples = 1\nvalue = 19.55"] ;
50 -> 51 ;
52 [label="mse = 0.0\nsamples = 1\nvalue = 21.613"] ;
50 -> 52 ;
53 [label="avg_interval_RH <= 59.744\nmse = 4.685\nsamples = 7\nvalue = 22.54"] ;
43 -> 53 ;
54 [label="tmp**2 <= 109.317\nmse = 4.322\nsamples = 4\nvalue = 23.805"] ;
53 -> 54 ;
55 [label="tmp*rh <= 519.158\nmse = 2.221\nsamples = 3\nvalue = 24.746"] ;
54 -> 55 ;
56 [label="mse = 0.016\nsamples = 2\nvalue = 23.695"] ;
55 -> 56 ;
57 [label="mse = 0.0\nsamples = 1\nvalue = 26.849"] ;
55 -> 57 ;
58 [label="mse = 0.0\nsamples = 1\nvalue = 20.982"] ;
54 -> 58 ;
59 [label="Urbanization <= 93.5\nmse = 0.192\nsamples = 3\nvalue = 20.854"] ;
53 -> 59 ;
60 [label="mse = 0.001\nsamples = 2\nvalue = 20.545"] ;
59 -> 60 ;
61 [label="mse = 0.0\nsamples = 1\nvalue = 21.472"] ;
59 -> 61 ;
62 [label="avg_mobility <= 18.304\nmse = 22.374\nsamples = 46\nvalue = 17.714"] ;
42 -> 62 ;
63 [label="tmp**2 <= 136.743\nmse = 23.314\nsamples = 4\nvalue = 22.424"] ;
62 -> 63 ;
64 [label="avg_interval_tmp <= 10.435\nmse = 2.428\nsamples = 3\nvalue = 19.747"] ;
63 -> 64 ;
65 [label="avg_mobility <= 18.195\nmse = 0.305\nsamples = 2\nvalue = 18.692"] ;
64 -> 65 ;
66 [label="mse = 0.0\nsamples = 1\nvalue = 19.245"] ;
65 -> 66 ;
67 [label="mse = -0.0\nsamples = 1\nvalue = 18.14"] ;
65 -> 67 ;
68 [label="mse = 0.0\nsamples = 1\nvalue = 21.856"] ;
64 -> 68 ;
69 [label="mse = 0.0\nsamples = 1\nvalue = 30.454"] ;
63 -> 69 ;
70 [label="avg_interval_tmp <= 7.821\nmse = 19.971\nsamples = 42\nvalue = 17.265"] ;
62 -> 70 ;
71 [label="avg_interval_tmp <= 7.705\nmse = 26.456\nsamples = 4\nvalue = 20.784"] ;
70 -> 71 ;
72 [label="avg_interval_tmp <= 7.344\nmse = 6.764\nsamples = 3\nvalue = 18.114"] ;
71 -> 72 ;
73 [label="mse = 0.0\nsamples = 1\nvalue = 14.656"] ;
72 -> 73 ;
74 [label="avg_interval_tmp <= 7.567\nmse = 1.176\nsamples = 2\nvalue = 19.843"] ;
72 -> 74 ;
75 [label="mse = 0.0\nsamples = 1\nvalue = 20.928"] ;
74 -> 75 ;
76 [label="mse = 0.0\nsamples = 1\nvalue = 18.759"] ;
74 -> 76 ;
77 [label="mse = -0.0\nsamples = 1\nvalue = 28.793"] ;
71 -> 77 ;
78 [label="avg_interval_RH <= 65.87\nmse = 17.848\nsamples = 38\nvalue = 16.895"] ;
70 -> 78 ;
79 [label="avg_interval_RH <= 65.338\nmse = 13.024\nsamples = 20\nvalue = 17.818"] ;
78 -> 79 ;
80 [label="tmp*rh <= 978.326\nmse = 9.456\nsamples = 19\nvalue = 17.357"] ;
79 -> 80 ;
81 [label="avg_interval_tmp <= 14.829\nmse = 7.464\nsamples = 16\nvalue = 16.75"] ;
80 -> 81 ;
82 [label="avg_mobility <= 18.337\nmse = 4.989\nsamples = 14\nvalue = 17.403"] ;
81 -> 82 ;
83 [label="mse = 0.0\nsamples = 1\nvalue = 14.211"] ;
82 -> 83 ;
84 [label="tmp*rh <= 734.538\nmse = 4.528\nsamples = 13\nvalue = 17.648"] ;
82 -> 84 ;
85 [label="avg_interval_tmp <= 11.292\nmse = 2.258\nsamples = 11\nvalue = 16.971"] ;
84 -> 85 ;
86 [label="Urbanization <= 88.25\nmse = 0.84\nsamples = 9\nvalue = 17.543"] ;
85 -> 86 ;
87 [label="avg_interval_tmp <= 8.708\nmse = 0.316\nsamples = 3\nvalue = 16.602"] ;
86 -> 87 ;
88 [label="mse = 0.002\nsamples = 2\nvalue = 16.999"] ;
87 -> 88 ;
89 [label="mse = -0.0\nsamples = 1\nvalue = 15.809"] ;
87 -> 89 ;
90 [label="tmp**2 <= 127.311\nmse = 0.439\nsamples = 6\nvalue = 18.013"] ;
86 -> 90 ;
91 [label="avg_mobility <= 23.92\nmse = 0.176\nsamples = 5\nvalue = 17.771"] ;
90 -> 91 ;
92 [label="avg_interval_RH <= 64.318\nmse = 0.051\nsamples = 4\nvalue = 17.955"] ;
91 -> 92 ;
93 [label="mse = 0.008\nsamples = 3\nvalue = 17.832"] ;
92 -> 93 ;
94 [label="mse = 0.0\nsamples = 1\nvalue = 18.325"] ;
92 -> 94 ;
95 [label="mse = -0.0\nsamples = 1\nvalue = 17.035"] ;
91 -> 95 ;
96 [label="mse = 0.0\nsamples = 1\nvalue = 19.221"] ;
90 -> 96 ;
97 [label="avg_mobility <= 23.835\nmse = 0.544\nsamples = 2\nvalue = 14.397"] ;
85 -> 97 ;
98 [label="mse = 0.0\nsamples = 1\nvalue = 15.135"] ;
97 -> 98 ;
99 [label="mse = 0.0\nsamples = 1\nvalue = 13.659"] ;
97 -> 99 ;
100 [label="avg_interval_tmp <= 13.133\nmse = 0.611\nsamples = 2\nvalue = 21.374"] ;
84 -> 100 ;
101 [label="mse = 0.0\nsamples = 1\nvalue = 22.155"] ;
100 -> 101 ;
102 [label="mse = -0.0\nsamples = 1\nvalue = 20.592"] ;
100 -> 102 ;
103 [label="avg_mobility <= 20.051\nmse = 0.924\nsamples = 2\nvalue = 12.18"] ;
81 -> 103 ;
104 [label="mse = 0.0\nsamples = 1\nvalue = 11.219"] ;
103 -> 104 ;
105 [label="mse = 0.0\nsamples = 1\nvalue = 13.141"] ;
103 -> 105 ;
106 [label="tmp*rh <= 1090.983\nmse = 7.619\nsamples = 3\nvalue = 20.596"] ;
80 -> 106 ;
107 [label="mse = 0.0\nsamples = 1\nvalue = 24.42"] ;
106 -> 107 ;
108 [label="tmp**2 <= 356.967\nmse = 0.464\nsamples = 2\nvalue = 18.684"] ;
106 -> 108 ;
109 [label="mse = 0.0\nsamples = 1\nvalue = 19.366"] ;
108 -> 109 ;
110 [label="mse = 0.0\nsamples = 1\nvalue = 18.003"] ;
108 -> 110 ;
111 [label="mse = 0.0\nsamples = 1\nvalue = 26.581"] ;
79 -> 111 ;
112 [label="avg_interval_RH <= 67.113\nmse = 21.208\nsamples = 18\nvalue = 15.869"] ;
78 -> 112 ;
113 [label="avg_interval_tmp <= 15.071\nmse = 16.955\nsamples = 7\nvalue = 13.18"] ;
112 -> 113 ;
114 [label="avg_interval_RH <= 66.441\nmse = 12.654\nsamples = 6\nvalue = 14.189"] ;
113 -> 114 ;
115 [label="avg_interval_RH <= 66.318\nmse = 1.138\nsamples = 2\nvalue = 12.256"] ;
114 -> 115 ;
116 [label="mse = 0.0\nsamples = 1\nvalue = 13.323"] ;
115 -> 116 ;
117 [label="mse = -0.0\nsamples = 1\nvalue = 11.189"] ;
115 -> 117 ;
118 [label="avg_interval_tmp <= 8.823\nmse = 15.609\nsamples = 4\nvalue = 15.156"] ;
114 -> 118 ;
119 [label="mse = 0.0\nsamples = 1\nvalue = 20.403"] ;
118 -> 119 ;
120 [label="tmp*rh <= 670.135\nmse = 8.574\nsamples = 3\nvalue = 13.406"] ;
118 -> 120 ;
121 [label="mse = 0.0\nsamples = 1\nvalue = 9.479"] ;
120 -> 121 ;
122 [label="Urbanization <= 96.5\nmse = 1.29\nsamples = 2\nvalue = 15.37"] ;
120 -> 122 ;
123 [label="mse = 0.0\nsamples = 1\nvalue = 14.235"] ;
122 -> 123 ;
124 [label="mse = 0.0\nsamples = 1\nvalue = 16.506"] ;
122 -> 124 ;
125 [label="mse = -0.0\nsamples = 1\nvalue = 7.126"] ;
113 -> 125 ;
126 [label="avg_interval_RH <= 67.439\nmse = 16.384\nsamples = 11\nvalue = 17.58"] ;
112 -> 126 ;
127 [label="mse = 0.0\nsamples = 1\nvalue = 26.282"] ;
126 -> 127 ;
128 [label="Urbanization <= 88.25\nmse = 9.693\nsamples = 10\nvalue = 16.71"] ;
126 -> 128 ;
129 [label="mse = 0.0\nsamples = 1\nvalue = 23.199"] ;
128 -> 129 ;
130 [label="avg_interval_tmp <= 13.58\nmse = 5.572\nsamples = 9\nvalue = 15.989"] ;
128 -> 130 ;
131 [label="avg_mobility <= 21.12\nmse = 5.404\nsamples = 7\nvalue = 16.606"] ;
130 -> 131 ;
132 [label="avg_mobility <= 20.063\nmse = 1.586\nsamples = 3\nvalue = 18.349"] ;
131 -> 132 ;
133 [label="mse = 0.01\nsamples = 2\nvalue = 17.461"] ;
132 -> 133 ;
134 [label="mse = 0.0\nsamples = 1\nvalue = 20.126"] ;
132 -> 134 ;
135 [label="tmp**2 <= 115.695\nmse = 4.28\nsamples = 4\nvalue = 15.298"] ;
131 -> 135 ;
136 [label="tmp*rh <= 671.352\nmse = 0.855\nsamples = 3\nvalue = 16.4"] ;
135 -> 136 ;
137 [label="Urbanization <= 93.35\nmse = 0.188\nsamples = 2\nvalue = 17.004"] ;
136 -> 137 ;
138 [label="mse = 0.0\nsamples = 1\nvalue = 16.57"] ;
137 -> 138 ;
139 [label="mse = -0.0\nsamples = 1\nvalue = 17.437"] ;
137 -> 139 ;
140 [label="mse = 0.0\nsamples = 1\nvalue = 15.191"] ;
136 -> 140 ;
141 [label="mse = -0.0\nsamples = 1\nvalue = 11.995"] ;
135 -> 141 ;
142 [label="Urbanization <= 93.1\nmse = 0.164\nsamples = 2\nvalue = 13.83"] ;
130 -> 142 ;
143 [label="mse = 0.0\nsamples = 1\nvalue = 13.425"] ;
142 -> 143 ;
144 [label="mse = 0.0\nsamples = 1\nvalue = 14.235"] ;
142 -> 144 ;
}