digraph Tree {
node [shape=box] ;
0 [label="Urbanization <= 71.5\nmse = 0.002\nsamples = 488\nvalue = 0.084"] ;
1 [label="avg_interval_RH <= 78.442\nmse = 0.001\nsamples = 117\nvalue = 0.067"] ;
0 -> 1 [labeldistance=2.5, labelangle=45, headlabel="True"] ;
2 [label="avg_interval_tmp <= 5.338\nmse = 0.001\nsamples = 105\nvalue = 0.07"] ;
1 -> 2 ;
3 [label="mse = 0.0\nsamples = 17\nvalue = 0.051"] ;
2 -> 3 ;
4 [label="mse = 0.001\nsamples = 88\nvalue = 0.073"] ;
2 -> 4 ;
5 [label="avg_interval_RH <= 91.094\nmse = 0.0\nsamples = 12\nvalue = 0.039"] ;
1 -> 5 ;
6 [label="mse = 0.0\nsamples = 11\nvalue = 0.042"] ;
5 -> 6 ;
7 [label="mse = -0.0\nsamples = 1\nvalue = 0.011"] ;
5 -> 7 ;
8 [label="avg_interval_tmp <= 6.978\nmse = 0.002\nsamples = 371\nvalue = 0.089"] ;
0 -> 8 [labeldistance=2.5, labelangle=-45, headlabel="False"] ;
9 [label="avg_interval_RH <= 59.329\nmse = 0.001\nsamples = 91\nvalue = 0.075"] ;
8 -> 9 ;
10 [label="mse = 0.001\nsamples = 9\nvalue = 0.042"] ;
9 -> 10 ;
11 [label="mse = 0.001\nsamples = 82\nvalue = 0.079"] ;
9 -> 11 ;
12 [label="avg_interval_tmp <= 13.896\nmse = 0.002\nsamples = 280\nvalue = 0.094"] ;
8 -> 12 ;
13 [label="mse = 0.002\nsamples = 158\nvalue = 0.104"] ;
12 -> 13 ;
14 [label="mse = 0.001\nsamples = 122\nvalue = 0.081"] ;
12 -> 14 ;
}