digraph Tree {
node [shape=box] ;
0 [label="Urbanization <= 70.3\nmse = 0.004\nsamples = 657\nvalue = 0.149"] ;
1 [label="avg_interval_RH <= 55.987\nmse = 0.003\nsamples = 173\nvalue = 0.125"] ;
0 -> 1 [labeldistance=2.5, labelangle=45, headlabel="True"] ;
2 [label="avg_interval_tmp <= 14.519\nmse = 0.003\nsamples = 3\nvalue = 0.3"] ;
1 -> 2 ;
3 [label="mse = 0.0\nsamples = 1\nvalue = 0.375"] ;
2 -> 3 ;
4 [label="mse = 0.0\nsamples = 2\nvalue = 0.262"] ;
2 -> 4 ;
5 [label="Urbanization <= 58.7\nmse = 0.003\nsamples = 170\nvalue = 0.122"] ;
1 -> 5 ;
6 [label="mse = 0.003\nsamples = 52\nvalue = 0.108"] ;
5 -> 6 ;
7 [label="mse = 0.003\nsamples = 118\nvalue = 0.129"] ;
5 -> 7 ;
8 [label="avg_interval_tmp <= 6.933\nmse = 0.004\nsamples = 484\nvalue = 0.157"] ;
0 -> 8 [labeldistance=2.5, labelangle=-45, headlabel="False"] ;
9 [label="GDP <= 54190.5\nmse = 0.003\nsamples = 120\nvalue = 0.134"] ;
8 -> 9 ;
10 [label="mse = 0.003\nsamples = 18\nvalue = 0.179"] ;
9 -> 10 ;
11 [label="mse = 0.002\nsamples = 102\nvalue = 0.126"] ;
9 -> 11 ;
12 [label="avg_interval_RH <= 78.664\nmse = 0.004\nsamples = 364\nvalue = 0.165"] ;
8 -> 12 ;
13 [label="mse = 0.004\nsamples = 312\nvalue = 0.17"] ;
12 -> 13 ;
14 [label="mse = 0.002\nsamples = 52\nvalue = 0.136"] ;
12 -> 14 ;
}