digraph Tree {
node [shape=box] ;
0 [label="tmp*rh <= 320.89\nmse = 0.008\nsamples = 634\nvalue = 0.296"] ;
1 [label="GDP <= 45192.0\nmse = 0.006\nsamples = 46\nvalue = 0.248"] ;
0 -> 1 [labeldistance=2.5, labelangle=45, headlabel="True"] ;
2 [label="tmp*rh <= 270.205\nmse = 0.037\nsamples = 2\nvalue = 0.35"] ;
1 -> 2 ;
3 [label="mse = 0.0\nsamples = 1\nvalue = 0.542"] ;
2 -> 3 ;
4 [label="mse = 0.0\nsamples = 1\nvalue = 0.159"] ;
2 -> 4 ;
5 [label="tmp*rh <= 216.855\nmse = 0.004\nsamples = 44\nvalue = 0.243"] ;
1 -> 5 ;
6 [label="Urbanization <= 38.8\nmse = 0.002\nsamples = 6\nvalue = 0.292"] ;
5 -> 6 ;
7 [label="mse = 0.0\nsamples = 1\nvalue = 0.213"] ;
6 -> 7 ;
8 [label="tmp**2 <= 6.693\nmse = 0.001\nsamples = 5\nvalue = 0.308"] ;
6 -> 8 ;
9 [label="mse = 0.0\nsamples = 2\nvalue = 0.272"] ;
8 -> 9 ;
10 [label="mse = 0.0\nsamples = 3\nvalue = 0.333"] ;
8 -> 10 ;
11 [label="Median Age <= 40.2\nmse = 0.004\nsamples = 38\nvalue = 0.235"] ;
5 -> 11 ;
12 [label="Tests \ Pop <= 0.005\nmse = 0.003\nsamples = 30\nvalue = 0.224"] ;
11 -> 12 ;
13 [label="mse = 0.004\nsamples = 9\nvalue = 0.266"] ;
12 -> 13 ;
14 [label="mse = 0.002\nsamples = 21\nvalue = 0.206"] ;
12 -> 14 ;
15 [label="GDP <= 62330.5\nmse = 0.004\nsamples = 8\nvalue = 0.278"] ;
11 -> 15 ;
16 [label="mse = 0.002\nsamples = 7\nvalue = 0.26"] ;
15 -> 16 ;
17 [label="mse = 0.0\nsamples = 1\nvalue = 0.4"] ;
15 -> 17 ;
18 [label="avg_interval_RH <= 59.08\nmse = 0.008\nsamples = 588\nvalue = 0.3"] ;
0 -> 18 [labeldistance=2.5, labelangle=-45, headlabel="False"] ;
19 [label="tpc*max_cases <= 0.205\nmse = 0.011\nsamples = 36\nvalue = 0.346"] ;
18 -> 19 ;
20 [label="avg_interval_tmp <= 11.979\nmse = 0.011\nsamples = 15\nvalue = 0.409"] ;
19 -> 20 ;
21 [label="avg_interval_tmp <= 8.095\nmse = 0.008\nsamples = 4\nvalue = 0.314"] ;
20 -> 21 ;
22 [label="mse = 0.0\nsamples = 1\nvalue = 0.458"] ;
21 -> 22 ;
23 [label="mse = 0.002\nsamples = 3\nvalue = 0.266"] ;
21 -> 23 ;
24 [label="tmp**2 <= 331.187\nmse = 0.008\nsamples = 11\nvalue = 0.443"] ;
20 -> 24 ;
25 [label="mse = 0.004\nsamples = 10\nvalue = 0.463"] ;
24 -> 25 ;
26 [label="mse = -0.0\nsamples = 1\nvalue = 0.243"] ;
24 -> 26 ;
27 [label="tmp*rh <= 350.3\nmse = 0.006\nsamples = 21\nvalue = 0.301"] ;
19 -> 27 ;
28 [label="tmp*rh <= 338.295\nmse = 0.0\nsamples = 2\nvalue = 0.421"] ;
27 -> 28 ;
29 [label="mse = 0.0\nsamples = 1\nvalue = 0.437"] ;
28 -> 29 ;
30 [label="mse = 0.0\nsamples = 1\nvalue = 0.404"] ;
28 -> 30 ;
31 [label="Tests \ Pop <= 0.005\nmse = 0.005\nsamples = 19\nvalue = 0.289"] ;
27 -> 31 ;
32 [label="mse = 0.003\nsamples = 9\nvalue = 0.324"] ;
31 -> 32 ;
33 [label="mse = 0.004\nsamples = 10\nvalue = 0.257"] ;
31 -> 33 ;
34 [label="Urbanization <= 66.35\nmse = 0.007\nsamples = 552\nvalue = 0.297"] ;
18 -> 34 ;
35 [label="tmp**2 <= 202.129\nmse = 0.007\nsamples = 114\nvalue = 0.274"] ;
34 -> 35 ;
36 [label="tpc*max_cases <= 0.132\nmse = 0.007\nsamples = 32\nvalue = 0.306"] ;
35 -> 36 ;
37 [label="mse = 0.006\nsamples = 6\nvalue = 0.359"] ;
36 -> 37 ;
38 [label="mse = 0.006\nsamples = 26\nvalue = 0.293"] ;
36 -> 38 ;
39 [label="Tests \ Pop <= 0.004\nmse = 0.006\nsamples = 82\nvalue = 0.262"] ;
35 -> 39 ;
40 [label="mse = 0.008\nsamples = 18\nvalue = 0.309"] ;
39 -> 40 ;
41 [label="mse = 0.005\nsamples = 64\nvalue = 0.249"] ;
39 -> 41 ;
42 [label="Urbanization <= 79.85\nmse = 0.007\nsamples = 438\nvalue = 0.303"] ;
34 -> 42 ;
43 [label="tmp**2 <= 421.182\nmse = 0.008\nsamples = 246\nvalue = 0.319"] ;
42 -> 43 ;
44 [label="mse = 0.008\nsamples = 224\nvalue = 0.312"] ;
43 -> 44 ;
45 [label="mse = 0.008\nsamples = 22\nvalue = 0.383"] ;
43 -> 45 ;
46 [label="Urbanization <= 84.4\nmse = 0.006\nsamples = 192\nvalue = 0.282"] ;
42 -> 46 ;
47 [label="mse = 0.003\nsamples = 20\nvalue = 0.233"] ;
46 -> 47 ;
48 [label="mse = 0.006\nsamples = 172\nvalue = 0.288"] ;
46 -> 48 ;
}