digraph Tree {
node [shape=box] ;
0 [label="tmp*rh <= 685.131\nmse = 0.001\nsamples = 104\nvalue = 0.091"] ;
1 [label="Urbanization <= 94.45\nmse = 0.001\nsamples = 51\nvalue = 0.107"] ;
0 -> 1 [labeldistance=2.5, labelangle=45, headlabel="True"] ;
2 [label="mse = 0.001\nsamples = 39\nvalue = 0.098"] ;
1 -> 2 ;
3 [label="mse = 0.0\nsamples = 12\nvalue = 0.135"] ;
1 -> 3 ;
4 [label="mse = 0.001\nsamples = 53\nvalue = 0.076"] ;
0 -> 4 [labeldistance=2.5, labelangle=-45, headlabel="False"] ;
}