digraph Tree {
node [shape=box] ;
0 [label="tpc*max_cases <= 0.341\nmse = 0.001\nsamples = 559\nvalue = 0.113"] ;
1 [label="tpc*max_cases <= 0.315\nmse = 0.001\nsamples = 40\nvalue = 0.136"] ;
0 -> 1 [labeldistance=2.5, labelangle=45, headlabel="True"] ;
2 [label="imobility**2 <= 192.397\nmse = 0.001\nsamples = 34\nvalue = 0.127"] ;
1 -> 2 ;
3 [label="avg_interval_RH <= 68.678\nmse = 0.0\nsamples = 12\nvalue = 0.109"] ;
2 -> 3 ;
4 [label="tmp*rh <= 1271.566\nmse = 0.0\nsamples = 8\nvalue = 0.119"] ;
3 -> 4 ;
5 [label="mse = 0.0\nsamples = 7\nvalue = 0.115"] ;
4 -> 5 ;
6 [label="mse = 0.0\nsamples = 1\nvalue = 0.147"] ;
4 -> 6 ;
7 [label="tmp**2 <= 282.256\nmse = 0.0\nsamples = 4\nvalue = 0.088"] ;
3 -> 7 ;
8 [label="mse = 0.0\nsamples = 2\nvalue = 0.096"] ;
7 -> 8 ;
9 [label="mse = 0.0\nsamples = 2\nvalue = 0.079"] ;
7 -> 9 ;
10 [label="tpc*max_cases <= 0.187\nmse = 0.001\nsamples = 22\nvalue = 0.138"] ;
2 -> 10 ;
11 [label="imobility**2 <= 246.983\nmse = 0.0\nsamples = 2\nvalue = 0.097"] ;
10 -> 11 ;
12 [label="mse = 0.0\nsamples = 1\nvalue = 0.088"] ;
11 -> 12 ;
13 [label="mse = 0.0\nsamples = 1\nvalue = 0.106"] ;
11 -> 13 ;
14 [label="avg_interval_RH <= 47.044\nmse = 0.0\nsamples = 20\nvalue = 0.142"] ;
10 -> 14 ;
15 [label="mse = 0.0\nsamples = 1\nvalue = 0.091"] ;
14 -> 15 ;
16 [label="mse = 0.0\nsamples = 19\nvalue = 0.145"] ;
14 -> 16 ;
17 [label="Tests \ Pop <= 0.004\nmse = 0.001\nsamples = 6\nvalue = 0.184"] ;
1 -> 17 ;
18 [label="GDP <= 50525.5\nmse = 0.0\nsamples = 3\nvalue = 0.157"] ;
17 -> 18 ;
19 [label="mse = 0.0\nsamples = 1\nvalue = 0.135"] ;
18 -> 19 ;
20 [label="avg_interval_RH <= 67.214\nmse = 0.0\nsamples = 2\nvalue = 0.167"] ;
18 -> 20 ;
21 [label="mse = 0.0\nsamples = 1\nvalue = 0.176"] ;
20 -> 21 ;
22 [label="mse = -0.0\nsamples = 1\nvalue = 0.158"] ;
20 -> 22 ;
23 [label="avg_interval_RH <= 66.84\nmse = 0.0\nsamples = 3\nvalue = 0.21"] ;
17 -> 23 ;
24 [label="mse = 0.0\nsamples = 1\nvalue = 0.226"] ;
23 -> 24 ;
25 [label="Urbanization <= 68.25\nmse = 0.0\nsamples = 2\nvalue = 0.202"] ;
23 -> 25 ;
26 [label="mse = 0.0\nsamples = 1\nvalue = 0.205"] ;
25 -> 26 ;
27 [label="mse = -0.0\nsamples = 1\nvalue = 0.2"] ;
25 -> 27 ;
28 [label="imobility**2 <= 346.428\nmse = 0.001\nsamples = 519\nvalue = 0.111"] ;
0 -> 28 [labeldistance=2.5, labelangle=-45, headlabel="False"] ;
29 [label="Urbanization <= 66.15\nmse = 0.001\nsamples = 422\nvalue = 0.109"] ;
28 -> 29 ;
30 [label="tpc*max_cases <= 11.95\nmse = 0.001\nsamples = 89\nvalue = 0.119"] ;
29 -> 30 ;
31 [label="tmp*rh <= 223.643\nmse = 0.001\nsamples = 88\nvalue = 0.118"] ;
30 -> 31 ;
32 [label="mse = 0.0\nsamples = 1\nvalue = 0.202"] ;
31 -> 32 ;
33 [label="mse = 0.001\nsamples = 87\nvalue = 0.117"] ;
31 -> 33 ;
34 [label="mse = -0.0\nsamples = 1\nvalue = 0.202"] ;
30 -> 34 ;
35 [label="tmp**2 <= 197.093\nmse = 0.001\nsamples = 333\nvalue = 0.106"] ;
29 -> 35 ;
36 [label="tpc*max_cases <= 2.556\nmse = 0.001\nsamples = 164\nvalue = 0.111"] ;
35 -> 36 ;
37 [label="mse = 0.001\nsamples = 100\nvalue = 0.117"] ;
36 -> 37 ;
38 [label="mse = 0.001\nsamples = 64\nvalue = 0.102"] ;
36 -> 38 ;
39 [label="tpc*max_cases <= 96.07\nmse = 0.001\nsamples = 169\nvalue = 0.101"] ;
35 -> 39 ;
40 [label="mse = 0.0\nsamples = 167\nvalue = 0.1"] ;
39 -> 40 ;
41 [label="mse = 0.0\nsamples = 2\nvalue = 0.188"] ;
39 -> 41 ;
42 [label="tmp**2 <= 23.613\nmse = 0.001\nsamples = 97\nvalue = 0.121"] ;
28 -> 42 ;
43 [label="mse = 0.0\nsamples = 1\nvalue = 0.206"] ;
42 -> 43 ;
44 [label="tmp*rh <= 828.809\nmse = 0.0\nsamples = 96\nvalue = 0.12"] ;
42 -> 44 ;
45 [label="imobility**2 <= 585.194\nmse = 0.0\nsamples = 93\nvalue = 0.119"] ;
44 -> 45 ;
46 [label="mse = 0.0\nsamples = 89\nvalue = 0.118"] ;
45 -> 46 ;
47 [label="mse = 0.001\nsamples = 4\nvalue = 0.147"] ;
45 -> 47 ;
48 [label="tmp*rh <= 855.935\nmse = 0.0\nsamples = 3\nvalue = 0.153"] ;
44 -> 48 ;
49 [label="mse = 0.0\nsamples = 1\nvalue = 0.181"] ;
48 -> 49 ;
50 [label="mse = 0.0\nsamples = 2\nvalue = 0.139"] ;
48 -> 50 ;
}