digraph Tree {
node [shape=box] ;
0 [label="tpc*max_cases <= 12.205\nmse = 0.001\nsamples = 279\nvalue = 0.045"] ;
1 [label="tmp*rh <= 861.769\nmse = 0.0\nsamples = 208\nvalue = 0.041"] ;
0 -> 1 [labeldistance=2.5, labelangle=45, headlabel="True"] ;
2 [label="mse = 0.0\nsamples = 125\nvalue = 0.045"] ;
1 -> 2 ;
3 [label="mse = 0.0\nsamples = 83\nvalue = 0.035"] ;
1 -> 3 ;
4 [label="mse = 0.001\nsamples = 71\nvalue = 0.055"] ;
0 -> 4 [labeldistance=2.5, labelangle=-45, headlabel="False"] ;
}