digraph Tree {
node [shape=box] ;
0 [label="X[0] <= 43028.977\nmse = 0.012\nsamples = 851\nvalue = 0.278"] ;
1 [label="X[0] <= 467.438\nmse = 0.007\nsamples = 160\nvalue = 0.205"] ;
0 -> 1 [labeldistance=2.5, labelangle=45, headlabel="True"] ;
2 [label="X[3] <= 39.299\nmse = 0.0\nsamples = 2\nvalue = 0.449"] ;
1 -> 2 ;
3 [label="mse = 0.0\nsamples = 1\nvalue = 0.469"] ;
2 -> 3 ;
4 [label="mse = -0.0\nsamples = 1\nvalue = 0.43"] ;
2 -> 4 ;
5 [label="X[0] <= 36215.602\nmse = 0.006\nsamples = 158\nvalue = 0.202"] ;
1 -> 5 ;
6 [label="X[2] <= -0.83\nmse = 0.005\nsamples = 109\nvalue = 0.186"] ;
5 -> 6 ;
7 [label="X[2] <= -5.363\nmse = 0.006\nsamples = 6\nvalue = 0.095"] ;
6 -> 7 ;
8 [label="X[0] <= 7007.5\nmse = 0.006\nsamples = 3\nvalue = 0.147"] ;
7 -> 8 ;
9 [label="mse = 0.0\nsamples = 1\nvalue = 0.043"] ;
8 -> 9 ;
10 [label="X[2] <= -7.658\nmse = 0.0\nsamples = 2\nvalue = 0.199"] ;
8 -> 10 ;
11 [label="mse = 0.0\nsamples = 1\nvalue = 0.177"] ;
10 -> 11 ;
12 [label="mse = 0.0\nsamples = 1\nvalue = 0.221"] ;
10 -> 12 ;
13 [label="X[0] <= 6569.5\nmse = 0.001\nsamples = 3\nvalue = 0.044"] ;
7 -> 13 ;
14 [label="mse = 0.0\nsamples = 1\nvalue = 0.08"] ;
13 -> 14 ;
15 [label="X[2] <= -3.127\nmse = 0.0\nsamples = 2\nvalue = 0.026"] ;
13 -> 15 ;
16 [label="mse = 0.0\nsamples = 1\nvalue = 0.024"] ;
15 -> 16 ;
17 [label="mse = -0.0\nsamples = 1\nvalue = 0.029"] ;
15 -> 17 ;
18 [label="X[0] <= 13419.5\nmse = 0.005\nsamples = 103\nvalue = 0.192"] ;
6 -> 18 ;
19 [label="X[2] <= 30.95\nmse = 0.004\nsamples = 76\nvalue = 0.205"] ;
18 -> 19 ;
20 [label="X[0] <= 2087.976\nmse = 0.004\nsamples = 72\nvalue = 0.209"] ;
19 -> 20 ;
21 [label="X[3] <= 78.117\nmse = 0.005\nsamples = 15\nvalue = 0.235"] ;
20 -> 21 ;
22 [label="X[0] <= 1507.387\nmse = 0.003\nsamples = 13\nvalue = 0.217"] ;
21 -> 22 ;
23 [label="X[2] <= 15.058\nmse = 0.002\nsamples = 8\nvalue = 0.191"] ;
22 -> 23 ;
24 [label="mse = 0.0\nsamples = 1\nvalue = 0.274"] ;
23 -> 24 ;
25 [label="X[3] <= 73.726\nmse = 0.002\nsamples = 7\nvalue = 0.179"] ;
23 -> 25 ;
26 [label="X[2] <= 29.398\nmse = 0.001\nsamples = 5\nvalue = 0.163"] ;
25 -> 26 ;
27 [label="X[2] <= 20.074\nmse = 0.0\nsamples = 4\nvalue = 0.146"] ;
26 -> 27 ;
28 [label="mse = 0.0\nsamples = 1\nvalue = 0.164"] ;
27 -> 28 ;
29 [label="X[3] <= 69.889\nmse = 0.0\nsamples = 3\nvalue = 0.14"] ;
27 -> 29 ;
30 [label="X[2] <= 26.132\nmse = 0.0\nsamples = 2\nvalue = 0.142"] ;
29 -> 30 ;
31 [label="mse = 0.0\nsamples = 1\nvalue = 0.143"] ;
30 -> 31 ;
32 [label="mse = 0.0\nsamples = 1\nvalue = 0.142"] ;
30 -> 32 ;
33 [label="mse = -0.0\nsamples = 1\nvalue = 0.134"] ;
29 -> 33 ;
34 [label="mse = -0.0\nsamples = 1\nvalue = 0.231"] ;
26 -> 34 ;
35 [label="X[2] <= 24.839\nmse = 0.0\nsamples = 2\nvalue = 0.221"] ;
25 -> 35 ;
36 [label="mse = 0.0\nsamples = 1\nvalue = 0.239"] ;
35 -> 36 ;
37 [label="mse = -0.0\nsamples = 1\nvalue = 0.203"] ;
35 -> 37 ;
38 [label="X[3] <= 74.688\nmse = 0.0\nsamples = 5\nvalue = 0.258"] ;
22 -> 38 ;
39 [label="X[3] <= 56.206\nmse = 0.0\nsamples = 4\nvalue = 0.266"] ;
38 -> 39 ;
40 [label="mse = 0.0\nsamples = 1\nvalue = 0.252"] ;
39 -> 40 ;
41 [label="X[2] <= 20.452\nmse = 0.0\nsamples = 3\nvalue = 0.271"] ;
39 -> 41 ;
42 [label="mse = 0.0\nsamples = 1\nvalue = 0.268"] ;
41 -> 42 ;
43 [label="X[1] <= 46.933\nmse = 0.0\nsamples = 2\nvalue = 0.273"] ;
41 -> 43 ;
44 [label="mse = 0.0\nsamples = 1\nvalue = 0.273"] ;
43 -> 44 ;
45 [label="mse = 0.0\nsamples = 1\nvalue = 0.274"] ;
43 -> 45 ;
46 [label="mse = -0.0\nsamples = 1\nvalue = 0.226"] ;
38 -> 46 ;
47 [label="X[2] <= 24.481\nmse = 0.001\nsamples = 2\nvalue = 0.355"] ;
21 -> 47 ;
48 [label="mse = 0.0\nsamples = 1\nvalue = 0.319"] ;
47 -> 48 ;
49 [label="mse = 0.0\nsamples = 1\nvalue = 0.391"] ;
47 -> 49 ;
50 [label="X[0] <= 2824.57\nmse = 0.003\nsamples = 57\nvalue = 0.202"] ;
20 -> 50 ;
51 [label="X[2] <= 26.983\nmse = 0.006\nsamples = 4\nvalue = 0.14"] ;
50 -> 51 ;
52 [label="X[3] <= 57.732\nmse = 0.001\nsamples = 3\nvalue = 0.097"] ;
51 -> 52 ;
53 [label="mse = 0.0\nsamples = 1\nvalue = 0.132"] ;
52 -> 53 ;
54 [label="X[0] <= 2357.183\nmse = 0.0\nsamples = 2\nvalue = 0.08"] ;
52 -> 54 ;
55 [label="mse = 0.0\nsamples = 1\nvalue = 0.079"] ;
54 -> 55 ;
56 [label="mse = 0.0\nsamples = 1\nvalue = 0.081"] ;
54 -> 56 ;
57 [label="mse = 0.0\nsamples = 1\nvalue = 0.268"] ;
51 -> 57 ;
58 [label="X[0] <= 3098.943\nmse = 0.003\nsamples = 53\nvalue = 0.207"] ;
50 -> 58 ;
59 [label="X[1] <= 73.564\nmse = 0.001\nsamples = 2\nvalue = 0.301"] ;
58 -> 59 ;
60 [label="mse = 0.0\nsamples = 1\nvalue = 0.332"] ;
59 -> 60 ;
61 [label="mse = -0.0\nsamples = 1\nvalue = 0.271"] ;
59 -> 61 ;
62 [label="X[2] <= 3.531\nmse = 0.002\nsamples = 51\nvalue = 0.203"] ;
58 -> 62 ;
63 [label="X[1] <= 65.886\nmse = 0.0\nsamples = 3\nvalue = 0.257"] ;
62 -> 63 ;
64 [label="mse = 0.0\nsamples = 1\nvalue = 0.274"] ;
63 -> 64 ;
65 [label="X[3] <= 58.725\nmse = 0.0\nsamples = 2\nvalue = 0.248"] ;
63 -> 65 ;
66 [label="mse = 0.0\nsamples = 1\nvalue = 0.243"] ;
65 -> 66 ;
67 [label="mse = 0.0\nsamples = 1\nvalue = 0.254"] ;
65 -> 67 ;
68 [label="X[1] <= 33.7\nmse = 0.002\nsamples = 48\nvalue = 0.2"] ;
62 -> 68 ;
69 [label="X[3] <= 81.854\nmse = 0.007\nsamples = 2\nvalue = 0.26"] ;
68 -> 69 ;
70 [label="mse = 0.0\nsamples = 1\nvalue = 0.176"] ;
69 -> 70 ;
71 [label="mse = -0.0\nsamples = 1\nvalue = 0.344"] ;
69 -> 71 ;
72 [label="X[0] <= 5949.919\nmse = 0.002\nsamples = 46\nvalue = 0.197"] ;
68 -> 72 ;
73 [label="X[1] <= 69.949\nmse = 0.002\nsamples = 18\nvalue = 0.181"] ;
72 -> 73 ;
74 [label="X[2] <= 6.401\nmse = 0.001\nsamples = 14\nvalue = 0.193"] ;
73 -> 74 ;
75 [label="mse = 0.0\nsamples = 1\nvalue = 0.116"] ;
74 -> 75 ;
76 [label="X[1] <= 60.952\nmse = 0.001\nsamples = 13\nvalue = 0.199"] ;
74 -> 76 ;
77 [label="X[1] <= 57.156\nmse = 0.001\nsamples = 8\nvalue = 0.185"] ;
76 -> 77 ;
78 [label="X[1] <= 51.116\nmse = 0.001\nsamples = 6\nvalue = 0.196"] ;
77 -> 78 ;
79 [label="X[1] <= 44.66\nmse = 0.0\nsamples = 3\nvalue = 0.209"] ;
78 -> 79 ;
80 [label="mse = 0.0\nsamples = 1\nvalue = 0.193"] ;
79 -> 80 ;
81 [label="X[3] <= 66.88\nmse = 0.0\nsamples = 2\nvalue = 0.217"] ;
79 -> 81 ;
82 [label="mse = 0.0\nsamples = 1\nvalue = 0.216"] ;
81 -> 82 ;
83 [label="mse = 0.0\nsamples = 1\nvalue = 0.218"] ;
81 -> 83 ;
84 [label="X[2] <= 19.128\nmse = 0.001\nsamples = 3\nvalue = 0.183"] ;
78 -> 84 ;
85 [label="mse = 0.0\nsamples = 1\nvalue = 0.213"] ;
84 -> 85 ;
86 [label="X[3] <= 76.3\nmse = 0.0\nsamples = 2\nvalue = 0.168"] ;
84 -> 86 ;
87 [label="mse = 0.0\nsamples = 1\nvalue = 0.154"] ;
86 -> 87 ;
88 [label="mse = 0.0\nsamples = 1\nvalue = 0.181"] ;
86 -> 88 ;
89 [label="X[2] <= 11.779\nmse = 0.0\nsamples = 2\nvalue = 0.153"] ;
77 -> 89 ;
90 [label="mse = 0.0\nsamples = 1\nvalue = 0.17"] ;
89 -> 90 ;
91 [label="mse = -0.0\nsamples = 1\nvalue = 0.136"] ;
89 -> 91 ;
92 [label="X[0] <= 3498.049\nmse = 0.0\nsamples = 5\nvalue = 0.221"] ;
76 -> 92 ;
93 [label="X[1] <= 65.699\nmse = 0.0\nsamples = 2\nvalue = 0.24"] ;
92 -> 93 ;
94 [label="mse = 0.0\nsamples = 1\nvalue = 0.228"] ;
93 -> 94 ;
95 [label="mse = 0.0\nsamples = 1\nvalue = 0.253"] ;
93 -> 95 ;
96 [label="X[2] <= 18.398\nmse = 0.0\nsamples = 3\nvalue = 0.209"] ;
92 -> 96 ;
97 [label="mse = 0.0\nsamples = 1\nvalue = 0.197"] ;
96 -> 97 ;
98 [label="X[3] <= 70.288\nmse = 0.0\nsamples = 2\nvalue = 0.215"] ;
96 -> 98 ;
99 [label="mse = 0.0\nsamples = 1\nvalue = 0.217"] ;
98 -> 99 ;
100 [label="mse = -0.0\nsamples = 1\nvalue = 0.213"] ;
98 -> 100 ;
101 [label="X[3] <= 25.171\nmse = 0.001\nsamples = 4\nvalue = 0.14"] ;
73 -> 101 ;
102 [label="mse = 0.0\nsamples = 1\nvalue = 0.188"] ;
101 -> 102 ;
103 [label="X[2] <= 16.721\nmse = 0.0\nsamples = 3\nvalue = 0.124"] ;
101 -> 103 ;
104 [label="mse = 0.0\nsamples = 1\nvalue = 0.114"] ;
103 -> 104 ;
105 [label="X[1] <= 73.319\nmse = 0.0\nsamples = 2\nvalue = 0.128"] ;
103 -> 105 ;
106 [label="mse = 0.0\nsamples = 1\nvalue = 0.126"] ;
105 -> 106 ;
107 [label="mse = -0.0\nsamples = 1\nvalue = 0.13"] ;
105 -> 107 ;
108 [label="X[3] <= 81.95\nmse = 0.002\nsamples = 28\nvalue = 0.207"] ;
72 -> 108 ;
109 [label="X[3] <= 68.752\nmse = 0.001\nsamples = 24\nvalue = 0.215"] ;
108 -> 109 ;
110 [label="X[3] <= 64.375\nmse = 0.001\nsamples = 8\nvalue = 0.232"] ;
109 -> 110 ;
111 [label="X[0] <= 11855.658\nmse = 0.001\nsamples = 6\nvalue = 0.219"] ;
110 -> 111 ;
112 [label="X[3] <= 56.889\nmse = 0.0\nsamples = 4\nvalue = 0.237"] ;
111 -> 112 ;
113 [label="X[2] <= 19.195\nmse = 0.0\nsamples = 3\nvalue = 0.241"] ;
112 -> 113 ;
114 [label="mse = 0.0\nsamples = 2\nvalue = 0.247"] ;
113 -> 114 ;
115 [label="mse = -0.0\nsamples = 1\nvalue = 0.229"] ;
113 -> 115 ;
116 [label="mse = -0.0\nsamples = 1\nvalue = 0.226"] ;
112 -> 116 ;
117 [label="X[2] <= 14.992\nmse = 0.0\nsamples = 2\nvalue = 0.182"] ;
111 -> 117 ;
118 [label="mse = 0.0\nsamples = 1\nvalue = 0.192"] ;
117 -> 118 ;
119 [label="mse = 0.0\nsamples = 1\nvalue = 0.171"] ;
117 -> 119 ;
120 [label="X[2] <= 17.671\nmse = 0.0\nsamples = 2\nvalue = 0.274"] ;
110 -> 120 ;
121 [label="mse = 0.0\nsamples = 1\nvalue = 0.255"] ;
120 -> 121 ;
122 [label="mse = -0.0\nsamples = 1\nvalue = 0.293"] ;
120 -> 122 ;
123 [label="X[2] <= 6.188\nmse = 0.001\nsamples = 16\nvalue = 0.206"] ;
109 -> 123 ;
124 [label="X[3] <= 72.405\nmse = 0.0\nsamples = 2\nvalue = 0.241"] ;
123 -> 124 ;
125 [label="mse = 0.0\nsamples = 1\nvalue = 0.219"] ;
124 -> 125 ;
126 [label="mse = -0.0\nsamples = 1\nvalue = 0.264"] ;
124 -> 126 ;
127 [label="X[1] <= 75.076\nmse = 0.001\nsamples = 14\nvalue = 0.201"] ;
123 -> 127 ;
128 [label="X[1] <= 55.765\nmse = 0.001\nsamples = 8\nvalue = 0.186"] ;
127 -> 128 ;
129 [label="X[0] <= 6721.5\nmse = 0.0\nsamples = 4\nvalue = 0.205"] ;
128 -> 129 ;
130 [label="mse = 0.0\nsamples = 1\nvalue = 0.223"] ;
129 -> 130 ;
131 [label="X[0] <= 7330.281\nmse = 0.0\nsamples = 3\nvalue = 0.199"] ;
129 -> 131 ;
132 [label="X[1] <= 51.72\nmse = 0.0\nsamples = 2\nvalue = 0.202"] ;
131 -> 132 ;
133 [label="mse = 0.0\nsamples = 1\nvalue = 0.204"] ;
132 -> 133 ;
134 [label="mse = 0.0\nsamples = 1\nvalue = 0.2"] ;
132 -> 134 ;
135 [label="mse = 0.0\nsamples = 1\nvalue = 0.192"] ;
131 -> 135 ;
136 [label="X[0] <= 9618.314\nmse = 0.001\nsamples = 4\nvalue = 0.168"] ;
128 -> 136 ;
137 [label="X[2] <= 14.421\nmse = 0.0\nsamples = 2\nvalue = 0.137"] ;
136 -> 137 ;
138 [label="mse = 0.0\nsamples = 1\nvalue = 0.147"] ;
137 -> 138 ;
139 [label="mse = 0.0\nsamples = 1\nvalue = 0.128"] ;
137 -> 139 ;
140 [label="X[3] <= 77.473\nmse = 0.0\nsamples = 2\nvalue = 0.198"] ;
136 -> 140 ;
141 [label="mse = 0.0\nsamples = 1\nvalue = 0.197"] ;
140 -> 141 ;
142 [label="mse = 0.0\nsamples = 1\nvalue = 0.2"] ;
140 -> 142 ;
143 [label="X[2] <= 11.685\nmse = 0.001\nsamples = 6\nvalue = 0.22"] ;
127 -> 143 ;
144 [label="mse = 0.0\nsamples = 1\nvalue = 0.274"] ;
143 -> 144 ;
145 [label="X[2] <= 22.459\nmse = 0.0\nsamples = 5\nvalue = 0.209"] ;
143 -> 145 ;
146 [label="X[3] <= 72.467\nmse = 0.0\nsamples = 2\nvalue = 0.19"] ;
145 -> 146 ;
147 [label="mse = 0.0\nsamples = 1\nvalue = 0.182"] ;
146 -> 147 ;
148 [label="mse = 0.0\nsamples = 1\nvalue = 0.199"] ;
146 -> 148 ;
149 [label="X[2] <= 27.822\nmse = 0.0\nsamples = 3\nvalue = 0.221"] ;
145 -> 149 ;
150 [label="mse = 0.0\nsamples = 1\nvalue = 0.225"] ;
149 -> 150 ;
151 [label="X[1] <= 82.238\nmse = 0.0\nsamples = 2\nvalue = 0.218"] ;
149 -> 151 ;
152 [label="mse = 0.0\nsamples = 1\nvalue = 0.217"] ;
151 -> 152 ;
153 [label="mse = 0.0\nsamples = 1\nvalue = 0.22"] ;
151 -> 153 ;
154 [label="X[2] <= 11.93\nmse = 0.001\nsamples = 4\nvalue = 0.163"] ;
108 -> 154 ;
155 [label="mse = 0.0\nsamples = 1\nvalue = 0.198"] ;
154 -> 155 ;
156 [label="X[1] <= 45.001\nmse = 0.0\nsamples = 3\nvalue = 0.151"] ;
154 -> 156 ;
157 [label="mse = 0.0\nsamples = 1\nvalue = 0.167"] ;
156 -> 157 ;
158 [label="X[1] <= 62.623\nmse = 0.0\nsamples = 2\nvalue = 0.144"] ;
156 -> 158 ;
159 [label="mse = 0.0\nsamples = 1\nvalue = 0.139"] ;
158 -> 159 ;
160 [label="mse = 0.0\nsamples = 1\nvalue = 0.148"] ;
158 -> 160 ;
161 [label="X[1] <= 26.373\nmse = 0.003\nsamples = 4\nvalue = 0.136"] ;
19 -> 161 ;
162 [label="mse = 0.0\nsamples = 1\nvalue = 0.057"] ;
161 -> 162 ;
163 [label="X[0] <= 1020.538\nmse = 0.002\nsamples = 3\nvalue = 0.162"] ;
161 -> 163 ;
164 [label="mse = 0.0\nsamples = 1\nvalue = 0.212"] ;
163 -> 164 ;
165 [label="X[1] <= 38.886\nmse = 0.0\nsamples = 2\nvalue = 0.137"] ;
163 -> 165 ;
166 [label="mse = 0.0\nsamples = 1\nvalue = 0.116"] ;
165 -> 166 ;
167 [label="mse = 0.0\nsamples = 1\nvalue = 0.158"] ;
165 -> 167 ;
168 [label="X[0] <= 27141.638\nmse = 0.005\nsamples = 27\nvalue = 0.154"] ;
18 -> 168 ;
169 [label="X[3] <= 67.738\nmse = 0.004\nsamples = 20\nvalue = 0.137"] ;
168 -> 169 ;
170 [label="X[0] <= 17201.49\nmse = 0.004\nsamples = 13\nvalue = 0.159"] ;
169 -> 170 ;
171 [label="X[2] <= 21.979\nmse = 0.0\nsamples = 4\nvalue = 0.222"] ;
170 -> 171 ;
172 [label="X[3] <= 48.429\nmse = 0.0\nsamples = 3\nvalue = 0.21"] ;
171 -> 172 ;
173 [label="mse = 0.0\nsamples = 1\nvalue = 0.217"] ;
172 -> 173 ;
174 [label="X[3] <= 59.929\nmse = 0.0\nsamples = 2\nvalue = 0.207"] ;
172 -> 174 ;
175 [label="mse = 0.0\nsamples = 1\nvalue = 0.204"] ;
174 -> 175 ;
176 [label="mse = 0.0\nsamples = 1\nvalue = 0.209"] ;
174 -> 176 ;
177 [label="mse = -0.0\nsamples = 1\nvalue = 0.258"] ;
171 -> 177 ;
178 [label="X[1] <= 78.361\nmse = 0.004\nsamples = 9\nvalue = 0.131"] ;
170 -> 178 ;
179 [label="X[3] <= 60.887\nmse = 0.001\nsamples = 5\nvalue = 0.167"] ;
178 -> 179 ;
180 [label="X[0] <= 19298.057\nmse = 0.001\nsamples = 3\nvalue = 0.193"] ;
179 -> 180 ;
181 [label="mse = 0.0\nsamples = 1\nvalue = 0.224"] ;
180 -> 181 ;
182 [label="X[0] <= 21260.64\nmse = 0.0\nsamples = 2\nvalue = 0.177"] ;
180 -> 182 ;
183 [label="mse = 0.0\nsamples = 1\nvalue = 0.17"] ;
182 -> 183 ;
184 [label="mse = 0.0\nsamples = 1\nvalue = 0.185"] ;
182 -> 184 ;
185 [label="X[3] <= 64.485\nmse = 0.0\nsamples = 2\nvalue = 0.127"] ;
179 -> 185 ;
186 [label="mse = 0.0\nsamples = 1\nvalue = 0.121"] ;
185 -> 186 ;
187 [label="mse = 0.0\nsamples = 1\nvalue = 0.132"] ;
185 -> 187 ;
188 [label="X[2] <= 14.066\nmse = 0.003\nsamples = 4\nvalue = 0.086"] ;
178 -> 188 ;
189 [label="mse = 0.0\nsamples = 2\nvalue = 0.04"] ;
188 -> 189 ;
190 [label="X[0] <= 23694.86\nmse = 0.001\nsamples = 2\nvalue = 0.131"] ;
188 -> 190 ;
191 [label="mse = 0.0\nsamples = 1\nvalue = 0.165"] ;
190 -> 191 ;
192 [label="mse = 0.0\nsamples = 1\nvalue = 0.098"] ;
190 -> 192 ;
193 [label="X[1] <= 91.517\nmse = 0.002\nsamples = 7\nvalue = 0.096"] ;
169 -> 193 ;
194 [label="X[2] <= 10.704\nmse = 0.001\nsamples = 6\nvalue = 0.084"] ;
193 -> 194 ;
195 [label="X[0] <= 17615.627\nmse = 0.0\nsamples = 2\nvalue = 0.117"] ;
194 -> 195 ;
196 [label="mse = 0.0\nsamples = 1\nvalue = 0.121"] ;
195 -> 196 ;
197 [label="mse = 0.0\nsamples = 1\nvalue = 0.113"] ;
195 -> 197 ;
198 [label="X[2] <= 16.668\nmse = 0.001\nsamples = 4\nvalue = 0.067"] ;
194 -> 198 ;
199 [label="X[0] <= 17089.5\nmse = 0.0\nsamples = 2\nvalue = 0.042"] ;
198 -> 199 ;
200 [label="mse = 0.0\nsamples = 1\nvalue = 0.045"] ;
199 -> 200 ;
201 [label="mse = 0.0\nsamples = 1\nvalue = 0.039"] ;
199 -> 201 ;
202 [label="X[3] <= 75.123\nmse = 0.0\nsamples = 2\nvalue = 0.093"] ;
198 -> 202 ;
203 [label="mse = 0.0\nsamples = 1\nvalue = 0.1"] ;
202 -> 203 ;
204 [label="mse = 0.0\nsamples = 1\nvalue = 0.086"] ;
202 -> 204 ;
205 [label="mse = -0.0\nsamples = 1\nvalue = 0.169"] ;
193 -> 205 ;
206 [label="X[0] <= 33106.139\nmse = 0.004\nsamples = 7\nvalue = 0.204"] ;
168 -> 206 ;
207 [label="X[0] <= 30866.822\nmse = 0.002\nsamples = 5\nvalue = 0.237"] ;
206 -> 207 ;
208 [label="X[2] <= 12.489\nmse = 0.0\nsamples = 3\nvalue = 0.207"] ;
207 -> 208 ;
209 [label="mse = 0.0\nsamples = 1\nvalue = 0.193"] ;
208 -> 209 ;
210 [label="X[0] <= 29128.792\nmse = 0.0\nsamples = 2\nvalue = 0.214"] ;
208 -> 210 ;
211 [label="mse = 0.0\nsamples = 1\nvalue = 0.221"] ;
210 -> 211 ;
212 [label="mse = 0.0\nsamples = 1\nvalue = 0.208"] ;
210 -> 212 ;
213 [label="X[3] <= 67.931\nmse = 0.001\nsamples = 2\nvalue = 0.281"] ;
207 -> 213 ;
214 [label="mse = 0.0\nsamples = 1\nvalue = 0.307"] ;
213 -> 214 ;
215 [label="mse = -0.0\nsamples = 1\nvalue = 0.256"] ;
213 -> 215 ;
216 [label="X[1] <= 85.219\nmse = 0.0\nsamples = 2\nvalue = 0.12"] ;
206 -> 216 ;
217 [label="mse = 0.0\nsamples = 1\nvalue = 0.143"] ;
216 -> 217 ;
218 [label="mse = -0.0\nsamples = 1\nvalue = 0.098"] ;
216 -> 218 ;
219 [label="X[3] <= 79.111\nmse = 0.006\nsamples = 49\nvalue = 0.237"] ;
5 -> 219 ;
220 [label="X[2] <= 14.432\nmse = 0.005\nsamples = 37\nvalue = 0.224"] ;
219 -> 220 ;
221 [label="X[1] <= 86.03\nmse = 0.001\nsamples = 3\nvalue = 0.139"] ;
220 -> 221 ;
222 [label="X[3] <= 70.75\nmse = 0.0\nsamples = 2\nvalue = 0.158"] ;
221 -> 222 ;
223 [label="mse = 0.0\nsamples = 1\nvalue = 0.165"] ;
222 -> 223 ;
224 [label="mse = 0.0\nsamples = 1\nvalue = 0.151"] ;
222 -> 224 ;
225 [label="mse = -0.0\nsamples = 1\nvalue = 0.102"] ;
221 -> 225 ;
226 [label="X[3] <= 75.469\nmse = 0.004\nsamples = 34\nvalue = 0.231"] ;
220 -> 226 ;
227 [label="X[2] <= 20.037\nmse = 0.004\nsamples = 18\nvalue = 0.254"] ;
226 -> 227 ;
228 [label="X[2] <= 19.565\nmse = 0.005\nsamples = 10\nvalue = 0.272"] ;
227 -> 228 ;
229 [label="X[3] <= 72.905\nmse = 0.003\nsamples = 9\nvalue = 0.257"] ;
228 -> 229 ;
230 [label="X[2] <= 19.351\nmse = 0.0\nsamples = 5\nvalue = 0.227"] ;
229 -> 230 ;
231 [label="X[3] <= 64.76\nmse = 0.0\nsamples = 4\nvalue = 0.219"] ;
230 -> 231 ;
232 [label="mse = 0.0\nsamples = 1\nvalue = 0.203"] ;
231 -> 232 ;
233 [label="X[2] <= 17.012\nmse = 0.0\nsamples = 3\nvalue = 0.225"] ;
231 -> 233 ;
234 [label="mse = 0.0\nsamples = 1\nvalue = 0.211"] ;
233 -> 234 ;
235 [label="X[2] <= 18.489\nmse = 0.0\nsamples = 2\nvalue = 0.231"] ;
233 -> 235 ;
236 [label="mse = 0.0\nsamples = 1\nvalue = 0.235"] ;
235 -> 236 ;
237 [label="mse = 0.0\nsamples = 1\nvalue = 0.228"] ;
235 -> 237 ;
238 [label="mse = 0.0\nsamples = 1\nvalue = 0.261"] ;
230 -> 238 ;
239 [label="X[2] <= 19.143\nmse = 0.004\nsamples = 4\nvalue = 0.293"] ;
229 -> 239 ;
240 [label="X[2] <= 17.403\nmse = 0.0\nsamples = 3\nvalue = 0.259"] ;
239 -> 240 ;
241 [label="X[3] <= 73.888\nmse = 0.0\nsamples = 2\nvalue = 0.27"] ;
240 -> 241 ;
242 [label="mse = 0.0\nsamples = 1\nvalue = 0.274"] ;
241 -> 242 ;
243 [label="mse = -0.0\nsamples = 1\nvalue = 0.267"] ;
241 -> 243 ;
244 [label="mse = -0.0\nsamples = 1\nvalue = 0.235"] ;
240 -> 244 ;
245 [label="mse = 0.0\nsamples = 1\nvalue = 0.397"] ;
239 -> 245 ;
246 [label="mse = -0.0\nsamples = 1\nvalue = 0.41"] ;
228 -> 246 ;
247 [label="X[2] <= 27.681\nmse = 0.001\nsamples = 8\nvalue = 0.232"] ;
227 -> 247 ;
248 [label="X[0] <= 39705.822\nmse = 0.001\nsamples = 7\nvalue = 0.222"] ;
247 -> 248 ;
249 [label="X[2] <= 21.294\nmse = 0.001\nsamples = 4\nvalue = 0.207"] ;
248 -> 249 ;
250 [label="X[3] <= 74.544\nmse = 0.0\nsamples = 2\nvalue = 0.23"] ;
249 -> 250 ;
251 [label="mse = 0.0\nsamples = 1\nvalue = 0.214"] ;
250 -> 251 ;
252 [label="mse = 0.0\nsamples = 1\nvalue = 0.246"] ;
250 -> 252 ;
253 [label="X[3] <= 72.293\nmse = 0.0\nsamples = 2\nvalue = 0.184"] ;
249 -> 253 ;
254 [label="mse = 0.0\nsamples = 1\nvalue = 0.2"] ;
253 -> 254 ;
255 [label="mse = -0.0\nsamples = 1\nvalue = 0.167"] ;
253 -> 255 ;
256 [label="X[2] <= 26.041\nmse = 0.0\nsamples = 3\nvalue = 0.243"] ;
248 -> 256 ;
257 [label="mse = 0.0\nsamples = 1\nvalue = 0.236"] ;
256 -> 257 ;
258 [label="X[2] <= 26.378\nmse = 0.0\nsamples = 2\nvalue = 0.247"] ;
256 -> 258 ;
259 [label="mse = 0.0\nsamples = 1\nvalue = 0.243"] ;
258 -> 259 ;
260 [label="mse = 0.0\nsamples = 1\nvalue = 0.25"] ;
258 -> 260 ;
261 [label="mse = -0.0\nsamples = 1\nvalue = 0.302"] ;
247 -> 261 ;
262 [label="X[2] <= 16.224\nmse = 0.004\nsamples = 16\nvalue = 0.205"] ;
226 -> 262 ;
263 [label="X[3] <= 78.192\nmse = 0.003\nsamples = 4\nvalue = 0.168"] ;
262 -> 263 ;
264 [label="X[2] <= 15.887\nmse = 0.001\nsamples = 3\nvalue = 0.14"] ;
263 -> 264 ;
265 [label="mse = 0.0\nsamples = 1\nvalue = 0.098"] ;
264 -> 265 ;
266 [label="X[3] <= 75.969\nmse = 0.0\nsamples = 2\nvalue = 0.161"] ;
264 -> 266 ;
267 [label="mse = 0.0\nsamples = 1\nvalue = 0.156"] ;
266 -> 267 ;
268 [label="mse = 0.0\nsamples = 1\nvalue = 0.167"] ;
266 -> 268 ;
269 [label="mse = 0.0\nsamples = 1\nvalue = 0.25"] ;
263 -> 269 ;
270 [label="X[2] <= 17.569\nmse = 0.003\nsamples = 12\nvalue = 0.217"] ;
262 -> 270 ;
271 [label="X[3] <= 77.305\nmse = 0.0\nsamples = 3\nvalue = 0.269"] ;
270 -> 271 ;
272 [label="X[2] <= 16.983\nmse = 0.0\nsamples = 2\nvalue = 0.259"] ;
271 -> 272 ;
273 [label="mse = 0.0\nsamples = 1\nvalue = 0.268"] ;
272 -> 273 ;
274 [label="mse = 0.0\nsamples = 1\nvalue = 0.25"] ;
272 -> 274 ;
275 [label="mse = -0.0\nsamples = 1\nvalue = 0.289"] ;
271 -> 275 ;
276 [label="X[2] <= 20.429\nmse = 0.003\nsamples = 9\nvalue = 0.2"] ;
270 -> 276 ;
277 [label="X[3] <= 76.817\nmse = 0.001\nsamples = 5\nvalue = 0.177"] ;
276 -> 277 ;
278 [label="X[3] <= 76.326\nmse = 0.0\nsamples = 2\nvalue = 0.206"] ;
277 -> 278 ;
279 [label="mse = 0.0\nsamples = 1\nvalue = 0.211"] ;
278 -> 279 ;
280 [label="mse = 0.0\nsamples = 1\nvalue = 0.201"] ;
278 -> 280 ;
281 [label="X[3] <= 77.085\nmse = 0.0\nsamples = 3\nvalue = 0.158"] ;
277 -> 281 ;
282 [label="mse = 0.0\nsamples = 1\nvalue = 0.14"] ;
281 -> 282 ;
283 [label="mse = 0.0\nsamples = 2\nvalue = 0.167"] ;
281 -> 283 ;
284 [label="X[1] <= 64.922\nmse = 0.005\nsamples = 4\nvalue = 0.229"] ;
276 -> 284 ;
285 [label="mse = 0.0\nsamples = 1\nvalue = 0.344"] ;
284 -> 285 ;
286 [label="X[3] <= 77.789\nmse = 0.0\nsamples = 3\nvalue = 0.191"] ;
284 -> 286 ;
287 [label="mse = 0.0\nsamples = 1\nvalue = 0.215"] ;
286 -> 287 ;
288 [label="X[3] <= 78.585\nmse = 0.0\nsamples = 2\nvalue = 0.179"] ;
286 -> 288 ;
289 [label="mse = 0.0\nsamples = 1\nvalue = 0.18"] ;
288 -> 289 ;
290 [label="mse = 0.0\nsamples = 1\nvalue = 0.178"] ;
288 -> 290 ;
291 [label="X[3] <= 81.334\nmse = 0.008\nsamples = 12\nvalue = 0.279"] ;
219 -> 291 ;
292 [label="X[3] <= 79.776\nmse = 0.005\nsamples = 8\nvalue = 0.328"] ;
291 -> 292 ;
293 [label="X[0] <= 40201.0\nmse = 0.006\nsamples = 3\nvalue = 0.278"] ;
292 -> 293 ;
294 [label="mse = 0.0\nsamples = 1\nvalue = 0.39"] ;
293 -> 294 ;
295 [label="X[2] <= 15.333\nmse = 0.0\nsamples = 2\nvalue = 0.222"] ;
293 -> 295 ;
296 [label="mse = 0.0\nsamples = 1\nvalue = 0.208"] ;
295 -> 296 ;
297 [label="mse = 0.0\nsamples = 1\nvalue = 0.235"] ;
295 -> 297 ;
298 [label="X[0] <= 42199.666\nmse = 0.002\nsamples = 5\nvalue = 0.358"] ;
292 -> 298 ;
299 [label="X[2] <= 15.975\nmse = 0.0\nsamples = 3\nvalue = 0.322"] ;
298 -> 299 ;
300 [label="mse = 0.0\nsamples = 1\nvalue = 0.3"] ;
299 -> 300 ;
301 [label="mse = 0.0\nsamples = 2\nvalue = 0.333"] ;
299 -> 301 ;
302 [label="X[3] <= 80.338\nmse = 0.0\nsamples = 2\nvalue = 0.41"] ;
298 -> 302 ;
303 [label="mse = 0.0\nsamples = 1\nvalue = 0.406"] ;
302 -> 303 ;
304 [label="mse = -0.0\nsamples = 1\nvalue = 0.415"] ;
302 -> 304 ;
305 [label="X[2] <= 15.963\nmse = 0.001\nsamples = 4\nvalue = 0.182"] ;
291 -> 305 ;
306 [label="X[2] <= 14.69\nmse = 0.0\nsamples = 2\nvalue = 0.202"] ;
305 -> 306 ;
307 [label="mse = 0.0\nsamples = 1\nvalue = 0.183"] ;
306 -> 307 ;
308 [label="mse = 0.0\nsamples = 1\nvalue = 0.222"] ;
306 -> 308 ;
309 [label="X[1] <= 64.922\nmse = 0.0\nsamples = 2\nvalue = 0.162"] ;
305 -> 309 ;
310 [label="mse = 0.0\nsamples = 1\nvalue = 0.167"] ;
309 -> 310 ;
311 [label="mse = -0.0\nsamples = 1\nvalue = 0.158"] ;
309 -> 311 ;
312 [label="X[2] <= 6.905\nmse = 0.012\nsamples = 691\nvalue = 0.295"] ;
0 -> 312 [labeldistance=2.5, labelangle=-45, headlabel="False"] ;
313 [label="X[0] <= 44831.494\nmse = 0.008\nsamples = 188\nvalue = 0.262"] ;
312 -> 313 ;
314 [label="X[3] <= 61.731\nmse = 0.005\nsamples = 2\nvalue = 0.472"] ;
313 -> 314 ;
315 [label="mse = 0.0\nsamples = 1\nvalue = 0.402"] ;
314 -> 315 ;
316 [label="mse = -0.0\nsamples = 1\nvalue = 0.542"] ;
314 -> 316 ;
317 [label="X[3] <= 70.604\nmse = 0.007\nsamples = 186\nvalue = 0.259"] ;
313 -> 317 ;
318 [label="X[1] <= 86.815\nmse = 0.007\nsamples = 68\nvalue = 0.234"] ;
317 -> 318 ;
319 [label="X[2] <= 4.988\nmse = 0.008\nsamples = 43\nvalue = 0.254"] ;
318 -> 319 ;
320 [label="X[3] <= 63.503\nmse = 0.007\nsamples = 24\nvalue = 0.225"] ;
319 -> 320 ;
321 [label="X[2] <= 3.458\nmse = 0.001\nsamples = 7\nvalue = 0.175"] ;
320 -> 321 ;
322 [label="X[3] <= 60.512\nmse = 0.0\nsamples = 4\nvalue = 0.152"] ;
321 -> 322 ;
323 [label="X[1] <= 75.5\nmse = 0.0\nsamples = 2\nvalue = 0.139"] ;
322 -> 323 ;
324 [label="mse = 0.0\nsamples = 1\nvalue = 0.144"] ;
323 -> 324 ;
325 [label="mse = -0.0\nsamples = 1\nvalue = 0.133"] ;
323 -> 325 ;
326 [label="X[2] <= 2.389\nmse = 0.0\nsamples = 2\nvalue = 0.166"] ;
322 -> 326 ;
327 [label="mse = 0.0\nsamples = 1\nvalue = 0.184"] ;
326 -> 327 ;
328 [label="mse = -0.0\nsamples = 1\nvalue = 0.149"] ;
326 -> 328 ;
329 [label="X[1] <= 48.599\nmse = 0.001\nsamples = 3\nvalue = 0.206"] ;
321 -> 329 ;
330 [label="mse = 0.0\nsamples = 1\nvalue = 0.168"] ;
329 -> 330 ;
331 [label="X[0] <= 57671.977\nmse = 0.0\nsamples = 2\nvalue = 0.225"] ;
329 -> 331 ;
332 [label="mse = 0.0\nsamples = 1\nvalue = 0.236"] ;
331 -> 332 ;
333 [label="mse = 0.0\nsamples = 1\nvalue = 0.214"] ;
331 -> 333 ;
334 [label="X[3] <= 64.433\nmse = 0.008\nsamples = 17\nvalue = 0.246"] ;
320 -> 334 ;
335 [label="mse = 0.0\nsamples = 1\nvalue = 0.387"] ;
334 -> 335 ;
336 [label="X[3] <= 65.235\nmse = 0.007\nsamples = 16\nvalue = 0.237"] ;
334 -> 336 ;
337 [label="mse = 0.0\nsamples = 1\nvalue = 0.091"] ;
336 -> 337 ;
338 [label="X[3] <= 67.711\nmse = 0.006\nsamples = 15\nvalue = 0.247"] ;
336 -> 338 ;
339 [label="X[2] <= 4.336\nmse = 0.005\nsamples = 7\nvalue = 0.288"] ;
338 -> 339 ;
340 [label="X[2] <= 4.28\nmse = 0.002\nsamples = 6\nvalue = 0.311"] ;
339 -> 340 ;
341 [label="X[3] <= 66.071\nmse = 0.0\nsamples = 5\nvalue = 0.293"] ;
340 -> 341 ;
342 [label="X[2] <= 2.808\nmse = 0.0\nsamples = 2\nvalue = 0.311"] ;
341 -> 342 ;
343 [label="mse = 0.0\nsamples = 1\nvalue = 0.3"] ;
342 -> 343 ;
344 [label="mse = 0.0\nsamples = 1\nvalue = 0.321"] ;
342 -> 344 ;
345 [label="X[1] <= 70.656\nmse = 0.0\nsamples = 3\nvalue = 0.281"] ;
341 -> 345 ;
346 [label="X[0] <= 63060.0\nmse = 0.0\nsamples = 2\nvalue = 0.286"] ;
345 -> 346 ;
347 [label="mse = 0.0\nsamples = 1\nvalue = 0.287"] ;
346 -> 347 ;
348 [label="mse = 0.0\nsamples = 1\nvalue = 0.286"] ;
346 -> 348 ;
349 [label="mse = -0.0\nsamples = 1\nvalue = 0.271"] ;
345 -> 349 ;
350 [label="mse = 0.0\nsamples = 1\nvalue = 0.4"] ;
340 -> 350 ;
351 [label="mse = 0.0\nsamples = 1\nvalue = 0.154"] ;
339 -> 351 ;
352 [label="X[1] <= 57.9\nmse = 0.005\nsamples = 8\nvalue = 0.211"] ;
338 -> 352 ;
353 [label="X[1] <= 47.4\nmse = 0.001\nsamples = 3\nvalue = 0.286"] ;
352 -> 353 ;
354 [label="X[2] <= 3.868\nmse = 0.0\nsamples = 2\nvalue = 0.307"] ;
353 -> 354 ;
355 [label="mse = 0.0\nsamples = 1\nvalue = 0.308"] ;
354 -> 355 ;
356 [label="mse = 0.0\nsamples = 1\nvalue = 0.306"] ;
354 -> 356 ;
357 [label="mse = 0.0\nsamples = 1\nvalue = 0.245"] ;
353 -> 357 ;
358 [label="X[2] <= 3.294\nmse = 0.001\nsamples = 5\nvalue = 0.166"] ;
352 -> 358 ;
359 [label="X[3] <= 68.58\nmse = 0.0\nsamples = 3\nvalue = 0.142"] ;
358 -> 359 ;
360 [label="mse = 0.0\nsamples = 1\nvalue = 0.125"] ;
359 -> 360 ;
361 [label="X[1] <= 72.841\nmse = 0.0\nsamples = 2\nvalue = 0.15"] ;
359 -> 361 ;
362 [label="mse = 0.0\nsamples = 1\nvalue = 0.148"] ;
361 -> 362 ;
363 [label="mse = 0.0\nsamples = 1\nvalue = 0.153"] ;
361 -> 363 ;
364 [label="X[1] <= 71.75\nmse = 0.001\nsamples = 2\nvalue = 0.201"] ;
358 -> 364 ;
365 [label="mse = 0.0\nsamples = 1\nvalue = 0.238"] ;
364 -> 365 ;
366 [label="mse = -0.0\nsamples = 1\nvalue = 0.165"] ;
364 -> 366 ;
367 [label="X[1] <= 58.5\nmse = 0.006\nsamples = 19\nvalue = 0.29"] ;
319 -> 367 ;
368 [label="X[3] <= 69.731\nmse = 0.011\nsamples = 2\nvalue = 0.394"] ;
367 -> 368 ;
369 [label="mse = 0.0\nsamples = 1\nvalue = 0.5"] ;
368 -> 369 ;
370 [label="mse = 0.0\nsamples = 1\nvalue = 0.289"] ;
368 -> 370 ;
371 [label="X[1] <= 77.606\nmse = 0.004\nsamples = 17\nvalue = 0.278"] ;
367 -> 371 ;
372 [label="X[2] <= 5.677\nmse = 0.001\nsamples = 4\nvalue = 0.196"] ;
371 -> 372 ;
373 [label="mse = 0.0\nsamples = 1\nvalue = 0.234"] ;
372 -> 373 ;
374 [label="X[1] <= 71.998\nmse = 0.0\nsamples = 3\nvalue = 0.183"] ;
372 -> 374 ;
375 [label="mse = 0.0\nsamples = 1\nvalue = 0.167"] ;
374 -> 375 ;
376 [label="X[3] <= 64.585\nmse = 0.0\nsamples = 2\nvalue = 0.191"] ;
374 -> 376 ;
377 [label="mse = 0.0\nsamples = 1\nvalue = 0.194"] ;
376 -> 377 ;
378 [label="mse = 0.0\nsamples = 1\nvalue = 0.189"] ;
376 -> 378 ;
379 [label="X[3] <= 57.306\nmse = 0.003\nsamples = 13\nvalue = 0.303"] ;
371 -> 379 ;
380 [label="X[3] <= 53.095\nmse = 0.003\nsamples = 6\nvalue = 0.332"] ;
379 -> 380 ;
381 [label="mse = 0.0\nsamples = 2\nvalue = 0.277"] ;
380 -> 381 ;
382 [label="X[3] <= 56.711\nmse = 0.002\nsamples = 4\nvalue = 0.359"] ;
380 -> 382 ;
383 [label="X[2] <= 5.988\nmse = 0.002\nsamples = 3\nvalue = 0.349"] ;
382 -> 383 ;
384 [label="mse = 0.0\nsamples = 1\nvalue = 0.299"] ;
383 -> 384 ;
385 [label="X[1] <= 85.15\nmse = 0.001\nsamples = 2\nvalue = 0.375"] ;
383 -> 385 ;
386 [label="mse = 0.0\nsamples = 1\nvalue = 0.345"] ;
385 -> 386 ;
387 [label="mse = 0.0\nsamples = 1\nvalue = 0.404"] ;
385 -> 387 ;
388 [label="mse = -0.0\nsamples = 1\nvalue = 0.389"] ;
382 -> 388 ;
389 [label="X[2] <= 5.868\nmse = 0.001\nsamples = 7\nvalue = 0.279"] ;
379 -> 389 ;
390 [label="X[2] <= 5.319\nmse = 0.001\nsamples = 5\nvalue = 0.29"] ;
389 -> 390 ;
391 [label="X[3] <= 57.889\nmse = 0.0\nsamples = 3\nvalue = 0.269"] ;
390 -> 391 ;
392 [label="mse = 0.0\nsamples = 1\nvalue = 0.298"] ;
391 -> 392 ;
393 [label="X[2] <= 5.069\nmse = 0.0\nsamples = 2\nvalue = 0.255"] ;
391 -> 393 ;
394 [label="mse = 0.0\nsamples = 1\nvalue = 0.259"] ;
393 -> 394 ;
395 [label="mse = 0.0\nsamples = 1\nvalue = 0.25"] ;
393 -> 395 ;
396 [label="X[3] <= 59.58\nmse = 0.001\nsamples = 2\nvalue = 0.322"] ;
390 -> 396 ;
397 [label="mse = 0.0\nsamples = 1\nvalue = 0.292"] ;
396 -> 397 ;
398 [label="mse = -0.0\nsamples = 1\nvalue = 0.351"] ;
396 -> 398 ;
399 [label="X[0] <= 60687.0\nmse = 0.0\nsamples = 2\nvalue = 0.25"] ;
389 -> 399 ;
400 [label="mse = 0.0\nsamples = 1\nvalue = 0.263"] ;
399 -> 400 ;
401 [label="mse = 0.0\nsamples = 1\nvalue = 0.237"] ;
399 -> 401 ;
402 [label="X[1] <= 87.95\nmse = 0.005\nsamples = 25\nvalue = 0.2"] ;
318 -> 402 ;
403 [label="X[1] <= 87.887\nmse = 0.002\nsamples = 9\nvalue = 0.159"] ;
402 -> 403 ;
404 [label="X[2] <= 2.55\nmse = 0.0\nsamples = 2\nvalue = 0.107"] ;
403 -> 404 ;
405 [label="mse = 0.0\nsamples = 1\nvalue = 0.124"] ;
404 -> 405 ;
406 [label="mse = 0.0\nsamples = 1\nvalue = 0.09"] ;
404 -> 406 ;
407 [label="X[3] <= 63.165\nmse = 0.002\nsamples = 7\nvalue = 0.174"] ;
403 -> 407 ;
408 [label="X[2] <= 6.37\nmse = 0.001\nsamples = 2\nvalue = 0.13"] ;
407 -> 408 ;
409 [label="mse = 0.0\nsamples = 1\nvalue = 0.167"] ;
408 -> 409 ;
410 [label="mse = 0.0\nsamples = 1\nvalue = 0.094"] ;
408 -> 410 ;
411 [label="X[3] <= 68.213\nmse = 0.001\nsamples = 5\nvalue = 0.191"] ;
407 -> 411 ;
412 [label="X[2] <= 6.728\nmse = 0.0\nsamples = 4\nvalue = 0.18"] ;
411 -> 412 ;
413 [label="X[3] <= 67.0\nmse = 0.0\nsamples = 3\nvalue = 0.182"] ;
412 -> 413 ;
414 [label="X[2] <= 5.507\nmse = 0.0\nsamples = 2\nvalue = 0.184"] ;
413 -> 414 ;
415 [label="mse = 0.0\nsamples = 1\nvalue = 0.185"] ;
414 -> 415 ;
416 [label="mse = -0.0\nsamples = 1\nvalue = 0.183"] ;
414 -> 416 ;
417 [label="mse = -0.0\nsamples = 1\nvalue = 0.177"] ;
413 -> 417 ;
418 [label="mse = -0.0\nsamples = 1\nvalue = 0.174"] ;
412 -> 418 ;
419 [label="mse = -0.0\nsamples = 1\nvalue = 0.237"] ;
411 -> 419 ;
420 [label="X[3] <= 69.487\nmse = 0.004\nsamples = 16\nvalue = 0.223"] ;
402 -> 420 ;
421 [label="X[2] <= 4.257\nmse = 0.003\nsamples = 12\nvalue = 0.205"] ;
420 -> 421 ;
422 [label="X[0] <= 51802.5\nmse = 0.002\nsamples = 2\nvalue = 0.294"] ;
421 -> 422 ;
423 [label="mse = 0.0\nsamples = 1\nvalue = 0.255"] ;
422 -> 423 ;
424 [label="mse = -0.0\nsamples = 1\nvalue = 0.333"] ;
422 -> 424 ;
425 [label="X[2] <= 6.256\nmse = 0.002\nsamples = 10\nvalue = 0.187"] ;
421 -> 425 ;
426 [label="X[2] <= 5.542\nmse = 0.002\nsamples = 5\nvalue = 0.165"] ;
425 -> 426 ;
427 [label="X[1] <= 93.1\nmse = 0.0\nsamples = 3\nvalue = 0.196"] ;
426 -> 427 ;
428 [label="X[2] <= 4.839\nmse = 0.0\nsamples = 2\nvalue = 0.204"] ;
427 -> 428 ;
429 [label="mse = 0.0\nsamples = 1\nvalue = 0.202"] ;
428 -> 429 ;
430 [label="mse = -0.0\nsamples = 1\nvalue = 0.205"] ;
428 -> 430 ;
431 [label="mse = 0.0\nsamples = 1\nvalue = 0.18"] ;
427 -> 431 ;
432 [label="X[3] <= 65.837\nmse = 0.002\nsamples = 2\nvalue = 0.12"] ;
426 -> 432 ;
433 [label="mse = 0.0\nsamples = 1\nvalue = 0.073"] ;
432 -> 433 ;
434 [label="mse = -0.0\nsamples = 1\nvalue = 0.167"] ;
432 -> 434 ;
435 [label="X[2] <= 6.858\nmse = 0.0\nsamples = 5\nvalue = 0.209"] ;
425 -> 435 ;
436 [label="X[3] <= 66.702\nmse = 0.0\nsamples = 4\nvalue = 0.202"] ;
435 -> 436 ;
437 [label="X[3] <= 59.396\nmse = 0.0\nsamples = 2\nvalue = 0.209"] ;
436 -> 437 ;
438 [label="mse = 0.0\nsamples = 1\nvalue = 0.213"] ;
437 -> 438 ;
439 [label="mse = -0.0\nsamples = 1\nvalue = 0.205"] ;
437 -> 439 ;
440 [label="X[1] <= 91.095\nmse = 0.0\nsamples = 2\nvalue = 0.195"] ;
436 -> 440 ;
441 [label="mse = 0.0\nsamples = 1\nvalue = 0.203"] ;
440 -> 441 ;
442 [label="mse = 0.0\nsamples = 1\nvalue = 0.187"] ;
440 -> 442 ;
443 [label="mse = -0.0\nsamples = 1\nvalue = 0.238"] ;
435 -> 443 ;
444 [label="X[3] <= 70.153\nmse = 0.004\nsamples = 4\nvalue = 0.278"] ;
420 -> 444 ;
445 [label="X[2] <= 5.49\nmse = 0.002\nsamples = 3\nvalue = 0.308"] ;
444 -> 445 ;
446 [label="mse = 0.0\nsamples = 1\nvalue = 0.361"] ;
445 -> 446 ;
447 [label="X[2] <= 6.208\nmse = 0.0\nsamples = 2\nvalue = 0.281"] ;
445 -> 447 ;
448 [label="mse = 0.0\nsamples = 1\nvalue = 0.298"] ;
447 -> 448 ;
449 [label="mse = -0.0\nsamples = 1\nvalue = 0.264"] ;
447 -> 449 ;
450 [label="mse = 0.0\nsamples = 1\nvalue = 0.188"] ;
444 -> 450 ;
451 [label="X[1] <= 73.95\nmse = 0.007\nsamples = 118\nvalue = 0.274"] ;
317 -> 451 ;
452 [label="X[2] <= 1.888\nmse = 0.004\nsamples = 38\nvalue = 0.238"] ;
451 -> 452 ;
453 [label="X[3] <= 79.769\nmse = 0.001\nsamples = 3\nvalue = 0.323"] ;
452 -> 453 ;
454 [label="X[3] <= 76.577\nmse = 0.0\nsamples = 2\nvalue = 0.308"] ;
453 -> 454 ;
455 [label="mse = 0.0\nsamples = 1\nvalue = 0.3"] ;
454 -> 455 ;
456 [label="mse = 0.0\nsamples = 1\nvalue = 0.316"] ;
454 -> 456 ;
457 [label="mse = -0.0\nsamples = 1\nvalue = 0.354"] ;
453 -> 457 ;
458 [label="X[1] <= 26.519\nmse = 0.003\nsamples = 35\nvalue = 0.231"] ;
452 -> 458 ;
459 [label="mse = 0.0\nsamples = 1\nvalue = 0.105"] ;
458 -> 459 ;
460 [label="X[2] <= 4.463\nmse = 0.003\nsamples = 34\nvalue = 0.234"] ;
458 -> 460 ;
461 [label="X[3] <= 76.187\nmse = 0.003\nsamples = 20\nvalue = 0.215"] ;
460 -> 461 ;
462 [label="X[3] <= 74.841\nmse = 0.004\nsamples = 10\nvalue = 0.237"] ;
461 -> 462 ;
463 [label="X[3] <= 74.494\nmse = 0.004\nsamples = 7\nvalue = 0.215"] ;
462 -> 463 ;
464 [label="X[3] <= 72.514\nmse = 0.001\nsamples = 5\nvalue = 0.247"] ;
463 -> 464 ;
465 [label="X[2] <= 3.14\nmse = 0.0\nsamples = 2\nvalue = 0.225"] ;
464 -> 465 ;
466 [label="mse = 0.0\nsamples = 1\nvalue = 0.213"] ;
465 -> 466 ;
467 [label="mse = -0.0\nsamples = 1\nvalue = 0.238"] ;
465 -> 467 ;
468 [label="X[2] <= 3.624\nmse = 0.001\nsamples = 3\nvalue = 0.262"] ;
464 -> 468 ;
469 [label="mse = 0.0\nsamples = 1\nvalue = 0.312"] ;
468 -> 469 ;
470 [label="X[1] <= 56.0\nmse = 0.0\nsamples = 2\nvalue = 0.237"] ;
468 -> 470 ;
471 [label="mse = 0.0\nsamples = 1\nvalue = 0.25"] ;
470 -> 471 ;
472 [label="mse = 0.0\nsamples = 1\nvalue = 0.225"] ;
470 -> 472 ;
473 [label="X[3] <= 74.7\nmse = 0.001\nsamples = 2\nvalue = 0.133"] ;
463 -> 473 ;
474 [label="mse = 0.0\nsamples = 1\nvalue = 0.106"] ;
473 -> 474 ;
475 [label="mse = -0.0\nsamples = 1\nvalue = 0.161"] ;
473 -> 475 ;
476 [label="X[3] <= 75.222\nmse = 0.001\nsamples = 3\nvalue = 0.288"] ;
462 -> 476 ;
477 [label="X[0] <= 61197.5\nmse = 0.0\nsamples = 2\nvalue = 0.306"] ;
476 -> 477 ;
478 [label="mse = 0.0\nsamples = 1\nvalue = 0.321"] ;
477 -> 478 ;
479 [label="mse = 0.0\nsamples = 1\nvalue = 0.29"] ;
477 -> 479 ;
480 [label="mse = 0.0\nsamples = 1\nvalue = 0.254"] ;
476 -> 480 ;
481 [label="X[3] <= 77.979\nmse = 0.001\nsamples = 10\nvalue = 0.192"] ;
461 -> 481 ;
482 [label="X[3] <= 77.364\nmse = 0.0\nsamples = 2\nvalue = 0.169"] ;
481 -> 482 ;
483 [label="mse = 0.0\nsamples = 1\nvalue = 0.171"] ;
482 -> 483 ;
484 [label="mse = 0.0\nsamples = 1\nvalue = 0.167"] ;
482 -> 484 ;
485 [label="X[3] <= 83.356\nmse = 0.001\nsamples = 8\nvalue = 0.198"] ;
481 -> 485 ;
486 [label="X[2] <= 3.785\nmse = 0.0\nsamples = 5\nvalue = 0.209"] ;
485 -> 486 ;
487 [label="X[1] <= 71.75\nmse = 0.001\nsamples = 2\nvalue = 0.225"] ;
486 -> 487 ;
488 [label="mse = 0.0\nsamples = 1\nvalue = 0.2"] ;
487 -> 488 ;
489 [label="mse = 0.0\nsamples = 1\nvalue = 0.25"] ;
487 -> 489 ;
490 [label="X[0] <= 61197.5\nmse = 0.0\nsamples = 3\nvalue = 0.198"] ;
486 -> 490 ;
491 [label="mse = 0.0\nsamples = 1\nvalue = 0.208"] ;
490 -> 491 ;
492 [label="X[2] <= 4.128\nmse = 0.0\nsamples = 2\nvalue = 0.193"] ;
490 -> 492 ;
493 [label="mse = 0.0\nsamples = 1\nvalue = 0.2"] ;
492 -> 493 ;
494 [label="mse = -0.0\nsamples = 1\nvalue = 0.186"] ;
492 -> 494 ;
495 [label="X[1] <= 71.75\nmse = 0.0\nsamples = 3\nvalue = 0.18"] ;
485 -> 495 ;
496 [label="mse = 0.0\nsamples = 2\nvalue = 0.175"] ;
495 -> 496 ;
497 [label="mse = 0.0\nsamples = 1\nvalue = 0.191"] ;
495 -> 497 ;
498 [label="X[1] <= 62.15\nmse = 0.002\nsamples = 14\nvalue = 0.262"] ;
460 -> 498 ;
499 [label="mse = 0.0\nsamples = 1\nvalue = 0.364"] ;
498 -> 499 ;
500 [label="X[3] <= 78.594\nmse = 0.002\nsamples = 13\nvalue = 0.254"] ;
498 -> 500 ;
501 [label="X[3] <= 74.92\nmse = 0.001\nsamples = 6\nvalue = 0.232"] ;
500 -> 501 ;
502 [label="mse = 0.0\nsamples = 1\nvalue = 0.274"] ;
501 -> 502 ;
503 [label="X[3] <= 76.768\nmse = 0.0\nsamples = 5\nvalue = 0.224"] ;
501 -> 503 ;
504 [label="X[2] <= 5.405\nmse = 0.0\nsamples = 2\nvalue = 0.201"] ;
503 -> 504 ;
505 [label="mse = 0.0\nsamples = 1\nvalue = 0.204"] ;
504 -> 505 ;
506 [label="mse = -0.0\nsamples = 1\nvalue = 0.198"] ;
504 -> 506 ;
507 [label="X[2] <= 4.809\nmse = 0.0\nsamples = 3\nvalue = 0.24"] ;
503 -> 507 ;
508 [label="mse = 0.0\nsamples = 1\nvalue = 0.25"] ;
507 -> 508 ;
509 [label="X[1] <= 71.3\nmse = 0.0\nsamples = 2\nvalue = 0.235"] ;
507 -> 509 ;
510 [label="mse = 0.0\nsamples = 1\nvalue = 0.233"] ;
509 -> 510 ;
511 [label="mse = -0.0\nsamples = 1\nvalue = 0.236"] ;
509 -> 511 ;
512 [label="X[2] <= 5.689\nmse = 0.002\nsamples = 7\nvalue = 0.273"] ;
500 -> 512 ;
513 [label="X[2] <= 4.913\nmse = 0.001\nsamples = 3\nvalue = 0.307"] ;
512 -> 513 ;
514 [label="mse = 0.0\nsamples = 1\nvalue = 0.271"] ;
513 -> 514 ;
515 [label="X[1] <= 68.2\nmse = 0.0\nsamples = 2\nvalue = 0.326"] ;
513 -> 515 ;
516 [label="mse = 0.0\nsamples = 1\nvalue = 0.333"] ;
515 -> 516 ;
517 [label="mse = 0.0\nsamples = 1\nvalue = 0.318"] ;
515 -> 517 ;
518 [label="X[1] <= 68.2\nmse = 0.001\nsamples = 4\nvalue = 0.248"] ;
512 -> 518 ;
519 [label="mse = 0.0\nsamples = 1\nvalue = 0.273"] ;
518 -> 519 ;
520 [label="X[2] <= 6.748\nmse = 0.001\nsamples = 3\nvalue = 0.239"] ;
518 -> 520 ;
521 [label="X[0] <= 59557.0\nmse = 0.001\nsamples = 2\nvalue = 0.225"] ;
520 -> 521 ;
522 [label="mse = 0.0\nsamples = 1\nvalue = 0.2"] ;
521 -> 522 ;
523 [label="mse = 0.0\nsamples = 1\nvalue = 0.25"] ;
521 -> 523 ;
524 [label="mse = 0.0\nsamples = 1\nvalue = 0.268"] ;
520 -> 524 ;
525 [label="X[3] <= 82.609\nmse = 0.008\nsamples = 80\nvalue = 0.291"] ;
451 -> 525 ;
526 [label="X[3] <= 82.469\nmse = 0.007\nsamples = 76\nvalue = 0.297"] ;
525 -> 526 ;
527 [label="X[0] <= 65575.0\nmse = 0.007\nsamples = 75\nvalue = 0.295"] ;
526 -> 527 ;
528 [label="X[3] <= 82.083\nmse = 0.008\nsamples = 32\nvalue = 0.317"] ;
527 -> 528 ;
529 [label="X[3] <= 81.062\nmse = 0.007\nsamples = 31\nvalue = 0.311"] ;
528 -> 529 ;
530 [label="X[3] <= 78.7\nmse = 0.007\nsamples = 30\nvalue = 0.314"] ;
529 -> 530 ;
531 [label="X[2] <= 5.093\nmse = 0.006\nsamples = 27\nvalue = 0.306"] ;
530 -> 531 ;
532 [label="X[0] <= 58572.0\nmse = 0.003\nsamples = 12\nvalue = 0.272"] ;
531 -> 532 ;
533 [label="X[1] <= 78.006\nmse = 0.001\nsamples = 9\nvalue = 0.248"] ;
532 -> 533 ;
534 [label="X[2] <= 4.603\nmse = 0.0\nsamples = 5\nvalue = 0.224"] ;
533 -> 534 ;
535 [label="X[2] <= 3.585\nmse = 0.0\nsamples = 2\nvalue = 0.207"] ;
534 -> 535 ;
536 [label="mse = 0.0\nsamples = 1\nvalue = 0.204"] ;
535 -> 536 ;
537 [label="mse = -0.0\nsamples = 1\nvalue = 0.211"] ;
535 -> 537 ;
538 [label="X[2] <= 4.9\nmse = 0.0\nsamples = 3\nvalue = 0.236"] ;
534 -> 538 ;
539 [label="X[2] <= 4.856\nmse = 0.0\nsamples = 2\nvalue = 0.229"] ;
538 -> 539 ;
540 [label="mse = 0.0\nsamples = 1\nvalue = 0.233"] ;
539 -> 540 ;
541 [label="mse = -0.0\nsamples = 1\nvalue = 0.225"] ;
539 -> 541 ;
542 [label="mse = 0.0\nsamples = 1\nvalue = 0.249"] ;
538 -> 542 ;
543 [label="X[2] <= -0.322\nmse = 0.001\nsamples = 4\nvalue = 0.277"] ;
533 -> 543 ;
544 [label="X[3] <= 72.447\nmse = 0.0\nsamples = 3\nvalue = 0.265"] ;
543 -> 544 ;
545 [label="mse = 0.0\nsamples = 1\nvalue = 0.277"] ;
544 -> 545 ;
546 [label="X[1] <= 86.006\nmse = 0.0\nsamples = 2\nvalue = 0.259"] ;
544 -> 546 ;
547 [label="mse = 0.0\nsamples = 1\nvalue = 0.256"] ;
546 -> 547 ;
548 [label="mse = -0.0\nsamples = 1\nvalue = 0.263"] ;
546 -> 548 ;
549 [label="mse = 0.0\nsamples = 1\nvalue = 0.314"] ;
543 -> 549 ;
550 [label="X[2] <= 4.284\nmse = 0.002\nsamples = 3\nvalue = 0.343"] ;
532 -> 550 ;
551 [label="X[1] <= 82.45\nmse = 0.0\nsamples = 2\nvalue = 0.315"] ;
550 -> 551 ;
552 [label="mse = 0.0\nsamples = 1\nvalue = 0.297"] ;
551 -> 552 ;
553 [label="mse = 0.0\nsamples = 1\nvalue = 0.333"] ;
551 -> 553 ;
554 [label="mse = 0.0\nsamples = 1\nvalue = 0.4"] ;
550 -> 554 ;
555 [label="X[3] <= 72.473\nmse = 0.007\nsamples = 15\nvalue = 0.334"] ;
531 -> 555 ;
556 [label="X[2] <= 6.398\nmse = 0.002\nsamples = 5\nvalue = 0.276"] ;
555 -> 556 ;
557 [label="X[0] <= 50891.494\nmse = 0.0\nsamples = 2\nvalue = 0.227"] ;
556 -> 557 ;
558 [label="mse = 0.0\nsamples = 1\nvalue = 0.208"] ;
557 -> 558 ;
559 [label="mse = 0.0\nsamples = 1\nvalue = 0.245"] ;
557 -> 559 ;
560 [label="X[3] <= 71.717\nmse = 0.001\nsamples = 3\nvalue = 0.308"] ;
556 -> 560 ;
561 [label="mse = 0.0\nsamples = 1\nvalue = 0.281"] ;
560 -> 561 ;
562 [label="X[3] <= 72.082\nmse = 0.0\nsamples = 2\nvalue = 0.322"] ;
560 -> 562 ;
563 [label="mse = 0.0\nsamples = 1\nvalue = 0.338"] ;
562 -> 563 ;
564 [label="mse = -0.0\nsamples = 1\nvalue = 0.306"] ;
562 -> 564 ;
565 [label="X[2] <= 6.36\nmse = 0.007\nsamples = 10\nvalue = 0.363"] ;
555 -> 565 ;
566 [label="X[2] <= 6.287\nmse = 0.004\nsamples = 7\nvalue = 0.342"] ;
565 -> 566 ;
567 [label="X[3] <= 72.78\nmse = 0.002\nsamples = 6\nvalue = 0.358"] ;
566 -> 567 ;
568 [label="mse = 0.0\nsamples = 1\nvalue = 0.414"] ;
567 -> 568 ;
569 [label="X[3] <= 76.092\nmse = 0.002\nsamples = 5\nvalue = 0.347"] ;
567 -> 569 ;
570 [label="X[0] <= 55350.5\nmse = 0.002\nsamples = 4\nvalue = 0.335"] ;
569 -> 570 ;
571 [label="X[3] <= 73.658\nmse = 0.001\nsamples = 2\nvalue = 0.296"] ;
570 -> 571 ;
572 [label="mse = 0.0\nsamples = 1\nvalue = 0.318"] ;
571 -> 572 ;
573 [label="mse = -0.0\nsamples = 1\nvalue = 0.273"] ;
571 -> 573 ;
574 [label="X[0] <= 57672.0\nmse = 0.0\nsamples = 2\nvalue = 0.374"] ;
570 -> 574 ;
575 [label="mse = 0.0\nsamples = 1\nvalue = 0.36"] ;
574 -> 575 ;
576 [label="mse = 0.0\nsamples = 1\nvalue = 0.389"] ;
574 -> 576 ;
577 [label="mse = 0.0\nsamples = 1\nvalue = 0.396"] ;
569 -> 577 ;
578 [label="mse = -0.0\nsamples = 1\nvalue = 0.244"] ;
566 -> 578 ;
579 [label="X[2] <= 6.436\nmse = 0.011\nsamples = 3\nvalue = 0.411"] ;
565 -> 579 ;
580 [label="mse = 0.0\nsamples = 1\nvalue = 0.559"] ;
579 -> 580 ;
581 [label="X[2] <= 6.489\nmse = 0.0\nsamples = 2\nvalue = 0.337"] ;
579 -> 581 ;
582 [label="mse = 0.0\nsamples = 1\nvalue = 0.344"] ;
581 -> 582 ;
583 [label="mse = -0.0\nsamples = 1\nvalue = 0.33"] ;
581 -> 583 ;
584 [label="X[3] <= 78.9\nmse = 0.011\nsamples = 3\nvalue = 0.387"] ;
530 -> 584 ;
585 [label="mse = 0.0\nsamples = 1\nvalue = 0.534"] ;
584 -> 585 ;
586 [label="X[2] <= 5.73\nmse = 0.0\nsamples = 2\nvalue = 0.314"] ;
584 -> 586 ;
587 [label="mse = 0.0\nsamples = 1\nvalue = 0.323"] ;
586 -> 587 ;
588 [label="mse = 0.0\nsamples = 1\nvalue = 0.305"] ;
586 -> 588 ;
589 [label="mse = -0.0\nsamples = 1\nvalue = 0.206"] ;
529 -> 589 ;
590 [label="mse = 0.0\nsamples = 1\nvalue = 0.5"] ;
528 -> 590 ;
591 [label="X[2] <= 0.773\nmse = 0.005\nsamples = 43\nvalue = 0.279"] ;
527 -> 591 ;
592 [label="X[1] <= 88.031\nmse = 0.001\nsamples = 2\nvalue = 0.144"] ;
591 -> 592 ;
593 [label="mse = 0.0\nsamples = 1\nvalue = 0.115"] ;
592 -> 593 ;
594 [label="mse = 0.0\nsamples = 1\nvalue = 0.173"] ;
592 -> 594 ;
595 [label="X[1] <= 90.25\nmse = 0.004\nsamples = 41\nvalue = 0.285"] ;
591 -> 595 ;
596 [label="X[2] <= 5.337\nmse = 0.004\nsamples = 33\nvalue = 0.272"] ;
595 -> 596 ;
597 [label="X[3] <= 79.841\nmse = 0.002\nsamples = 12\nvalue = 0.242"] ;
596 -> 597 ;
598 [label="X[3] <= 71.928\nmse = 0.001\nsamples = 7\nvalue = 0.223"] ;
597 -> 598 ;
599 [label="mse = 0.0\nsamples = 1\nvalue = 0.277"] ;
598 -> 599 ;
600 [label="X[3] <= 79.079\nmse = 0.0\nsamples = 6\nvalue = 0.214"] ;
598 -> 600 ;
601 [label="X[3] <= 75.088\nmse = 0.0\nsamples = 4\nvalue = 0.204"] ;
600 -> 601 ;
602 [label="X[2] <= 4.534\nmse = 0.0\nsamples = 2\nvalue = 0.212"] ;
601 -> 602 ;
603 [label="mse = 0.0\nsamples = 1\nvalue = 0.208"] ;
602 -> 603 ;
604 [label="mse = -0.0\nsamples = 1\nvalue = 0.217"] ;
602 -> 604 ;
605 [label="X[0] <= 79964.0\nmse = 0.0\nsamples = 2\nvalue = 0.197"] ;
601 -> 605 ;
606 [label="mse = 0.0\nsamples = 1\nvalue = 0.202"] ;
605 -> 606 ;
607 [label="mse = 0.0\nsamples = 1\nvalue = 0.192"] ;
605 -> 607 ;
608 [label="X[3] <= 79.42\nmse = 0.0\nsamples = 2\nvalue = 0.233"] ;
600 -> 608 ;
609 [label="mse = 0.0\nsamples = 1\nvalue = 0.229"] ;
608 -> 609 ;
610 [label="mse = -0.0\nsamples = 1\nvalue = 0.236"] ;
608 -> 610 ;
611 [label="X[1] <= 88.2\nmse = 0.002\nsamples = 5\nvalue = 0.268"] ;
597 -> 611 ;
612 [label="X[2] <= 4.575\nmse = 0.002\nsamples = 4\nvalue = 0.283"] ;
611 -> 612 ;
613 [label="mse = 0.003\nsamples = 2\nvalue = 0.296"] ;
612 -> 613 ;
614 [label="X[0] <= 79964.0\nmse = 0.0\nsamples = 2\nvalue = 0.27"] ;
612 -> 614 ;
615 [label="mse = 0.0\nsamples = 1\nvalue = 0.261"] ;
614 -> 615 ;
616 [label="mse = -0.0\nsamples = 1\nvalue = 0.278"] ;
614 -> 616 ;
617 [label="mse = -0.0\nsamples = 1\nvalue = 0.208"] ;
611 -> 617 ;
618 [label="X[0] <= 75262.0\nmse = 0.004\nsamples = 21\nvalue = 0.289"] ;
596 -> 618 ;
619 [label="X[3] <= 78.213\nmse = 0.002\nsamples = 8\nvalue = 0.254"] ;
618 -> 619 ;
620 [label="X[2] <= 6.099\nmse = 0.001\nsamples = 4\nvalue = 0.282"] ;
619 -> 620 ;
621 [label="mse = 0.0\nsamples = 1\nvalue = 0.333"] ;
620 -> 621 ;
622 [label="X[3] <= 74.382\nmse = 0.0\nsamples = 3\nvalue = 0.265"] ;
620 -> 622 ;
623 [label="mse = 0.0\nsamples = 1\nvalue = 0.244"] ;
622 -> 623 ;
624 [label="X[2] <= 6.171\nmse = 0.0\nsamples = 2\nvalue = 0.276"] ;
622 -> 624 ;
625 [label="mse = 0.0\nsamples = 1\nvalue = 0.277"] ;
624 -> 625 ;
626 [label="mse = 0.0\nsamples = 1\nvalue = 0.276"] ;
624 -> 626 ;
627 [label="X[0] <= 70725.0\nmse = 0.001\nsamples = 4\nvalue = 0.226"] ;
619 -> 627 ;
628 [label="X[2] <= 6.096\nmse = 0.0\nsamples = 2\nvalue = 0.209"] ;
627 -> 628 ;
629 [label="mse = 0.0\nsamples = 1\nvalue = 0.204"] ;
628 -> 629 ;
630 [label="mse = 0.0\nsamples = 1\nvalue = 0.214"] ;
628 -> 630 ;
631 [label="X[3] <= 80.437\nmse = 0.0\nsamples = 2\nvalue = 0.242"] ;
627 -> 631 ;
632 [label="mse = 0.0\nsamples = 1\nvalue = 0.264"] ;
631 -> 632 ;
633 [label="mse = 0.0\nsamples = 1\nvalue = 0.221"] ;
631 -> 633 ;
634 [label="X[3] <= 76.096\nmse = 0.005\nsamples = 13\nvalue = 0.311"] ;
618 -> 634 ;
635 [label="X[2] <= 6.432\nmse = 0.004\nsamples = 11\nvalue = 0.295"] ;
634 -> 635 ;
636 [label="X[2] <= 5.535\nmse = 0.003\nsamples = 9\nvalue = 0.281"] ;
635 -> 636 ;
637 [label="X[3] <= 72.107\nmse = 0.002\nsamples = 4\nvalue = 0.315"] ;
636 -> 637 ;
638 [label="mse = 0.0\nsamples = 1\nvalue = 0.289"] ;
637 -> 638 ;
639 [label="X[3] <= 73.953\nmse = 0.002\nsamples = 3\nvalue = 0.324"] ;
637 -> 639 ;
640 [label="mse = 0.0\nsamples = 1\nvalue = 0.317"] ;
639 -> 640 ;
641 [label="mse = 0.004\nsamples = 2\nvalue = 0.327"] ;
639 -> 641 ;
642 [label="X[1] <= 87.95\nmse = 0.002\nsamples = 5\nvalue = 0.254"] ;
636 -> 642 ;
643 [label="X[2] <= 5.923\nmse = 0.002\nsamples = 4\nvalue = 0.24"] ;
642 -> 643 ;
644 [label="X[2] <= 5.647\nmse = 0.001\nsamples = 2\nvalue = 0.223"] ;
643 -> 644 ;
645 [label="mse = 0.0\nsamples = 1\nvalue = 0.246"] ;
644 -> 645 ;
646 [label="mse = -0.0\nsamples = 1\nvalue = 0.2"] ;
644 -> 646 ;
647 [label="X[3] <= 73.714\nmse = 0.002\nsamples = 2\nvalue = 0.258"] ;
643 -> 647 ;
648 [label="mse = 0.0\nsamples = 1\nvalue = 0.212"] ;
647 -> 648 ;
649 [label="mse = -0.0\nsamples = 1\nvalue = 0.304"] ;
647 -> 649 ;
650 [label="mse = 0.0\nsamples = 1\nvalue = 0.308"] ;
642 -> 650 ;
651 [label="X[2] <= 6.643\nmse = 0.003\nsamples = 2\nvalue = 0.356"] ;
635 -> 651 ;
652 [label="mse = 0.0\nsamples = 1\nvalue = 0.408"] ;
651 -> 652 ;
653 [label="mse = 0.0\nsamples = 1\nvalue = 0.304"] ;
651 -> 653 ;
654 [label="X[2] <= 5.873\nmse = 0.0\nsamples = 2\nvalue = 0.399"] ;
634 -> 654 ;
655 [label="mse = 0.0\nsamples = 1\nvalue = 0.4"] ;
654 -> 655 ;
656 [label="mse = 0.0\nsamples = 1\nvalue = 0.398"] ;
654 -> 656 ;
657 [label="X[2] <= 2.823\nmse = 0.003\nsamples = 8\nvalue = 0.341"] ;
595 -> 657 ;
658 [label="mse = 0.0\nsamples = 1\nvalue = 0.438"] ;
657 -> 658 ;
659 [label="X[0] <= 78342.5\nmse = 0.002\nsamples = 7\nvalue = 0.327"] ;
657 -> 659 ;
660 [label="mse = 0.0\nsamples = 1\nvalue = 0.238"] ;
659 -> 660 ;
661 [label="X[3] <= 72.143\nmse = 0.0\nsamples = 6\nvalue = 0.342"] ;
659 -> 661 ;
662 [label="X[2] <= 6.043\nmse = 0.0\nsamples = 2\nvalue = 0.363"] ;
661 -> 662 ;
663 [label="mse = 0.0\nsamples = 1\nvalue = 0.372"] ;
662 -> 663 ;
664 [label="mse = 0.0\nsamples = 1\nvalue = 0.354"] ;
662 -> 664 ;
665 [label="X[3] <= 78.676\nmse = 0.0\nsamples = 4\nvalue = 0.331"] ;
661 -> 665 ;
666 [label="X[3] <= 73.188\nmse = 0.0\nsamples = 3\nvalue = 0.321"] ;
665 -> 666 ;
667 [label="mse = 0.0\nsamples = 1\nvalue = 0.31"] ;
666 -> 667 ;
668 [label="X[3] <= 75.149\nmse = 0.0\nsamples = 2\nvalue = 0.327"] ;
666 -> 668 ;
669 [label="mse = 0.0\nsamples = 1\nvalue = 0.33"] ;
668 -> 669 ;
670 [label="mse = 0.0\nsamples = 1\nvalue = 0.324"] ;
668 -> 670 ;
671 [label="mse = 0.0\nsamples = 1\nvalue = 0.361"] ;
665 -> 671 ;
672 [label="mse = 0.0\nsamples = 1\nvalue = 0.482"] ;
526 -> 672 ;
673 [label="X[3] <= 85.304\nmse = 0.002\nsamples = 4\nvalue = 0.17"] ;
525 -> 673 ;
674 [label="X[3] <= 83.269\nmse = 0.0\nsamples = 3\nvalue = 0.144"] ;
673 -> 674 ;
675 [label="mse = 0.0\nsamples = 1\nvalue = 0.125"] ;
674 -> 675 ;
676 [label="X[1] <= 82.55\nmse = 0.0\nsamples = 2\nvalue = 0.153"] ;
674 -> 676 ;
677 [label="mse = 0.0\nsamples = 1\nvalue = 0.149"] ;
676 -> 677 ;
678 [label="mse = 0.0\nsamples = 1\nvalue = 0.158"] ;
676 -> 678 ;
679 [label="mse = 0.0\nsamples = 1\nvalue = 0.25"] ;
673 -> 679 ;
680 [label="X[1] <= 96.113\nmse = 0.013\nsamples = 503\nvalue = 0.307"] ;
312 -> 680 ;
681 [label="X[3] <= 59.131\nmse = 0.013\nsamples = 496\nvalue = 0.31"] ;
680 -> 681 ;
682 [label="X[1] <= 85.356\nmse = 0.027\nsamples = 42\nvalue = 0.379"] ;
681 -> 682 ;
683 [label="X[2] <= 19.715\nmse = 0.032\nsamples = 27\nvalue = 0.428"] ;
682 -> 683 ;
684 [label="X[3] <= 32.294\nmse = 0.03\nsamples = 26\nvalue = 0.418"] ;
683 -> 684 ;
685 [label="X[0] <= 54060.5\nmse = 0.005\nsamples = 2\nvalue = 0.237"] ;
684 -> 685 ;
686 [label="mse = 0.0\nsamples = 1\nvalue = 0.167"] ;
685 -> 686 ;
687 [label="mse = -0.0\nsamples = 1\nvalue = 0.308"] ;
685 -> 687 ;
688 [label="X[3] <= 36.191\nmse = 0.03\nsamples = 24\nvalue = 0.433"] ;
684 -> 688 ;
689 [label="X[2] <= 8.225\nmse = 0.009\nsamples = 2\nvalue = 0.722"] ;
688 -> 689 ;
690 [label="mse = 0.0\nsamples = 1\nvalue = 0.818"] ;
689 -> 690 ;
691 [label="mse = -0.0\nsamples = 1\nvalue = 0.626"] ;
689 -> 691 ;
692 [label="X[2] <= 11.979\nmse = 0.023\nsamples = 22\nvalue = 0.406"] ;
688 -> 692 ;
693 [label="X[2] <= 7.832\nmse = 0.006\nsamples = 7\nvalue = 0.3"] ;
692 -> 693 ;
694 [label="mse = 0.0\nsamples = 1\nvalue = 0.181"] ;
693 -> 694 ;
695 [label="X[0] <= 54060.5\nmse = 0.004\nsamples = 6\nvalue = 0.32"] ;
693 -> 695 ;
696 [label="X[2] <= 8.468\nmse = 0.0\nsamples = 2\nvalue = 0.242"] ;
695 -> 696 ;
697 [label="mse = 0.0\nsamples = 1\nvalue = 0.238"] ;
696 -> 697 ;
698 [label="mse = 0.0\nsamples = 1\nvalue = 0.246"] ;
696 -> 698 ;
699 [label="X[3] <= 52.092\nmse = 0.002\nsamples = 4\nvalue = 0.359"] ;
695 -> 699 ;
700 [label="mse = 0.0\nsamples = 1\nvalue = 0.429"] ;
699 -> 700 ;
701 [label="X[3] <= 54.2\nmse = 0.0\nsamples = 3\nvalue = 0.336"] ;
699 -> 701 ;
702 [label="mse = 0.0\nsamples = 1\nvalue = 0.35"] ;
701 -> 702 ;
703 [label="X[1] <= 84.4\nmse = 0.0\nsamples = 2\nvalue = 0.33"] ;
701 -> 703 ;
704 [label="mse = 0.0\nsamples = 1\nvalue = 0.333"] ;
703 -> 704 ;
705 [label="mse = 0.0\nsamples = 1\nvalue = 0.326"] ;
703 -> 705 ;
706 [label="X[3] <= 58.227\nmse = 0.024\nsamples = 15\nvalue = 0.456"] ;
692 -> 706 ;
707 [label="X[3] <= 49.892\nmse = 0.018\nsamples = 11\nvalue = 0.504"] ;
706 -> 707 ;
708 [label="X[0] <= 57804.0\nmse = 0.001\nsamples = 3\nvalue = 0.362"] ;
707 -> 708 ;
709 [label="mse = 0.0\nsamples = 1\nvalue = 0.4"] ;
708 -> 709 ;
710 [label="X[3] <= 47.567\nmse = 0.0\nsamples = 2\nvalue = 0.342"] ;
708 -> 710 ;
711 [label="mse = 0.0\nsamples = 1\nvalue = 0.354"] ;
710 -> 711 ;
712 [label="mse = 0.0\nsamples = 1\nvalue = 0.331"] ;
710 -> 712 ;
713 [label="X[3] <= 51.861\nmse = 0.014\nsamples = 8\nvalue = 0.558"] ;
707 -> 713 ;
714 [label="mse = 0.0\nsamples = 1\nvalue = 0.732"] ;
713 -> 714 ;
715 [label="X[2] <= 14.756\nmse = 0.011\nsamples = 7\nvalue = 0.533"] ;
713 -> 715 ;
716 [label="X[2] <= 13.502\nmse = 0.007\nsamples = 2\nvalue = 0.634"] ;
715 -> 716 ;
717 [label="mse = 0.0\nsamples = 1\nvalue = 0.55"] ;
716 -> 717 ;
718 [label="mse = -0.0\nsamples = 1\nvalue = 0.719"] ;
716 -> 718 ;
719 [label="X[0] <= 54806.5\nmse = 0.007\nsamples = 5\nvalue = 0.492"] ;
715 -> 719 ;
720 [label="X[3] <= 54.923\nmse = 0.0\nsamples = 2\nvalue = 0.406"] ;
719 -> 720 ;
721 [label="mse = 0.0\nsamples = 1\nvalue = 0.391"] ;
720 -> 721 ;
722 [label="mse = -0.0\nsamples = 1\nvalue = 0.421"] ;
720 -> 722 ;
723 [label="X[2] <= 18.001\nmse = 0.003\nsamples = 3\nvalue = 0.55"] ;
719 -> 723 ;
724 [label="X[1] <= 73.75\nmse = 0.0\nsamples = 2\nvalue = 0.512"] ;
723 -> 724 ;
725 [label="mse = 0.0\nsamples = 1\nvalue = 0.528"] ;
724 -> 725 ;
726 [label="mse = -0.0\nsamples = 1\nvalue = 0.495"] ;
724 -> 726 ;
727 [label="mse = -0.0\nsamples = 1\nvalue = 0.625"] ;
723 -> 727 ;
728 [label="X[2] <= 14.57\nmse = 0.014\nsamples = 4\nvalue = 0.321"] ;
706 -> 728 ;
729 [label="mse = 0.0\nsamples = 1\nvalue = 0.525"] ;
728 -> 729 ;
730 [label="X[3] <= 58.596\nmse = 0.001\nsamples = 3\nvalue = 0.254"] ;
728 -> 730 ;
731 [label="X[2] <= 18.233\nmse = 0.0\nsamples = 2\nvalue = 0.234"] ;
730 -> 731 ;
732 [label="mse = 0.0\nsamples = 1\nvalue = 0.225"] ;
731 -> 732 ;
733 [label="mse = 0.0\nsamples = 1\nvalue = 0.243"] ;
731 -> 733 ;
734 [label="mse = 0.0\nsamples = 1\nvalue = 0.293"] ;
730 -> 734 ;
735 [label="mse = -0.0\nsamples = 1\nvalue = 0.711"] ;
683 -> 735 ;
736 [label="X[2] <= 8.095\nmse = 0.005\nsamples = 15\nvalue = 0.291"] ;
682 -> 736 ;
737 [label="X[0] <= 59716.0\nmse = 0.005\nsamples = 3\nvalue = 0.37"] ;
736 -> 737 ;
738 [label="X[0] <= 51802.5\nmse = 0.001\nsamples = 2\nvalue = 0.326"] ;
737 -> 738 ;
739 [label="mse = 0.0\nsamples = 1\nvalue = 0.294"] ;
738 -> 739 ;
740 [label="mse = -0.0\nsamples = 1\nvalue = 0.359"] ;
738 -> 740 ;
741 [label="mse = 0.0\nsamples = 1\nvalue = 0.458"] ;
737 -> 741 ;
742 [label="X[1] <= 94.6\nmse = 0.003\nsamples = 12\nvalue = 0.271"] ;
736 -> 742 ;
743 [label="X[2] <= 17.097\nmse = 0.001\nsamples = 10\nvalue = 0.252"] ;
742 -> 743 ;
744 [label="X[3] <= 45.971\nmse = 0.0\nsamples = 8\nvalue = 0.243"] ;
743 -> 744 ;
745 [label="X[1] <= 92.0\nmse = 0.0\nsamples = 6\nvalue = 0.251"] ;
744 -> 745 ;
746 [label="X[3] <= 41.393\nmse = 0.0\nsamples = 5\nvalue = 0.256"] ;
745 -> 746 ;
747 [label="X[2] <= 13.938\nmse = 0.0\nsamples = 2\nvalue = 0.249"] ;
746 -> 747 ;
748 [label="mse = 0.0\nsamples = 1\nvalue = 0.248"] ;
747 -> 748 ;
749 [label="mse = 0.0\nsamples = 1\nvalue = 0.25"] ;
747 -> 749 ;
750 [label="X[2] <= 14.085\nmse = 0.0\nsamples = 3\nvalue = 0.261"] ;
746 -> 750 ;
751 [label="X[1] <= 88.0\nmse = 0.0\nsamples = 2\nvalue = 0.258"] ;
750 -> 751 ;
752 [label="mse = 0.0\nsamples = 1\nvalue = 0.266"] ;
751 -> 752 ;
753 [label="mse = -0.0\nsamples = 1\nvalue = 0.25"] ;
751 -> 753 ;
754 [label="mse = 0.0\nsamples = 1\nvalue = 0.266"] ;
750 -> 754 ;
755 [label="mse = 0.0\nsamples = 1\nvalue = 0.229"] ;
745 -> 755 ;
756 [label="X[3] <= 48.221\nmse = 0.0\nsamples = 2\nvalue = 0.219"] ;
744 -> 756 ;
757 [label="mse = 0.0\nsamples = 1\nvalue = 0.216"] ;
756 -> 757 ;
758 [label="mse = 0.0\nsamples = 1\nvalue = 0.222"] ;
756 -> 758 ;
759 [label="X[1] <= 87.906\nmse = 0.0\nsamples = 2\nvalue = 0.286"] ;
743 -> 759 ;
760 [label="mse = 0.0\nsamples = 1\nvalue = 0.276"] ;
759 -> 760 ;
761 [label="mse = 0.0\nsamples = 1\nvalue = 0.296"] ;
759 -> 761 ;
762 [label="X[2] <= 17.121\nmse = 0.003\nsamples = 2\nvalue = 0.366"] ;
742 -> 762 ;
763 [label="mse = 0.0\nsamples = 1\nvalue = 0.421"] ;
762 -> 763 ;
764 [label="mse = -0.0\nsamples = 1\nvalue = 0.311"] ;
762 -> 764 ;
765 [label="X[1] <= 94.74\nmse = 0.011\nsamples = 454\nvalue = 0.304"] ;
681 -> 765 ;
766 [label="X[2] <= 7.087\nmse = 0.011\nsamples = 431\nvalue = 0.307"] ;
765 -> 766 ;
767 [label="X[3] <= 78.128\nmse = 0.027\nsamples = 10\nvalue = 0.394"] ;
766 -> 767 ;
768 [label="X[3] <= 69.211\nmse = 0.002\nsamples = 8\nvalue = 0.316"] ;
767 -> 768 ;
769 [label="X[2] <= 6.946\nmse = 0.001\nsamples = 3\nvalue = 0.261"] ;
768 -> 769 ;
770 [label="mse = 0.0\nsamples = 1\nvalue = 0.29"] ;
769 -> 770 ;
771 [label="X[0] <= 81044.0\nmse = 0.0\nsamples = 2\nvalue = 0.247"] ;
769 -> 771 ;
772 [label="mse = 0.0\nsamples = 1\nvalue = 0.26"] ;
771 -> 772 ;
773 [label="mse = -0.0\nsamples = 1\nvalue = 0.234"] ;
771 -> 773 ;
774 [label="X[2] <= 6.993\nmse = 0.0\nsamples = 5\nvalue = 0.348"] ;
768 -> 774 ;
775 [label="X[0] <= 64775.5\nmse = 0.0\nsamples = 2\nvalue = 0.324"] ;
774 -> 775 ;
776 [label="mse = 0.0\nsamples = 1\nvalue = 0.328"] ;
775 -> 776 ;
777 [label="mse = -0.0\nsamples = 1\nvalue = 0.32"] ;
775 -> 777 ;
778 [label="X[0] <= 57401.5\nmse = 0.0\nsamples = 3\nvalue = 0.364"] ;
774 -> 778 ;
779 [label="X[2] <= 7.037\nmse = 0.0\nsamples = 2\nvalue = 0.359"] ;
778 -> 779 ;
780 [label="mse = 0.0\nsamples = 1\nvalue = 0.357"] ;
779 -> 780 ;
781 [label="mse = -0.0\nsamples = 1\nvalue = 0.361"] ;
779 -> 781 ;
782 [label="mse = 0.0\nsamples = 1\nvalue = 0.375"] ;
778 -> 782 ;
783 [label="X[1] <= 76.25\nmse = 0.005\nsamples = 2\nvalue = 0.707"] ;
767 -> 783 ;
784 [label="mse = 0.0\nsamples = 1\nvalue = 0.636"] ;
783 -> 784 ;
785 [label="mse = -0.0\nsamples = 1\nvalue = 0.778"] ;
783 -> 785 ;
786 [label="X[1] <= 66.35\nmse = 0.01\nsamples = 421\nvalue = 0.305"] ;
766 -> 786 ;
787 [label="X[2] <= 20.688\nmse = 0.006\nsamples = 87\nvalue = 0.28"] ;
786 -> 787 ;
788 [label="X[0] <= 52527.0\nmse = 0.006\nsamples = 86\nvalue = 0.277"] ;
787 -> 788 ;
789 [label="X[1] <= 66.25\nmse = 0.006\nsamples = 61\nvalue = 0.289"] ;
788 -> 789 ;
790 [label="X[3] <= 65.738\nmse = 0.006\nsamples = 42\nvalue = 0.302"] ;
789 -> 790 ;
791 [label="X[3] <= 60.944\nmse = 0.002\nsamples = 6\nvalue = 0.246"] ;
790 -> 791 ;
792 [label="mse = 0.0\nsamples = 1\nvalue = 0.181"] ;
791 -> 792 ;
793 [label="X[3] <= 62.544\nmse = 0.001\nsamples = 5\nvalue = 0.259"] ;
791 -> 793 ;
794 [label="mse = 0.0\nsamples = 1\nvalue = 0.321"] ;
793 -> 794 ;
795 [label="X[3] <= 62.964\nmse = 0.0\nsamples = 4\nvalue = 0.243"] ;
793 -> 795 ;
796 [label="mse = 0.0\nsamples = 1\nvalue = 0.23"] ;
795 -> 796 ;
797 [label="X[0] <= 46058.5\nmse = 0.0\nsamples = 3\nvalue = 0.247"] ;
795 -> 797 ;
798 [label="X[0] <= 44136.0\nmse = 0.0\nsamples = 2\nvalue = 0.244"] ;
797 -> 798 ;
799 [label="mse = 0.0\nsamples = 1\nvalue = 0.243"] ;
798 -> 799 ;
800 [label="mse = 0.0\nsamples = 1\nvalue = 0.245"] ;
798 -> 800 ;
801 [label="mse = -0.0\nsamples = 1\nvalue = 0.254"] ;
797 -> 801 ;
802 [label="X[3] <= 66.507\nmse = 0.006\nsamples = 36\nvalue = 0.312"] ;
790 -> 802 ;
803 [label="mse = 0.0\nsamples = 1\nvalue = 0.484"] ;
802 -> 803 ;
804 [label="X[2] <= 18.481\nmse = 0.005\nsamples = 35\nvalue = 0.307"] ;
802 -> 804 ;
805 [label="X[2] <= 17.648\nmse = 0.005\nsamples = 27\nvalue = 0.318"] ;
804 -> 805 ;
806 [label="X[2] <= 14.569\nmse = 0.005\nsamples = 25\nvalue = 0.309"] ;
805 -> 806 ;
807 [label="X[3] <= 70.556\nmse = 0.005\nsamples = 15\nvalue = 0.327"] ;
806 -> 807 ;
808 [label="X[2] <= 12.518\nmse = 0.003\nsamples = 3\nvalue = 0.27"] ;
807 -> 808 ;
809 [label="mse = 0.0\nsamples = 1\nvalue = 0.344"] ;
808 -> 809 ;
810 [label="X[0] <= 48755.5\nmse = 0.0\nsamples = 2\nvalue = 0.233"] ;
808 -> 810 ;
811 [label="mse = 0.0\nsamples = 1\nvalue = 0.229"] ;
810 -> 811 ;
812 [label="mse = 0.0\nsamples = 1\nvalue = 0.238"] ;
810 -> 812 ;
813 [label="X[3] <= 76.532\nmse = 0.005\nsamples = 12\nvalue = 0.341"] ;
807 -> 813 ;
814 [label="X[2] <= 13.773\nmse = 0.005\nsamples = 10\nvalue = 0.357"] ;
813 -> 814 ;
815 [label="X[2] <= 13.609\nmse = 0.004\nsamples = 5\nvalue = 0.388"] ;
814 -> 815 ;
816 [label="X[2] <= 13.517\nmse = 0.003\nsamples = 4\nvalue = 0.372"] ;
815 -> 816 ;
817 [label="X[1] <= 57.45\nmse = 0.001\nsamples = 3\nvalue = 0.398"] ;
816 -> 817 ;
818 [label="X[2] <= 10.47\nmse = 0.0\nsamples = 2\nvalue = 0.374"] ;
817 -> 818 ;
819 [label="mse = 0.0\nsamples = 1\nvalue = 0.371"] ;
818 -> 819 ;
820 [label="mse = 0.0\nsamples = 1\nvalue = 0.378"] ;
818 -> 820 ;
821 [label="mse = -0.0\nsamples = 1\nvalue = 0.446"] ;
817 -> 821 ;
822 [label="mse = 0.0\nsamples = 1\nvalue = 0.291"] ;
816 -> 822 ;
823 [label="mse = 0.0\nsamples = 1\nvalue = 0.454"] ;
815 -> 823 ;
824 [label="X[2] <= 14.039\nmse = 0.004\nsamples = 5\nvalue = 0.327"] ;
814 -> 824 ;
825 [label="X[3] <= 74.654\nmse = 0.001\nsamples = 3\nvalue = 0.28"] ;
824 -> 825 ;
826 [label="X[1] <= 62.3\nmse = 0.0\nsamples = 2\nvalue = 0.259"] ;
825 -> 826 ;
827 [label="mse = 0.0\nsamples = 1\nvalue = 0.263"] ;
826 -> 827 ;
828 [label="mse = 0.0\nsamples = 1\nvalue = 0.256"] ;
826 -> 828 ;
829 [label="mse = 0.0\nsamples = 1\nvalue = 0.321"] ;
825 -> 829 ;
830 [label="X[2] <= 14.28\nmse = 0.0\nsamples = 2\nvalue = 0.397"] ;
824 -> 830 ;
831 [label="mse = 0.0\nsamples = 1\nvalue = 0.394"] ;
830 -> 831 ;
832 [label="mse = 0.0\nsamples = 1\nvalue = 0.4"] ;
830 -> 832 ;
833 [label="X[2] <= 12.307\nmse = 0.0\nsamples = 2\nvalue = 0.259"] ;
813 -> 833 ;
834 [label="mse = 0.0\nsamples = 1\nvalue = 0.253"] ;
833 -> 834 ;
835 [label="mse = 0.0\nsamples = 1\nvalue = 0.265"] ;
833 -> 835 ;
836 [label="X[3] <= 83.071\nmse = 0.002\nsamples = 10\nvalue = 0.282"] ;
806 -> 836 ;
837 [label="X[3] <= 73.284\nmse = 0.001\nsamples = 8\nvalue = 0.268"] ;
836 -> 837 ;
838 [label="X[2] <= 15.633\nmse = 0.0\nsamples = 4\nvalue = 0.296"] ;
837 -> 838 ;
839 [label="X[2] <= 15.562\nmse = 0.0\nsamples = 2\nvalue = 0.287"] ;
838 -> 839 ;
840 [label="mse = 0.0\nsamples = 1\nvalue = 0.283"] ;
839 -> 840 ;
841 [label="mse = -0.0\nsamples = 1\nvalue = 0.292"] ;
839 -> 841 ;
842 [label="X[3] <= 68.346\nmse = 0.0\nsamples = 2\nvalue = 0.305"] ;
838 -> 842 ;
843 [label="mse = 0.0\nsamples = 1\nvalue = 0.306"] ;
842 -> 843 ;
844 [label="mse = -0.0\nsamples = 1\nvalue = 0.304"] ;
842 -> 844 ;
845 [label="X[1] <= 62.6\nmse = 0.001\nsamples = 4\nvalue = 0.24"] ;
837 -> 845 ;
846 [label="X[2] <= 15.791\nmse = 0.0\nsamples = 2\nvalue = 0.212"] ;
845 -> 846 ;
847 [label="mse = 0.0\nsamples = 1\nvalue = 0.201"] ;
846 -> 847 ;
848 [label="mse = 0.0\nsamples = 1\nvalue = 0.222"] ;
846 -> 848 ;
849 [label="X[2] <= 14.762\nmse = 0.0\nsamples = 2\nvalue = 0.268"] ;
845 -> 849 ;
850 [label="mse = 0.0\nsamples = 1\nvalue = 0.286"] ;
849 -> 850 ;
851 [label="mse = -0.0\nsamples = 1\nvalue = 0.25"] ;
849 -> 851 ;
852 [label="X[1] <= 62.6\nmse = 0.0\nsamples = 2\nvalue = 0.339"] ;
836 -> 852 ;
853 [label="mse = 0.0\nsamples = 1\nvalue = 0.344"] ;
852 -> 853 ;
854 [label="mse = 0.0\nsamples = 1\nvalue = 0.333"] ;
852 -> 854 ;
855 [label="X[2] <= 18.186\nmse = 0.002\nsamples = 2\nvalue = 0.429"] ;
805 -> 855 ;
856 [label="mse = 0.0\nsamples = 1\nvalue = 0.382"] ;
855 -> 856 ;
857 [label="mse = 0.0\nsamples = 1\nvalue = 0.475"] ;
855 -> 857 ;
858 [label="X[2] <= 19.894\nmse = 0.004\nsamples = 8\nvalue = 0.269"] ;
804 -> 858 ;
859 [label="X[3] <= 71.641\nmse = 0.001\nsamples = 5\nvalue = 0.228"] ;
858 -> 859 ;
860 [label="X[2] <= 18.656\nmse = 0.0\nsamples = 3\nvalue = 0.246"] ;
859 -> 860 ;
861 [label="mse = 0.0\nsamples = 1\nvalue = 0.22"] ;
860 -> 861 ;
862 [label="X[2] <= 18.889\nmse = 0.0\nsamples = 2\nvalue = 0.259"] ;
860 -> 862 ;
863 [label="mse = 0.0\nsamples = 1\nvalue = 0.246"] ;
862 -> 863 ;
864 [label="mse = 0.0\nsamples = 1\nvalue = 0.271"] ;
862 -> 864 ;
865 [label="X[3] <= 72.992\nmse = 0.0\nsamples = 2\nvalue = 0.202"] ;
859 -> 865 ;
866 [label="mse = 0.0\nsamples = 1\nvalue = 0.203"] ;
865 -> 866 ;
867 [label="mse = 0.0\nsamples = 1\nvalue = 0.2"] ;
865 -> 867 ;
868 [label="X[3] <= 69.942\nmse = 0.001\nsamples = 3\nvalue = 0.336"] ;
858 -> 868 ;
869 [label="mse = 0.0\nsamples = 1\nvalue = 0.313"] ;
868 -> 869 ;
870 [label="X[3] <= 76.475\nmse = 0.001\nsamples = 2\nvalue = 0.348"] ;
868 -> 870 ;
871 [label="mse = 0.0\nsamples = 1\nvalue = 0.379"] ;
870 -> 871 ;
872 [label="mse = 0.0\nsamples = 1\nvalue = 0.316"] ;
870 -> 872 ;
873 [label="X[2] <= 15.959\nmse = 0.005\nsamples = 19\nvalue = 0.258"] ;
789 -> 873 ;
874 [label="mse = 0.0\nsamples = 1\nvalue = 0.37"] ;
873 -> 874 ;
875 [label="X[2] <= 16.259\nmse = 0.004\nsamples = 18\nvalue = 0.252"] ;
873 -> 875 ;
876 [label="X[3] <= 70.874\nmse = 0.0\nsamples = 2\nvalue = 0.164"] ;
875 -> 876 ;
877 [label="mse = 0.0\nsamples = 1\nvalue = 0.158"] ;
876 -> 877 ;
878 [label="mse = 0.0\nsamples = 1\nvalue = 0.17"] ;
876 -> 878 ;
879 [label="X[3] <= 72.133\nmse = 0.004\nsamples = 16\nvalue = 0.263"] ;
875 -> 879 ;
880 [label="X[3] <= 68.708\nmse = 0.003\nsamples = 11\nvalue = 0.25"] ;
879 -> 880 ;
881 [label="X[3] <= 67.429\nmse = 0.002\nsamples = 6\nvalue = 0.278"] ;
880 -> 881 ;
882 [label="X[2] <= 16.995\nmse = 0.001\nsamples = 4\nvalue = 0.246"] ;
881 -> 882 ;
883 [label="mse = 0.0\nsamples = 1\nvalue = 0.211"] ;
882 -> 883 ;
884 [label="X[3] <= 65.211\nmse = 0.0\nsamples = 3\nvalue = 0.257"] ;
882 -> 884 ;
885 [label="X[3] <= 62.711\nmse = 0.0\nsamples = 2\nvalue = 0.249"] ;
884 -> 885 ;
886 [label="mse = 0.0\nsamples = 1\nvalue = 0.252"] ;
885 -> 886 ;
887 [label="mse = 0.0\nsamples = 1\nvalue = 0.245"] ;
885 -> 887 ;
888 [label="mse = 0.0\nsamples = 1\nvalue = 0.274"] ;
884 -> 888 ;
889 [label="X[2] <= 17.26\nmse = 0.0\nsamples = 2\nvalue = 0.343"] ;
881 -> 889 ;
890 [label="mse = 0.0\nsamples = 1\nvalue = 0.35"] ;
889 -> 890 ;
891 [label="mse = 0.0\nsamples = 1\nvalue = 0.335"] ;
889 -> 891 ;
892 [label="X[2] <= 17.573\nmse = 0.001\nsamples = 5\nvalue = 0.217"] ;
880 -> 892 ;
893 [label="X[2] <= 17.324\nmse = 0.0\nsamples = 2\nvalue = 0.174"] ;
892 -> 893 ;
894 [label="mse = 0.0\nsamples = 1\nvalue = 0.193"] ;
893 -> 894 ;
895 [label="mse = -0.0\nsamples = 1\nvalue = 0.155"] ;
893 -> 895 ;
896 [label="X[3] <= 70.016\nmse = 0.0\nsamples = 3\nvalue = 0.245"] ;
892 -> 896 ;
897 [label="mse = 0.0\nsamples = 1\nvalue = 0.239"] ;
896 -> 897 ;
898 [label="X[2] <= 18.023\nmse = 0.0\nsamples = 2\nvalue = 0.248"] ;
896 -> 898 ;
899 [label="mse = 0.0\nsamples = 1\nvalue = 0.25"] ;
898 -> 899 ;
900 [label="mse = -0.0\nsamples = 1\nvalue = 0.246"] ;
898 -> 900 ;
901 [label="X[3] <= 73.857\nmse = 0.004\nsamples = 5\nvalue = 0.292"] ;
879 -> 901 ;
902 [label="X[3] <= 73.357\nmse = 0.0\nsamples = 2\nvalue = 0.357"] ;
901 -> 902 ;
903 [label="mse = 0.0\nsamples = 1\nvalue = 0.339"] ;
902 -> 903 ;
904 [label="mse = 0.0\nsamples = 1\nvalue = 0.375"] ;
902 -> 904 ;
905 [label="X[3] <= 76.933\nmse = 0.001\nsamples = 3\nvalue = 0.249"] ;
901 -> 905 ;
906 [label="X[2] <= 16.462\nmse = 0.001\nsamples = 2\nvalue = 0.234"] ;
905 -> 906 ;
907 [label="mse = 0.0\nsamples = 1\nvalue = 0.268"] ;
906 -> 907 ;
908 [label="mse = 0.0\nsamples = 1\nvalue = 0.2"] ;
906 -> 908 ;
909 [label="mse = -0.0\nsamples = 1\nvalue = 0.28"] ;
905 -> 909 ;
910 [label="X[2] <= 13.708\nmse = 0.004\nsamples = 25\nvalue = 0.25"] ;
788 -> 910 ;
911 [label="X[2] <= 7.347\nmse = 0.002\nsamples = 3\nvalue = 0.193"] ;
910 -> 911 ;
912 [label="mse = 0.0\nsamples = 1\nvalue = 0.249"] ;
911 -> 912 ;
913 [label="X[3] <= 76.275\nmse = 0.0\nsamples = 2\nvalue = 0.165"] ;
911 -> 913 ;
914 [label="mse = 0.0\nsamples = 1\nvalue = 0.177"] ;
913 -> 914 ;
915 [label="mse = 0.0\nsamples = 1\nvalue = 0.154"] ;
913 -> 915 ;
916 [label="X[2] <= 14.484\nmse = 0.003\nsamples = 22\nvalue = 0.258"] ;
910 -> 916 ;
917 [label="X[3] <= 67.941\nmse = 0.0\nsamples = 2\nvalue = 0.333"] ;
916 -> 917 ;
918 [label="mse = 0.0\nsamples = 1\nvalue = 0.332"] ;
917 -> 918 ;
919 [label="mse = 0.0\nsamples = 1\nvalue = 0.333"] ;
917 -> 919 ;
920 [label="X[2] <= 14.677\nmse = 0.003\nsamples = 20\nvalue = 0.251"] ;
916 -> 920 ;
921 [label="X[2] <= 14.608\nmse = 0.0\nsamples = 2\nvalue = 0.185"] ;
920 -> 921 ;
922 [label="mse = 0.0\nsamples = 1\nvalue = 0.2"] ;
921 -> 922 ;
923 [label="mse = 0.0\nsamples = 1\nvalue = 0.17"] ;
921 -> 923 ;
924 [label="X[3] <= 71.529\nmse = 0.003\nsamples = 18\nvalue = 0.258"] ;
920 -> 924 ;
925 [label="X[2] <= 15.85\nmse = 0.003\nsamples = 16\nvalue = 0.252"] ;
924 -> 925 ;
926 [label="X[3] <= 66.944\nmse = 0.002\nsamples = 10\nvalue = 0.235"] ;
925 -> 926 ;
927 [label="X[3] <= 64.85\nmse = 0.001\nsamples = 4\nvalue = 0.267"] ;
926 -> 927 ;
928 [label="X[3] <= 63.333\nmse = 0.0\nsamples = 2\nvalue = 0.236"] ;
927 -> 928 ;
929 [label="mse = 0.0\nsamples = 1\nvalue = 0.253"] ;
928 -> 929 ;
930 [label="mse = 0.0\nsamples = 1\nvalue = 0.22"] ;
928 -> 930 ;
931 [label="X[2] <= 14.786\nmse = 0.0\nsamples = 2\nvalue = 0.297"] ;
927 -> 931 ;
932 [label="mse = 0.0\nsamples = 1\nvalue = 0.281"] ;
931 -> 932 ;
933 [label="mse = 0.0\nsamples = 1\nvalue = 0.313"] ;
931 -> 933 ;
934 [label="X[2] <= 15.489\nmse = 0.001\nsamples = 6\nvalue = 0.214"] ;
926 -> 934 ;
935 [label="X[3] <= 68.549\nmse = 0.001\nsamples = 4\nvalue = 0.198"] ;
934 -> 935 ;
936 [label="mse = 0.0\nsamples = 1\nvalue = 0.233"] ;
935 -> 936 ;
937 [label="X[3] <= 69.049\nmse = 0.0\nsamples = 3\nvalue = 0.186"] ;
935 -> 937 ;
938 [label="mse = 0.0\nsamples = 1\nvalue = 0.161"] ;
937 -> 938 ;
939 [label="X[2] <= 15.019\nmse = 0.0\nsamples = 2\nvalue = 0.199"] ;
937 -> 939 ;
940 [label="mse = 0.0\nsamples = 1\nvalue = 0.194"] ;
939 -> 940 ;
941 [label="mse = 0.0\nsamples = 1\nvalue = 0.203"] ;
939 -> 941 ;
942 [label="mse = 0.0\nsamples = 2\nvalue = 0.246"] ;
934 -> 942 ;
943 [label="X[2] <= 15.921\nmse = 0.003\nsamples = 6\nvalue = 0.281"] ;
925 -> 943 ;
944 [label="mse = 0.0\nsamples = 1\nvalue = 0.375"] ;
943 -> 944 ;
945 [label="X[3] <= 64.405\nmse = 0.001\nsamples = 5\nvalue = 0.262"] ;
943 -> 945 ;
946 [label="X[2] <= 16.59\nmse = 0.001\nsamples = 3\nvalue = 0.28"] ;
945 -> 946 ;
947 [label="X[3] <= 61.946\nmse = 0.0\nsamples = 2\nvalue = 0.304"] ;
946 -> 947 ;
948 [label="mse = 0.0\nsamples = 1\nvalue = 0.294"] ;
947 -> 948 ;
949 [label="mse = -0.0\nsamples = 1\nvalue = 0.315"] ;
947 -> 949 ;
950 [label="mse = 0.0\nsamples = 1\nvalue = 0.23"] ;
946 -> 950 ;
951 [label="X[2] <= 16.3\nmse = 0.0\nsamples = 2\nvalue = 0.235"] ;
945 -> 951 ;
952 [label="mse = 0.0\nsamples = 1\nvalue = 0.217"] ;
951 -> 952 ;
953 [label="mse = 0.0\nsamples = 1\nvalue = 0.253"] ;
951 -> 953 ;
954 [label="X[3] <= 73.972\nmse = 0.001\nsamples = 2\nvalue = 0.304"] ;
924 -> 954 ;
955 [label="mse = 0.0\nsamples = 1\nvalue = 0.333"] ;
954 -> 955 ;
956 [label="mse = 0.0\nsamples = 1\nvalue = 0.275"] ;
954 -> 956 ;
957 [label="mse = 0.0\nsamples = 1\nvalue = 0.492"] ;
787 -> 957 ;
958 [label="X[1] <= 73.7\nmse = 0.011\nsamples = 334\nvalue = 0.312"] ;
786 -> 958 ;
959 [label="X[3] <= 63.917\nmse = 0.013\nsamples = 97\nvalue = 0.344"] ;
958 -> 959 ;
960 [label="mse = 0.0\nsamples = 1\nvalue = 0.6"] ;
959 -> 960 ;
961 [label="X[2] <= 7.586\nmse = 0.013\nsamples = 96\nvalue = 0.341"] ;
959 -> 961 ;
962 [label="X[2] <= 7.477\nmse = 0.003\nsamples = 3\nvalue = 0.46"] ;
961 -> 962 ;
963 [label="X[2] <= 7.371\nmse = 0.001\nsamples = 2\nvalue = 0.423"] ;
962 -> 963 ;
964 [label="mse = 0.0\nsamples = 1\nvalue = 0.447"] ;
963 -> 964 ;
965 [label="mse = -0.0\nsamples = 1\nvalue = 0.4"] ;
963 -> 965 ;
966 [label="mse = 0.0\nsamples = 1\nvalue = 0.534"] ;
962 -> 966 ;
967 [label="X[2] <= 12.202\nmse = 0.013\nsamples = 93\nvalue = 0.338"] ;
961 -> 967 ;
968 [label="X[0] <= 59557.0\nmse = 0.006\nsamples = 29\nvalue = 0.298"] ;
967 -> 968 ;
969 [label="X[3] <= 78.971\nmse = 0.005\nsamples = 25\nvalue = 0.31"] ;
968 -> 969 ;
970 [label="X[0] <= 53435.5\nmse = 0.005\nsamples = 20\nvalue = 0.321"] ;
969 -> 970 ;
971 [label="X[3] <= 70.684\nmse = 0.003\nsamples = 6\nvalue = 0.273"] ;
970 -> 971 ;
972 [label="X[3] <= 68.728\nmse = 0.003\nsamples = 3\nvalue = 0.306"] ;
971 -> 972 ;
973 [label="mse = 0.0\nsamples = 1\nvalue = 0.236"] ;
972 -> 973 ;
974 [label="X[2] <= 11.687\nmse = 0.001\nsamples = 2\nvalue = 0.341"] ;
972 -> 974 ;
975 [label="mse = 0.0\nsamples = 1\nvalue = 0.368"] ;
974 -> 975 ;
976 [label="mse = -0.0\nsamples = 1\nvalue = 0.314"] ;
974 -> 976 ;
977 [label="X[3] <= 75.696\nmse = 0.0\nsamples = 3\nvalue = 0.24"] ;
971 -> 977 ;
978 [label="X[2] <= 10.851\nmse = 0.0\nsamples = 2\nvalue = 0.232"] ;
977 -> 978 ;
979 [label="mse = 0.0\nsamples = 1\nvalue = 0.25"] ;
978 -> 979 ;
980 [label="mse = 0.0\nsamples = 1\nvalue = 0.214"] ;
978 -> 980 ;
981 [label="mse = 0.0\nsamples = 1\nvalue = 0.254"] ;
977 -> 981 ;
982 [label="X[3] <= 77.175\nmse = 0.005\nsamples = 14\nvalue = 0.341"] ;
970 -> 982 ;
983 [label="X[3] <= 75.365\nmse = 0.002\nsamples = 12\nvalue = 0.323"] ;
982 -> 983 ;
984 [label="X[2] <= 11.747\nmse = 0.001\nsamples = 9\nvalue = 0.343"] ;
983 -> 984 ;
985 [label="X[3] <= 74.846\nmse = 0.0\nsamples = 8\nvalue = 0.353"] ;
984 -> 985 ;
986 [label="X[2] <= 10.672\nmse = 0.0\nsamples = 7\nvalue = 0.346"] ;
985 -> 986 ;
987 [label="X[3] <= 72.089\nmse = 0.0\nsamples = 3\nvalue = 0.339"] ;
986 -> 987 ;
988 [label="mse = 0.0\nsamples = 1\nvalue = 0.351"] ;
987 -> 988 ;
989 [label="X[3] <= 73.273\nmse = 0.0\nsamples = 2\nvalue = 0.333"] ;
987 -> 989 ;
990 [label="mse = 0.0\nsamples = 1\nvalue = 0.332"] ;
989 -> 990 ;
991 [label="mse = 0.0\nsamples = 1\nvalue = 0.333"] ;
989 -> 991 ;
992 [label="X[3] <= 69.869\nmse = 0.0\nsamples = 4\nvalue = 0.352"] ;
986 -> 992 ;
993 [label="mse = 0.0\nsamples = 1\nvalue = 0.333"] ;
992 -> 993 ;
994 [label="X[2] <= 11.541\nmse = 0.0\nsamples = 3\nvalue = 0.358"] ;
992 -> 994 ;
995 [label="X[3] <= 73.781\nmse = 0.0\nsamples = 2\nvalue = 0.36"] ;
994 -> 995 ;
996 [label="mse = 0.0\nsamples = 1\nvalue = 0.361"] ;
995 -> 996 ;
997 [label="mse = 0.0\nsamples = 1\nvalue = 0.359"] ;
995 -> 997 ;
998 [label="mse = -0.0\nsamples = 1\nvalue = 0.354"] ;
994 -> 998 ;
999 [label="mse = 0.0\nsamples = 1\nvalue = 0.4"] ;
985 -> 999 ;
1000 [label="mse = 0.0\nsamples = 1\nvalue = 0.264"] ;
984 -> 1000 ;
1001 [label="X[2] <= 10.343\nmse = 0.002\nsamples = 3\nvalue = 0.263"] ;
983 -> 1001 ;
1002 [label="X[3] <= 75.607\nmse = 0.0\nsamples = 2\nvalue = 0.237"] ;
1001 -> 1002 ;
1003 [label="mse = 0.0\nsamples = 1\nvalue = 0.222"] ;
1002 -> 1003 ;
1004 [label="mse = 0.0\nsamples = 1\nvalue = 0.252"] ;
1002 -> 1004 ;
1005 [label="mse = 0.0\nsamples = 1\nvalue = 0.317"] ;
1001 -> 1005 ;
1006 [label="X[3] <= 78.789\nmse = 0.006\nsamples = 2\nvalue = 0.451"] ;
982 -> 1006 ;
1007 [label="mse = 0.0\nsamples = 1\nvalue = 0.528"] ;
1006 -> 1007 ;
1008 [label="mse = 0.0\nsamples = 1\nvalue = 0.375"] ;
1006 -> 1008 ;
1009 [label="X[3] <= 84.959\nmse = 0.002\nsamples = 5\nvalue = 0.267"] ;
969 -> 1009 ;
1010 [label="X[2] <= 8.734\nmse = 0.001\nsamples = 4\nvalue = 0.252"] ;
1009 -> 1010 ;
1011 [label="mse = 0.0\nsamples = 1\nvalue = 0.28"] ;
1010 -> 1011 ;
1012 [label="X[2] <= 10.359\nmse = 0.001\nsamples = 3\nvalue = 0.243"] ;
1010 -> 1012 ;
1013 [label="mse = 0.0\nsamples = 1\nvalue = 0.25"] ;
1012 -> 1013 ;
1014 [label="mse = 0.001\nsamples = 2\nvalue = 0.239"] ;
1012 -> 1014 ;
1015 [label="mse = -0.0\nsamples = 1\nvalue = 0.33"] ;
1009 -> 1015 ;
1016 [label="X[3] <= 69.708\nmse = 0.005\nsamples = 4\nvalue = 0.222"] ;
968 -> 1016 ;
1017 [label="X[3] <= 68.574\nmse = 0.003\nsamples = 2\nvalue = 0.274"] ;
1016 -> 1017 ;
1018 [label="mse = 0.0\nsamples = 1\nvalue = 0.215"] ;
1017 -> 1018 ;
1019 [label="mse = 0.0\nsamples = 1\nvalue = 0.333"] ;
1017 -> 1019 ;
1020 [label="X[3] <= 70.67\nmse = 0.0\nsamples = 2\nvalue = 0.17"] ;
1016 -> 1020 ;
1021 [label="mse = 0.0\nsamples = 1\nvalue = 0.188"] ;
1020 -> 1021 ;
1022 [label="mse = -0.0\nsamples = 1\nvalue = 0.151"] ;
1020 -> 1022 ;
1023 [label="X[2] <= 12.803\nmse = 0.015\nsamples = 64\nvalue = 0.356"] ;
967 -> 1023 ;
1024 [label="X[2] <= 12.711\nmse = 0.015\nsamples = 9\nvalue = 0.435"] ;
1023 -> 1024 ;
1025 [label="X[3] <= 66.759\nmse = 0.003\nsamples = 8\nvalue = 0.395"] ;
1024 -> 1025 ;
1026 [label="mse = 0.0\nsamples = 1\nvalue = 0.494"] ;
1025 -> 1026 ;
1027 [label="X[3] <= 71.667\nmse = 0.002\nsamples = 7\nvalue = 0.381"] ;
1025 -> 1027 ;
1028 [label="X[3] <= 66.942\nmse = 0.001\nsamples = 3\nvalue = 0.361"] ;
1027 -> 1028 ;
1029 [label="mse = 0.0\nsamples = 1\nvalue = 0.407"] ;
1028 -> 1029 ;
1030 [label="X[2] <= 12.41\nmse = 0.0\nsamples = 2\nvalue = 0.338"] ;
1028 -> 1030 ;
1031 [label="mse = 0.0\nsamples = 1\nvalue = 0.342"] ;
1030 -> 1031 ;
1032 [label="mse = 0.0\nsamples = 1\nvalue = 0.333"] ;
1030 -> 1032 ;
1033 [label="X[3] <= 72.917\nmse = 0.002\nsamples = 4\nvalue = 0.397"] ;
1027 -> 1033 ;
1034 [label="mse = 0.0\nsamples = 1\nvalue = 0.454"] ;
1033 -> 1034 ;
1035 [label="X[1] <= 71.4\nmse = 0.001\nsamples = 3\nvalue = 0.377"] ;
1033 -> 1035 ;
1036 [label="X[3] <= 75.143\nmse = 0.0\nsamples = 2\nvalue = 0.394"] ;
1035 -> 1036 ;
1037 [label="mse = 0.0\nsamples = 1\nvalue = 0.395"] ;
1036 -> 1037 ;
1038 [label="mse = 0.0\nsamples = 1\nvalue = 0.393"] ;
1036 -> 1038 ;
1039 [label="mse = -0.0\nsamples = 1\nvalue = 0.344"] ;
1035 -> 1039 ;
1040 [label="mse = 0.0\nsamples = 1\nvalue = 0.75"] ;
1024 -> 1040 ;
1041 [label="X[2] <= 15.838\nmse = 0.014\nsamples = 55\nvalue = 0.343"] ;
1023 -> 1041 ;
1042 [label="X[2] <= 15.247\nmse = 0.011\nsamples = 19\nvalue = 0.298"] ;
1041 -> 1042 ;
1043 [label="X[2] <= 14.739\nmse = 0.011\nsamples = 15\nvalue = 0.318"] ;
1042 -> 1043 ;
1044 [label="X[3] <= 69.794\nmse = 0.01\nsamples = 13\nvalue = 0.298"] ;
1043 -> 1044 ;
1045 [label="X[1] <= 68.4\nmse = 0.006\nsamples = 6\nvalue = 0.366"] ;
1044 -> 1045 ;
1046 [label="X[3] <= 68.711\nmse = 0.001\nsamples = 2\nvalue = 0.349"] ;
1045 -> 1046 ;
1047 [label="mse = 0.0\nsamples = 1\nvalue = 0.324"] ;
1046 -> 1047 ;
1048 [label="mse = 0.0\nsamples = 1\nvalue = 0.375"] ;
1046 -> 1048 ;
1049 [label="X[1] <= 71.4\nmse = 0.009\nsamples = 4\nvalue = 0.374"] ;
1045 -> 1049 ;
1050 [label="mse = 0.002\nsamples = 2\nvalue = 0.373"] ;
1049 -> 1050 ;
1051 [label="mse = 0.016\nsamples = 2\nvalue = 0.375"] ;
1049 -> 1051 ;
1052 [label="X[0] <= 52816.0\nmse = 0.005\nsamples = 7\nvalue = 0.241"] ;
1044 -> 1052 ;
1053 [label="mse = 0.0\nsamples = 1\nvalue = 0.132"] ;
1052 -> 1053 ;
1054 [label="X[2] <= 13.448\nmse = 0.004\nsamples = 6\nvalue = 0.259"] ;
1052 -> 1054 ;
1055 [label="mse = 0.0\nsamples = 1\nvalue = 0.146"] ;
1054 -> 1055 ;
1056 [label="X[2] <= 14.619\nmse = 0.001\nsamples = 5\nvalue = 0.281"] ;
1054 -> 1056 ;
1057 [label="X[2] <= 14.28\nmse = 0.001\nsamples = 4\nvalue = 0.292"] ;
1056 -> 1057 ;
1058 [label="X[1] <= 69.4\nmse = 0.0\nsamples = 3\nvalue = 0.274"] ;
1057 -> 1058 ;
1059 [label="X[3] <= 73.647\nmse = 0.0\nsamples = 2\nvalue = 0.276"] ;
1058 -> 1059 ;
1060 [label="mse = 0.0\nsamples = 1\nvalue = 0.277"] ;
1059 -> 1060 ;
1061 [label="mse = 0.0\nsamples = 1\nvalue = 0.274"] ;
1059 -> 1061 ;
1062 [label="mse = 0.0\nsamples = 1\nvalue = 0.27"] ;
1058 -> 1062 ;
1063 [label="mse = -0.0\nsamples = 1\nvalue = 0.349"] ;
1057 -> 1063 ;
1064 [label="mse = -0.0\nsamples = 1\nvalue = 0.238"] ;
1056 -> 1064 ;
1065 [label="X[2] <= 14.989\nmse = 0.003\nsamples = 2\nvalue = 0.448"] ;
1043 -> 1065 ;
1066 [label="mse = 0.0\nsamples = 1\nvalue = 0.396"] ;
1065 -> 1066 ;
1067 [label="mse = 0.0\nsamples = 1\nvalue = 0.5"] ;
1065 -> 1067 ;
1068 [label="X[2] <= 15.647\nmse = 0.003\nsamples = 4\nvalue = 0.224"] ;
1042 -> 1068 ;
1069 [label="X[3] <= 75.594\nmse = 0.001\nsamples = 3\nvalue = 0.195"] ;
1068 -> 1069 ;
1070 [label="X[3] <= 71.139\nmse = 0.0\nsamples = 2\nvalue = 0.222"] ;
1069 -> 1070 ;
1071 [label="mse = 0.0\nsamples = 1\nvalue = 0.229"] ;
1070 -> 1071 ;
1072 [label="mse = 0.0\nsamples = 1\nvalue = 0.214"] ;
1070 -> 1072 ;
1073 [label="mse = -0.0\nsamples = 1\nvalue = 0.143"] ;
1069 -> 1073 ;
1074 [label="mse = 0.0\nsamples = 1\nvalue = 0.309"] ;
1068 -> 1074 ;
1075 [label="X[2] <= 21.818\nmse = 0.013\nsamples = 36\nvalue = 0.366"] ;
1041 -> 1075 ;
1076 [label="X[3] <= 78.934\nmse = 0.015\nsamples = 29\nvalue = 0.386"] ;
1075 -> 1076 ;
1077 [label="X[3] <= 78.042\nmse = 0.013\nsamples = 21\nvalue = 0.407"] ;
1076 -> 1077 ;
1078 [label="X[1] <= 69.8\nmse = 0.012\nsamples = 19\nvalue = 0.397"] ;
1077 -> 1078 ;
1079 [label="mse = 0.0\nsamples = 1\nvalue = 0.542"] ;
1078 -> 1079 ;
1080 [label="X[2] <= 18.939\nmse = 0.012\nsamples = 18\nvalue = 0.389"] ;
1078 -> 1080 ;
1081 [label="X[2] <= 18.831\nmse = 0.003\nsamples = 3\nvalue = 0.292"] ;
1080 -> 1081 ;
1082 [label="X[2] <= 18.417\nmse = 0.001\nsamples = 2\nvalue = 0.321"] ;
1081 -> 1082 ;
1083 [label="mse = 0.0\nsamples = 1\nvalue = 0.283"] ;
1082 -> 1083 ;
1084 [label="mse = 0.0\nsamples = 1\nvalue = 0.36"] ;
1082 -> 1084 ;
1085 [label="mse = 0.0\nsamples = 1\nvalue = 0.234"] ;
1081 -> 1085 ;
1086 [label="X[2] <= 19.812\nmse = 0.011\nsamples = 15\nvalue = 0.408"] ;
1080 -> 1086 ;
1087 [label="X[3] <= 75.333\nmse = 0.018\nsamples = 2\nvalue = 0.521"] ;
1086 -> 1087 ;
1088 [label="mse = 0.0\nsamples = 1\nvalue = 0.389"] ;
1087 -> 1088 ;
1089 [label="mse = 0.0\nsamples = 1\nvalue = 0.654"] ;
1087 -> 1089 ;
1090 [label="X[3] <= 77.455\nmse = 0.008\nsamples = 13\nvalue = 0.391"] ;
1086 -> 1090 ;
1091 [label="X[2] <= 20.717\nmse = 0.007\nsamples = 11\nvalue = 0.407"] ;
1090 -> 1091 ;
1092 [label="mse = 0.0\nsamples = 1\nvalue = 0.608"] ;
1091 -> 1092 ;
1093 [label="X[3] <= 75.187\nmse = 0.003\nsamples = 10\nvalue = 0.387"] ;
1091 -> 1093 ;
1094 [label="X[2] <= 20.832\nmse = 0.001\nsamples = 6\nvalue = 0.353"] ;
1093 -> 1094 ;
1095 [label="mse = 0.0\nsamples = 1\nvalue = 0.317"] ;
1094 -> 1095 ;
1096 [label="X[2] <= 20.909\nmse = 0.001\nsamples = 5\nvalue = 0.361"] ;
1094 -> 1096 ;
1097 [label="mse = 0.0\nsamples = 1\nvalue = 0.422"] ;
1096 -> 1097 ;
1098 [label="X[3] <= 72.903\nmse = 0.0\nsamples = 4\nvalue = 0.346"] ;
1096 -> 1098 ;
1099 [label="mse = 0.0\nsamples = 2\nvalue = 0.333"] ;
1098 -> 1099 ;
1100 [label="X[3] <= 74.978\nmse = 0.0\nsamples = 2\nvalue = 0.358"] ;
1098 -> 1100 ;
1101 [label="mse = 0.0\nsamples = 1\nvalue = 0.366"] ;
1100 -> 1101 ;
1102 [label="mse = -0.0\nsamples = 1\nvalue = 0.349"] ;
1100 -> 1102 ;
1103 [label="X[2] <= 21.368\nmse = 0.002\nsamples = 4\nvalue = 0.436"] ;
1093 -> 1103 ;
1104 [label="mse = 0.0\nsamples = 1\nvalue = 0.502"] ;
1103 -> 1104 ;
1105 [label="X[2] <= 21.754\nmse = 0.001\nsamples = 3\nvalue = 0.414"] ;
1103 -> 1105 ;
1106 [label="X[3] <= 76.154\nmse = 0.0\nsamples = 2\nvalue = 0.432"] ;
1105 -> 1106 ;
1107 [label="mse = 0.0\nsamples = 1\nvalue = 0.418"] ;
1106 -> 1107 ;
1108 [label="mse = -0.0\nsamples = 1\nvalue = 0.446"] ;
1106 -> 1108 ;
1109 [label="mse = 0.0\nsamples = 1\nvalue = 0.379"] ;
1105 -> 1109 ;
1110 [label="X[3] <= 77.913\nmse = 0.004\nsamples = 2\nvalue = 0.302"] ;
1090 -> 1110 ;
1111 [label="mse = 0.0\nsamples = 1\nvalue = 0.241"] ;
1110 -> 1111 ;
1112 [label="mse = 0.0\nsamples = 1\nvalue = 0.364"] ;
1110 -> 1112 ;
1113 [label="X[3] <= 78.429\nmse = 0.008\nsamples = 2\nvalue = 0.509"] ;
1077 -> 1113 ;
1114 [label="mse = 0.0\nsamples = 1\nvalue = 0.6"] ;
1113 -> 1114 ;
1115 [label="mse = 0.0\nsamples = 1\nvalue = 0.417"] ;
1113 -> 1115 ;
1116 [label="X[2] <= 19.66\nmse = 0.015\nsamples = 8\nvalue = 0.328"] ;
1076 -> 1116 ;
1117 [label="X[2] <= 18.307\nmse = 0.013\nsamples = 5\nvalue = 0.379"] ;
1116 -> 1117 ;
1118 [label="mse = 0.0\nsamples = 1\nvalue = 0.202"] ;
1117 -> 1118 ;
1119 [label="X[3] <= 82.467\nmse = 0.007\nsamples = 4\nvalue = 0.423"] ;
1117 -> 1119 ;
1120 [label="X[2] <= 19.043\nmse = 0.006\nsamples = 3\nvalue = 0.449"] ;
1119 -> 1120 ;
1121 [label="mse = 0.008\nsamples = 2\nvalue = 0.467"] ;
1120 -> 1121 ;
1122 [label="mse = 0.0\nsamples = 1\nvalue = 0.414"] ;
1120 -> 1122 ;
1123 [label="mse = 0.0\nsamples = 1\nvalue = 0.344"] ;
1119 -> 1123 ;
1124 [label="X[2] <= 20.632\nmse = 0.006\nsamples = 3\nvalue = 0.244"] ;
1116 -> 1124 ;
1125 [label="X[2] <= 20.055\nmse = 0.0\nsamples = 2\nvalue = 0.191"] ;
1124 -> 1125 ;
1126 [label="mse = 0.0\nsamples = 1\nvalue = 0.193"] ;
1125 -> 1126 ;
1127 [label="mse = 0.0\nsamples = 1\nvalue = 0.189"] ;
1125 -> 1127 ;
1128 [label="mse = -0.0\nsamples = 1\nvalue = 0.349"] ;
1124 -> 1128 ;
1129 [label="X[2] <= 23.109\nmse = 0.001\nsamples = 7\nvalue = 0.284"] ;
1075 -> 1129 ;
1130 [label="X[2] <= 21.97\nmse = 0.0\nsamples = 5\nvalue = 0.296"] ;
1129 -> 1130 ;
1131 [label="X[3] <= 72.436\nmse = 0.0\nsamples = 2\nvalue = 0.309"] ;
1130 -> 1131 ;
1132 [label="mse = 0.0\nsamples = 1\nvalue = 0.313"] ;
1131 -> 1132 ;
1133 [label="mse = 0.0\nsamples = 1\nvalue = 0.305"] ;
1131 -> 1133 ;
1134 [label="X[3] <= 76.386\nmse = 0.0\nsamples = 3\nvalue = 0.288"] ;
1130 -> 1134 ;
1135 [label="mse = 0.0\nsamples = 1\nvalue = 0.286"] ;
1134 -> 1135 ;
1136 [label="mse = 0.0\nsamples = 2\nvalue = 0.289"] ;
1134 -> 1136 ;
1137 [label="X[3] <= 66.44\nmse = 0.0\nsamples = 2\nvalue = 0.255"] ;
1129 -> 1137 ;
1138 [label="mse = 0.0\nsamples = 1\nvalue = 0.271"] ;
1137 -> 1138 ;
1139 [label="mse = -0.0\nsamples = 1\nvalue = 0.238"] ;
1137 -> 1139 ;
1140 [label="X[3] <= 65.92\nmse = 0.01\nsamples = 237\nvalue = 0.299"] ;
958 -> 1140 ;
1141 [label="X[3] <= 65.696\nmse = 0.008\nsamples = 35\nvalue = 0.338"] ;
1140 -> 1141 ;
1142 [label="X[2] <= 16.226\nmse = 0.005\nsamples = 32\nvalue = 0.323"] ;
1141 -> 1142 ;
1143 [label="X[0] <= 56662.0\nmse = 0.004\nsamples = 16\nvalue = 0.287"] ;
1142 -> 1143 ;
1144 [label="mse = 0.0\nsamples = 1\nvalue = 0.185"] ;
1143 -> 1144 ;
1145 [label="X[0] <= 57672.0\nmse = 0.003\nsamples = 15\nvalue = 0.294"] ;
1143 -> 1145 ;
1146 [label="mse = 0.0\nsamples = 1\nvalue = 0.421"] ;
1145 -> 1146 ;
1147 [label="X[3] <= 63.143\nmse = 0.002\nsamples = 14\nvalue = 0.285"] ;
1145 -> 1147 ;
1148 [label="X[3] <= 62.864\nmse = 0.004\nsamples = 5\nvalue = 0.261"] ;
1147 -> 1148 ;
1149 [label="X[3] <= 62.235\nmse = 0.001\nsamples = 4\nvalue = 0.285"] ;
1148 -> 1149 ;
1150 [label="X[1] <= 83.1\nmse = 0.0\nsamples = 2\nvalue = 0.314"] ;
1149 -> 1150 ;
1151 [label="mse = 0.0\nsamples = 1\nvalue = 0.333"] ;
1150 -> 1151 ;
1152 [label="mse = 0.0\nsamples = 1\nvalue = 0.295"] ;
1150 -> 1152 ;
1153 [label="X[3] <= 62.658\nmse = 0.001\nsamples = 2\nvalue = 0.256"] ;
1149 -> 1153 ;
1154 [label="mse = 0.0\nsamples = 1\nvalue = 0.225"] ;
1153 -> 1154 ;
1155 [label="mse = 0.0\nsamples = 1\nvalue = 0.288"] ;
1153 -> 1155 ;
1156 [label="mse = -0.0\nsamples = 1\nvalue = 0.163"] ;
1148 -> 1156 ;
1157 [label="X[0] <= 61380.5\nmse = 0.001\nsamples = 9\nvalue = 0.299"] ;
1147 -> 1157 ;
1158 [label="mse = 0.0\nsamples = 1\nvalue = 0.339"] ;
1157 -> 1158 ;
1159 [label="X[3] <= 63.909\nmse = 0.001\nsamples = 8\nvalue = 0.294"] ;
1157 -> 1159 ;
1160 [label="X[2] <= 10.664\nmse = 0.0\nsamples = 4\nvalue = 0.313"] ;
1159 -> 1160 ;
1161 [label="mse = 0.0\nsamples = 1\nvalue = 0.333"] ;
1160 -> 1161 ;
1162 [label="X[2] <= 11.903\nmse = 0.0\nsamples = 3\nvalue = 0.307"] ;
1160 -> 1162 ;
1163 [label="X[2] <= 11.267\nmse = 0.0\nsamples = 2\nvalue = 0.297"] ;
1162 -> 1163 ;
1164 [label="mse = 0.0\nsamples = 1\nvalue = 0.303"] ;
1163 -> 1164 ;
1165 [label="mse = -0.0\nsamples = 1\nvalue = 0.292"] ;
1163 -> 1165 ;
1166 [label="mse = 0.0\nsamples = 1\nvalue = 0.326"] ;
1162 -> 1166 ;
1167 [label="X[2] <= 10.625\nmse = 0.0\nsamples = 4\nvalue = 0.274"] ;
1159 -> 1167 ;
1168 [label="X[1] <= 86.7\nmse = 0.0\nsamples = 2\nvalue = 0.29"] ;
1167 -> 1168 ;
1169 [label="mse = 0.0\nsamples = 1\nvalue = 0.278"] ;
1168 -> 1169 ;
1170 [label="mse = -0.0\nsamples = 1\nvalue = 0.301"] ;
1168 -> 1170 ;
1171 [label="X[2] <= 12.956\nmse = 0.0\nsamples = 2\nvalue = 0.258"] ;
1167 -> 1171 ;
1172 [label="mse = 0.0\nsamples = 1\nvalue = 0.255"] ;
1171 -> 1172 ;
1173 [label="mse = 0.0\nsamples = 1\nvalue = 0.261"] ;
1171 -> 1173 ;
1174 [label="X[3] <= 64.624\nmse = 0.004\nsamples = 16\nvalue = 0.358"] ;
1142 -> 1174 ;
1175 [label="X[3] <= 63.987\nmse = 0.003\nsamples = 10\nvalue = 0.39"] ;
1174 -> 1175 ;
1176 [label="X[2] <= 19.188\nmse = 0.001\nsamples = 9\nvalue = 0.378"] ;
1175 -> 1176 ;
1177 [label="X[3] <= 61.781\nmse = 0.001\nsamples = 6\nvalue = 0.358"] ;
1176 -> 1177 ;
1178 [label="X[3] <= 61.148\nmse = 0.0\nsamples = 2\nvalue = 0.334"] ;
1177 -> 1178 ;
1179 [label="mse = 0.0\nsamples = 1\nvalue = 0.334"] ;
1178 -> 1179 ;
1180 [label="mse = -0.0\nsamples = 1\nvalue = 0.333"] ;
1178 -> 1180 ;
1181 [label="X[2] <= 17.585\nmse = 0.0\nsamples = 4\nvalue = 0.37"] ;
1177 -> 1181 ;
1182 [label="X[2] <= 17.011\nmse = 0.0\nsamples = 2\nvalue = 0.352"] ;
1181 -> 1182 ;
1183 [label="mse = 0.0\nsamples = 1\nvalue = 0.355"] ;
1182 -> 1183 ;
1184 [label="mse = 0.0\nsamples = 1\nvalue = 0.348"] ;
1182 -> 1184 ;
1185 [label="X[2] <= 18.093\nmse = 0.0\nsamples = 2\nvalue = 0.388"] ;
1181 -> 1185 ;
1186 [label="mse = 0.0\nsamples = 1\nvalue = 0.392"] ;
1185 -> 1186 ;
1187 [label="mse = 0.0\nsamples = 1\nvalue = 0.383"] ;
1185 -> 1187 ;
1188 [label="X[3] <= 62.055\nmse = 0.001\nsamples = 3\nvalue = 0.417"] ;
1176 -> 1188 ;
1189 [label="mse = 0.0\nsamples = 1\nvalue = 0.445"] ;
1188 -> 1189 ;
1190 [label="X[2] <= 21.903\nmse = 0.0\nsamples = 2\nvalue = 0.403"] ;
1188 -> 1190 ;
1191 [label="mse = 0.0\nsamples = 1\nvalue = 0.417"] ;
1190 -> 1191 ;
1192 [label="mse = -0.0\nsamples = 1\nvalue = 0.39"] ;
1190 -> 1192 ;
1193 [label="mse = -0.0\nsamples = 1\nvalue = 0.5"] ;
1175 -> 1193 ;
1194 [label="X[3] <= 65.265\nmse = 0.001\nsamples = 6\nvalue = 0.305"] ;
1174 -> 1194 ;
1195 [label="X[2] <= 24.468\nmse = 0.0\nsamples = 4\nvalue = 0.287"] ;
1194 -> 1195 ;
1196 [label="X[2] <= 20.705\nmse = 0.0\nsamples = 3\nvalue = 0.281"] ;
1195 -> 1196 ;
1197 [label="mse = 0.0\nsamples = 1\nvalue = 0.3"] ;
1196 -> 1197 ;
1198 [label="X[3] <= 65.007\nmse = 0.0\nsamples = 2\nvalue = 0.272"] ;
1196 -> 1198 ;
1199 [label="mse = 0.0\nsamples = 1\nvalue = 0.262"] ;
1198 -> 1199 ;
1200 [label="mse = 0.0\nsamples = 1\nvalue = 0.282"] ;
1198 -> 1200 ;
1201 [label="mse = -0.0\nsamples = 1\nvalue = 0.302"] ;
1195 -> 1201 ;
1202 [label="X[2] <= 18.599\nmse = 0.0\nsamples = 2\nvalue = 0.343"] ;
1194 -> 1202 ;
1203 [label="mse = 0.0\nsamples = 1\nvalue = 0.347"] ;
1202 -> 1203 ;
1204 [label="mse = 0.0\nsamples = 1\nvalue = 0.338"] ;
1202 -> 1204 ;
1205 [label="X[3] <= 65.76\nmse = 0.017\nsamples = 3\nvalue = 0.504"] ;
1141 -> 1205 ;
1206 [label="mse = 0.0\nsamples = 1\nvalue = 0.667"] ;
1205 -> 1206 ;
1207 [label="X[0] <= 59543.0\nmse = 0.005\nsamples = 2\nvalue = 0.423"] ;
1205 -> 1207 ;
1208 [label="mse = 0.0\nsamples = 1\nvalue = 0.348"] ;
1207 -> 1208 ;
1209 [label="mse = -0.0\nsamples = 1\nvalue = 0.497"] ;
1207 -> 1209 ;
1210 [label="X[3] <= 83.05\nmse = 0.01\nsamples = 202\nvalue = 0.292"] ;
1140 -> 1210 ;
1211 [label="X[1] <= 87.95\nmse = 0.009\nsamples = 191\nvalue = 0.289"] ;
1210 -> 1211 ;
1212 [label="X[2] <= 20.403\nmse = 0.008\nsamples = 139\nvalue = 0.282"] ;
1211 -> 1212 ;
1213 [label="X[2] <= 14.022\nmse = 0.007\nsamples = 124\nvalue = 0.277"] ;
1212 -> 1213 ;
1214 [label="X[3] <= 68.903\nmse = 0.007\nsamples = 83\nvalue = 0.291"] ;
1213 -> 1214 ;
1215 [label="X[3] <= 68.56\nmse = 0.002\nsamples = 16\nvalue = 0.242"] ;
1214 -> 1215 ;
1216 [label="X[3] <= 68.221\nmse = 0.001\nsamples = 14\nvalue = 0.251"] ;
1215 -> 1216 ;
1217 [label="X[1] <= 79.85\nmse = 0.001\nsamples = 13\nvalue = 0.245"] ;
1216 -> 1217 ;
1218 [label="X[2] <= 13.424\nmse = 0.001\nsamples = 9\nvalue = 0.255"] ;
1217 -> 1218 ;
1219 [label="X[3] <= 67.596\nmse = 0.001\nsamples = 8\nvalue = 0.261"] ;
1218 -> 1219 ;
1220 [label="X[3] <= 66.786\nmse = 0.0\nsamples = 5\nvalue = 0.277"] ;
1219 -> 1220 ;
1221 [label="X[3] <= 66.242\nmse = 0.0\nsamples = 3\nvalue = 0.261"] ;
1220 -> 1221 ;
1222 [label="mse = 0.0\nsamples = 1\nvalue = 0.25"] ;
1221 -> 1222 ;
1223 [label="X[2] <= 8.673\nmse = 0.0\nsamples = 2\nvalue = 0.267"] ;
1221 -> 1223 ;
1224 [label="mse = 0.0\nsamples = 1\nvalue = 0.264"] ;
1223 -> 1224 ;
1225 [label="mse = 0.0\nsamples = 1\nvalue = 0.269"] ;
1223 -> 1225 ;
1226 [label="X[0] <= 62078.5\nmse = 0.0\nsamples = 2\nvalue = 0.301"] ;
1220 -> 1226 ;
1227 [label="mse = 0.0\nsamples = 1\nvalue = 0.307"] ;
1226 -> 1227 ;
1228 [label="mse = -0.0\nsamples = 1\nvalue = 0.294"] ;
1226 -> 1228 ;
1229 [label="X[1] <= 78.3\nmse = 0.0\nsamples = 3\nvalue = 0.234"] ;
1219 -> 1229 ;
1230 [label="mse = 0.0\nsamples = 1\nvalue = 0.252"] ;
1229 -> 1230 ;
1231 [label="X[3] <= 67.846\nmse = 0.0\nsamples = 2\nvalue = 0.225"] ;
1229 -> 1231 ;
1232 [label="mse = 0.0\nsamples = 1\nvalue = 0.229"] ;
1231 -> 1232 ;
1233 [label="mse = -0.0\nsamples = 1\nvalue = 0.221"] ;
1231 -> 1233 ;
1234 [label="mse = 0.0\nsamples = 1\nvalue = 0.211"] ;
1218 -> 1234 ;
1235 [label="X[0] <= 67104.5\nmse = 0.0\nsamples = 4\nvalue = 0.221"] ;
1217 -> 1235 ;
1236 [label="mse = 0.0\nsamples = 1\nvalue = 0.202"] ;
1235 -> 1236 ;
1237 [label="X[3] <= 66.66\nmse = 0.0\nsamples = 3\nvalue = 0.227"] ;
1235 -> 1237 ;
1238 [label="mse = 0.0\nsamples = 1\nvalue = 0.237"] ;
1237 -> 1238 ;
1239 [label="X[1] <= 85.6\nmse = 0.0\nsamples = 2\nvalue = 0.221"] ;
1237 -> 1239 ;
1240 [label="mse = 0.0\nsamples = 1\nvalue = 0.22"] ;
1239 -> 1240 ;
1241 [label="mse = -0.0\nsamples = 1\nvalue = 0.222"] ;
1239 -> 1241 ;
1242 [label="mse = -0.0\nsamples = 1\nvalue = 0.333"] ;
1216 -> 1242 ;
1243 [label="X[2] <= 9.185\nmse = 0.001\nsamples = 2\nvalue = 0.182"] ;
1215 -> 1243 ;
1244 [label="mse = 0.0\nsamples = 1\nvalue = 0.155"] ;
1243 -> 1244 ;
1245 [label="mse = -0.0\nsamples = 1\nvalue = 0.21"] ;
1243 -> 1245 ;
1246 [label="X[1] <= 79.85\nmse = 0.008\nsamples = 67\nvalue = 0.303"] ;
1214 -> 1246 ;
1247 [label="X[2] <= 7.377\nmse = 0.009\nsamples = 48\nvalue = 0.314"] ;
1246 -> 1247 ;
1248 [label="X[3] <= 74.647\nmse = 0.0\nsamples = 2\nvalue = 0.406"] ;
1247 -> 1248 ;
1249 [label="mse = 0.0\nsamples = 1\nvalue = 0.422"] ;
1248 -> 1249 ;
1250 [label="mse = -0.0\nsamples = 1\nvalue = 0.39"] ;
1248 -> 1250 ;
1251 [label="X[2] <= 12.793\nmse = 0.009\nsamples = 46\nvalue = 0.31"] ;
1247 -> 1251 ;
1252 [label="X[3] <= 77.633\nmse = 0.009\nsamples = 41\nvalue = 0.304"] ;
1251 -> 1252 ;
1253 [label="X[3] <= 76.4\nmse = 0.009\nsamples = 38\nvalue = 0.31"] ;
1252 -> 1253 ;
1254 [label="X[2] <= 8.3\nmse = 0.009\nsamples = 35\nvalue = 0.302"] ;
1253 -> 1254 ;
1255 [label="X[3] <= 71.487\nmse = 0.022\nsamples = 3\nvalue = 0.38"] ;
1254 -> 1255 ;
1256 [label="X[2] <= 7.875\nmse = 0.0\nsamples = 2\nvalue = 0.276"] ;
1255 -> 1256 ;
1257 [label="mse = 0.0\nsamples = 1\nvalue = 0.266"] ;
1256 -> 1257 ;
1258 [label="mse = -0.0\nsamples = 1\nvalue = 0.286"] ;
1256 -> 1258 ;
1259 [label="mse = 0.0\nsamples = 1\nvalue = 0.587"] ;
1255 -> 1259 ;
1260 [label="X[3] <= 71.494\nmse = 0.007\nsamples = 32\nvalue = 0.295"] ;
1254 -> 1260 ;
1261 [label="X[3] <= 70.95\nmse = 0.009\nsamples = 16\nvalue = 0.319"] ;
1260 -> 1261 ;
1262 [label="X[3] <= 70.471\nmse = 0.007\nsamples = 11\nvalue = 0.287"] ;
1261 -> 1262 ;
1263 [label="X[3] <= 69.163\nmse = 0.007\nsamples = 8\nvalue = 0.313"] ;
1262 -> 1263 ;
1264 [label="mse = 0.0\nsamples = 1\nvalue = 0.209"] ;
1263 -> 1264 ;
1265 [label="X[0] <= 59543.0\nmse = 0.006\nsamples = 7\nvalue = 0.327"] ;
1263 -> 1265 ;
1266 [label="X[1] <= 76.05\nmse = 0.001\nsamples = 2\nvalue = 0.255"] ;
1265 -> 1266 ;
1267 [label="mse = 0.0\nsamples = 1\nvalue = 0.288"] ;
1266 -> 1267 ;
1268 [label="mse = -0.0\nsamples = 1\nvalue = 0.222"] ;
1266 -> 1268 ;
1269 [label="X[3] <= 69.841\nmse = 0.005\nsamples = 5\nvalue = 0.356"] ;
1265 -> 1269 ;
1270 [label="X[3] <= 69.519\nmse = 0.009\nsamples = 2\nvalue = 0.405"] ;
1269 -> 1270 ;
1271 [label="mse = 0.0\nsamples = 1\nvalue = 0.31"] ;
1270 -> 1271 ;
1272 [label="mse = -0.0\nsamples = 1\nvalue = 0.5"] ;
1270 -> 1272 ;
1273 [label="X[2] <= 9.892\nmse = 0.0\nsamples = 3\nvalue = 0.324"] ;
1269 -> 1273 ;
1274 [label="mse = 0.0\nsamples = 1\nvalue = 0.342"] ;
1273 -> 1274 ;
1275 [label="X[0] <= 62078.5\nmse = 0.0\nsamples = 2\nvalue = 0.315"] ;
1273 -> 1275 ;
1276 [label="mse = 0.0\nsamples = 1\nvalue = 0.319"] ;
1275 -> 1276 ;
1277 [label="mse = 0.0\nsamples = 1\nvalue = 0.312"] ;
1275 -> 1277 ;
1278 [label="X[3] <= 70.601\nmse = 0.002\nsamples = 3\nvalue = 0.218"] ;
1262 -> 1278 ;
1279 [label="mse = 0.0\nsamples = 1\nvalue = 0.159"] ;
1278 -> 1279 ;
1280 [label="X[3] <= 70.811\nmse = 0.0\nsamples = 2\nvalue = 0.248"] ;
1278 -> 1280 ;
1281 [label="mse = 0.0\nsamples = 1\nvalue = 0.264"] ;
1280 -> 1281 ;
1282 [label="mse = 0.0\nsamples = 1\nvalue = 0.232"] ;
1280 -> 1282 ;
1283 [label="X[3] <= 71.167\nmse = 0.006\nsamples = 5\nvalue = 0.389"] ;
1261 -> 1283 ;
1284 [label="X[2] <= 11.309\nmse = 0.008\nsamples = 2\nvalue = 0.451"] ;
1283 -> 1284 ;
1285 [label="mse = 0.0\nsamples = 1\nvalue = 0.538"] ;
1284 -> 1285 ;
1286 [label="mse = 0.0\nsamples = 1\nvalue = 0.364"] ;
1284 -> 1286 ;
1287 [label="X[3] <= 71.261\nmse = 0.001\nsamples = 3\nvalue = 0.348"] ;
1283 -> 1287 ;
1288 [label="mse = 0.0\nsamples = 1\nvalue = 0.385"] ;
1287 -> 1288 ;
1289 [label="X[0] <= 58964.0\nmse = 0.0\nsamples = 2\nvalue = 0.329"] ;
1287 -> 1289 ;
1290 [label="mse = 0.0\nsamples = 1\nvalue = 0.339"] ;
1289 -> 1290 ;
1291 [label="mse = 0.0\nsamples = 1\nvalue = 0.32"] ;
1289 -> 1291 ;
1292 [label="X[3] <= 72.697\nmse = 0.004\nsamples = 16\nvalue = 0.27"] ;
1260 -> 1292 ;
1293 [label="X[3] <= 72.667\nmse = 0.0\nsamples = 5\nvalue = 0.213"] ;
1292 -> 1293 ;
1294 [label="X[1] <= 74.85\nmse = 0.0\nsamples = 4\nvalue = 0.216"] ;
1293 -> 1294 ;
1295 [label="mse = 0.0\nsamples = 1\nvalue = 0.225"] ;
1294 -> 1295 ;
1296 [label="X[2] <= 9.845\nmse = 0.0\nsamples = 3\nvalue = 0.213"] ;
1294 -> 1296 ;
1297 [label="mse = 0.0\nsamples = 1\nvalue = 0.216"] ;
1296 -> 1297 ;
1298 [label="X[2] <= 11.321\nmse = 0.0\nsamples = 2\nvalue = 0.211"] ;
1296 -> 1298 ;
1299 [label="mse = 0.0\nsamples = 1\nvalue = 0.211"] ;
1298 -> 1299 ;
1300 [label="mse = -0.0\nsamples = 1\nvalue = 0.212"] ;
1298 -> 1300 ;
1301 [label="mse = 0.0\nsamples = 1\nvalue = 0.2"] ;
1293 -> 1301 ;
1302 [label="X[3] <= 74.176\nmse = 0.003\nsamples = 11\nvalue = 0.297"] ;
1292 -> 1302 ;
1303 [label="X[3] <= 72.972\nmse = 0.003\nsamples = 7\nvalue = 0.322"] ;
1302 -> 1303 ;
1304 [label="X[3] <= 72.717\nmse = 0.001\nsamples = 3\nvalue = 0.277"] ;
1303 -> 1304 ;
1305 [label="mse = 0.0\nsamples = 1\nvalue = 0.325"] ;
1304 -> 1305 ;
1306 [label="X[3] <= 72.836\nmse = 0.0\nsamples = 2\nvalue = 0.252"] ;
1304 -> 1306 ;
1307 [label="mse = 0.0\nsamples = 1\nvalue = 0.262"] ;
1306 -> 1307 ;
1308 [label="mse = -0.0\nsamples = 1\nvalue = 0.242"] ;
1306 -> 1308 ;
1309 [label="X[2] <= 8.827\nmse = 0.002\nsamples = 4\nvalue = 0.356"] ;
1303 -> 1309 ;
1310 [label="mse = 0.0\nsamples = 1\nvalue = 0.422"] ;
1309 -> 1310 ;
