digraph Tree {
node [shape=box] ;
0 [label="Urbanization <= 71.5\nmse = 0.002\nsamples = 468\nvalue = 0.083"] ;
1 [label="GDP <= 51156.0\nmse = 0.001\nsamples = 115\nvalue = 0.064"] ;
0 -> 1 [labeldistance=2.5, labelangle=45, headlabel="True"] ;
2 [label="avg_interval_tmp <= 8.727\nmse = 0.001\nsamples = 61\nvalue = 0.056"] ;
1 -> 2 ;
3 [label="mse = 0.0\nsamples = 7\nvalue = 0.04"] ;
2 -> 3 ;
4 [label="mse = 0.001\nsamples = 54\nvalue = 0.058"] ;
2 -> 4 ;
5 [label="avg_interval_tmp <= 5.366\nmse = 0.001\nsamples = 54\nvalue = 0.074"] ;
1 -> 5 ;
6 [label="mse = 0.0\nsamples = 14\nvalue = 0.053"] ;
5 -> 6 ;
7 [label="mse = 0.001\nsamples = 40\nvalue = 0.081"] ;
5 -> 7 ;
8 [label="avg_interval_tmp <= 5.151\nmse = 0.002\nsamples = 353\nvalue = 0.089"] ;
0 -> 8 [labeldistance=2.5, labelangle=-45, headlabel="False"] ;
9 [label="GDP <= 58572.0\nmse = 0.001\nsamples = 27\nvalue = 0.06"] ;
8 -> 9 ;
10 [label="mse = 0.001\nsamples = 7\nvalue = 0.088"] ;
9 -> 10 ;
11 [label="mse = 0.001\nsamples = 20\nvalue = 0.05"] ;
9 -> 11 ;
12 [label="avg_interval_tmp <= 11.791\nmse = 0.002\nsamples = 326\nvalue = 0.091"] ;
8 -> 12 ;
13 [label="mse = 0.002\nsamples = 198\nvalue = 0.099"] ;
12 -> 13 ;
14 [label="mse = 0.001\nsamples = 128\nvalue = 0.079"] ;
12 -> 14 ;
}