digraph Tree {
node [shape=box] ;
0 [label="avg_interval_RH <= 75.275\nmse = 0.001\nsamples = 23\nvalue = 0.05"] ;
1 [label="avg_interval_RH <= 72.163\nmse = 0.001\nsamples = 18\nvalue = 0.058"] ;
0 -> 1 [labeldistance=2.5, labelangle=45, headlabel="True"] ;
2 [label="mse = 0.001\nsamples = 14\nvalue = 0.051"] ;
1 -> 2 ;
3 [label="mse = 0.0\nsamples = 4\nvalue = 0.082"] ;
1 -> 3 ;
4 [label="mse = 0.0\nsamples = 5\nvalue = 0.023"] ;
0 -> 4 [labeldistance=2.5, labelangle=-45, headlabel="False"] ;
}