digraph Tree {
node [shape=box] ;
0 [label="tmp*rh <= 665.673\nmse = 0.013\nsamples = 115\nvalue = 0.325"] ;
1 [label="GDP <= 62560.0\nmse = 0.013\nsamples = 50\nvalue = 0.367"] ;
0 -> 1 [labeldistance=2.5, labelangle=45, headlabel="True"] ;
2 [label="mse = 0.011\nsamples = 15\nvalue = 0.287"] ;
1 -> 2 ;
3 [label="tmp**2 <= 154.327\nmse = 0.011\nsamples = 35\nvalue = 0.401"] ;
1 -> 3 ;
4 [label="mse = 0.009\nsamples = 34\nvalue = 0.394"] ;
3 -> 4 ;
5 [label="mse = 0.0\nsamples = 1\nvalue = 0.644"] ;
3 -> 5 ;
6 [label="tmp**2 <= 492.553\nmse = 0.01\nsamples = 65\nvalue = 0.293"] ;
0 -> 6 [labeldistance=2.5, labelangle=-45, headlabel="False"] ;
7 [label="mse = 0.011\nsamples = 48\nvalue = 0.274"] ;
6 -> 7 ;
8 [label="mse = 0.004\nsamples = 17\nvalue = 0.347"] ;
6 -> 8 ;
}