digraph Tree {
node [shape=box] ;
0 [label="X[1] <= 70.975\nmse = 0.002\nsamples = 850\nvalue = 0.057"] ;
1 [label="X[2] <= 35.03\nmse = 0.002\nsamples = 289\nvalue = 0.041"] ;
0 -> 1 [labeldistance=2.5, labelangle=45, headlabel="True"] ;
2 [label="X[2] <= 4.206\nmse = 0.002\nsamples = 288\nvalue = 0.041"] ;
1 -> 2 ;
3 [label="X[2] <= 0.597\nmse = 0.001\nsamples = 44\nvalue = 0.024"] ;
2 -> 3 ;
4 [label="X[3] <= 60.478\nmse = 0.001\nsamples = 12\nvalue = 0.044"] ;
3 -> 4 ;
5 [label="X[2] <= -5.363\nmse = 0.001\nsamples = 5\nvalue = 0.018"] ;
4 -> 5 ;
6 [label="mse = 0.0\nsamples = 1\nvalue = 0.054"] ;
5 -> 6 ;
7 [label="X[2] <= -1.04\nmse = 0.0\nsamples = 4\nvalue = 0.009"] ;
5 -> 7 ;
8 [label="mse = 0.0\nsamples = 3\nvalue = 0.0"] ;
7 -> 8 ;
9 [label="mse = 0.0\nsamples = 1\nvalue = 0.037"] ;
7 -> 9 ;
10 [label="X[3] <= 69.849\nmse = 0.0\nsamples = 7\nvalue = 0.063"] ;
4 -> 10 ;
11 [label="X[3] <= 61.914\nmse = 0.0\nsamples = 5\nvalue = 0.056"] ;
10 -> 11 ;
12 [label="mse = 0.0\nsamples = 1\nvalue = 0.049"] ;
11 -> 12 ;
13 [label="X[2] <= -3.158\nmse = 0.0\nsamples = 4\nvalue = 0.057"] ;
11 -> 13 ;
14 [label="mse = 0.0\nsamples = 1\nvalue = 0.061"] ;
13 -> 14 ;
15 [label="X[0] <= 58013.5\nmse = 0.0\nsamples = 3\nvalue = 0.056"] ;
13 -> 15 ;
16 [label="mse = 0.0\nsamples = 2\nvalue = 0.057"] ;
15 -> 16 ;
17 [label="mse = 0.0\nsamples = 1\nvalue = 0.056"] ;
15 -> 17 ;
18 [label="X[3] <= 76.656\nmse = 0.0\nsamples = 2\nvalue = 0.079"] ;
10 -> 18 ;
19 [label="mse = 0.0\nsamples = 1\nvalue = 0.088"] ;
18 -> 19 ;
20 [label="mse = 0.0\nsamples = 1\nvalue = 0.07"] ;
18 -> 20 ;
21 [label="X[0] <= 30645.309\nmse = 0.001\nsamples = 32\nvalue = 0.016"] ;
3 -> 21 ;
22 [label="X[2] <= 3.015\nmse = 0.001\nsamples = 3\nvalue = 0.052"] ;
21 -> 22 ;
23 [label="X[1] <= 62.466\nmse = 0.0\nsamples = 2\nvalue = 0.068"] ;
22 -> 23 ;
24 [label="mse = 0.0\nsamples = 1\nvalue = 0.057"] ;
23 -> 24 ;
25 [label="mse = 0.0\nsamples = 1\nvalue = 0.08"] ;
23 -> 25 ;
26 [label="mse = 0.0\nsamples = 1\nvalue = 0.02"] ;
22 -> 26 ;
27 [label="X[3] <= 81.832\nmse = 0.0\nsamples = 29\nvalue = 0.012"] ;
21 -> 27 ;
28 [label="X[0] <= 55621.5\nmse = 0.0\nsamples = 27\nvalue = 0.01"] ;
27 -> 28 ;
29 [label="X[2] <= 3.628\nmse = 0.001\nsamples = 15\nvalue = 0.016"] ;
28 -> 29 ;
30 [label="X[3] <= 70.621\nmse = 0.0\nsamples = 12\nvalue = 0.011"] ;
29 -> 30 ;
31 [label="X[3] <= 69.48\nmse = 0.001\nsamples = 7\nvalue = 0.019"] ;
30 -> 31 ;
32 [label="X[3] <= 64.433\nmse = 0.0\nsamples = 6\nvalue = 0.011"] ;
31 -> 32 ;
33 [label="X[2] <= 2.416\nmse = 0.0\nsamples = 3\nvalue = 0.021"] ;
32 -> 33 ;
34 [label="X[3] <= 63.328\nmse = 0.0\nsamples = 2\nvalue = 0.032"] ;
33 -> 34 ;
35 [label="mse = 0.0\nsamples = 1\nvalue = 0.03"] ;
34 -> 35 ;
36 [label="mse = 0.0\nsamples = 1\nvalue = 0.034"] ;
34 -> 36 ;
37 [label="mse = 0.0\nsamples = 1\nvalue = 0.0"] ;
33 -> 37 ;
38 [label="mse = 0.0\nsamples = 3\nvalue = 0.0"] ;
32 -> 38 ;
39 [label="mse = 0.0\nsamples = 1\nvalue = 0.068"] ;
31 -> 39 ;
40 [label="mse = 0.0\nsamples = 5\nvalue = 0.0"] ;
30 -> 40 ;
41 [label="X[1] <= 54.65\nmse = 0.001\nsamples = 3\nvalue = 0.034"] ;
29 -> 41 ;
42 [label="mse = 0.0\nsamples = 1\nvalue = 0.068"] ;
41 -> 42 ;
43 [label="X[3] <= 68.972\nmse = 0.0\nsamples = 2\nvalue = 0.018"] ;
41 -> 43 ;
44 [label="mse = 0.0\nsamples = 1\nvalue = 0.023"] ;
43 -> 44 ;
45 [label="mse = 0.0\nsamples = 1\nvalue = 0.012"] ;
43 -> 45 ;
46 [label="X[3] <= 58.145\nmse = 0.0\nsamples = 12\nvalue = 0.002"] ;
28 -> 46 ;
47 [label="mse = 0.0\nsamples = 1\nvalue = 0.024"] ;
46 -> 47 ;
48 [label="mse = 0.0\nsamples = 11\nvalue = 0.0"] ;
46 -> 48 ;
49 [label="X[3] <= 83.858\nmse = 0.0\nsamples = 2\nvalue = 0.047"] ;
27 -> 49 ;
50 [label="mse = 0.0\nsamples = 1\nvalue = 0.04"] ;
49 -> 50 ;
51 [label="mse = 0.0\nsamples = 1\nvalue = 0.054"] ;
49 -> 51 ;
52 [label="X[3] <= 61.839\nmse = 0.002\nsamples = 244\nvalue = 0.044"] ;
2 -> 52 ;
53 [label="X[2] <= 13.182\nmse = 0.002\nsamples = 33\nvalue = 0.064"] ;
52 -> 53 ;
54 [label="X[1] <= 45.437\nmse = 0.001\nsamples = 12\nvalue = 0.084"] ;
53 -> 54 ;
55 [label="mse = 0.0\nsamples = 1\nvalue = 0.143"] ;
54 -> 55 ;
56 [label="X[1] <= 61.603\nmse = 0.0\nsamples = 11\nvalue = 0.078"] ;
54 -> 56 ;
57 [label="X[2] <= 4.584\nmse = 0.0\nsamples = 8\nvalue = 0.085"] ;
56 -> 57 ;
58 [label="mse = 0.0\nsamples = 1\nvalue = 0.105"] ;
57 -> 58 ;
59 [label="X[3] <= 57.169\nmse = 0.0\nsamples = 7\nvalue = 0.082"] ;
57 -> 59 ;
60 [label="X[3] <= 48.927\nmse = 0.0\nsamples = 3\nvalue = 0.071"] ;
59 -> 60 ;
61 [label="X[1] <= 57.188\nmse = 0.0\nsamples = 2\nvalue = 0.077"] ;
60 -> 61 ;
62 [label="mse = 0.0\nsamples = 1\nvalue = 0.072"] ;
61 -> 62 ;
63 [label="mse = -0.0\nsamples = 1\nvalue = 0.082"] ;
61 -> 63 ;
64 [label="mse = -0.0\nsamples = 1\nvalue = 0.06"] ;
60 -> 64 ;
65 [label="X[0] <= 6074.696\nmse = 0.0\nsamples = 4\nvalue = 0.089"] ;
59 -> 65 ;
66 [label="mse = 0.0\nsamples = 1\nvalue = 0.079"] ;
65 -> 66 ;
67 [label="X[3] <= 60.917\nmse = 0.0\nsamples = 3\nvalue = 0.093"] ;
65 -> 67 ;
68 [label="X[2] <= 9.259\nmse = 0.0\nsamples = 2\nvalue = 0.095"] ;
67 -> 68 ;
69 [label="mse = 0.0\nsamples = 1\nvalue = 0.096"] ;
68 -> 69 ;
70 [label="mse = -0.0\nsamples = 1\nvalue = 0.094"] ;
68 -> 70 ;
71 [label="mse = 0.0\nsamples = 1\nvalue = 0.088"] ;
67 -> 71 ;
72 [label="X[2] <= 8.42\nmse = 0.0\nsamples = 3\nvalue = 0.061"] ;
56 -> 72 ;
73 [label="mse = 0.0\nsamples = 1\nvalue = 0.05"] ;
72 -> 73 ;
74 [label="X[3] <= 58.23\nmse = 0.0\nsamples = 2\nvalue = 0.067"] ;
72 -> 74 ;
75 [label="mse = 0.0\nsamples = 1\nvalue = 0.068"] ;
74 -> 75 ;
76 [label="mse = -0.0\nsamples = 1\nvalue = 0.066"] ;
74 -> 76 ;
77 [label="X[1] <= 66.2\nmse = 0.002\nsamples = 21\nvalue = 0.053"] ;
53 -> 77 ;
78 [label="X[3] <= 61.052\nmse = 0.001\nsamples = 19\nvalue = 0.046"] ;
77 -> 78 ;
79 [label="X[0] <= 2264.148\nmse = 0.001\nsamples = 17\nvalue = 0.041"] ;
78 -> 79 ;
80 [label="X[0] <= 828.285\nmse = 0.001\nsamples = 8\nvalue = 0.057"] ;
79 -> 80 ;
81 [label="X[2] <= 33.361\nmse = 0.001\nsamples = 3\nvalue = 0.027"] ;
80 -> 81 ;
82 [label="X[3] <= 49.452\nmse = 0.0\nsamples = 2\nvalue = 0.012"] ;
81 -> 82 ;
83 [label="mse = 0.0\nsamples = 1\nvalue = 0.0"] ;
82 -> 83 ;
84 [label="mse = 0.0\nsamples = 1\nvalue = 0.025"] ;
82 -> 84 ;
85 [label="mse = 0.0\nsamples = 1\nvalue = 0.055"] ;
81 -> 85 ;
86 [label="X[0] <= 1615.317\nmse = 0.0\nsamples = 5\nvalue = 0.075"] ;
80 -> 86 ;
87 [label="X[1] <= 46.417\nmse = 0.0\nsamples = 3\nvalue = 0.088"] ;
86 -> 87 ;
88 [label="X[2] <= 33.427\nmse = 0.0\nsamples = 2\nvalue = 0.083"] ;
87 -> 88 ;
89 [label="mse = 0.0\nsamples = 1\nvalue = 0.083"] ;
88 -> 89 ;
90 [label="mse = 0.0\nsamples = 1\nvalue = 0.082"] ;
88 -> 90 ;
91 [label="mse = -0.0\nsamples = 1\nvalue = 0.097"] ;
87 -> 91 ;
92 [label="X[2] <= 28.413\nmse = 0.0\nsamples = 2\nvalue = 0.057"] ;
86 -> 92 ;
93 [label="mse = 0.0\nsamples = 1\nvalue = 0.045"] ;
92 -> 93 ;
94 [label="mse = 0.0\nsamples = 1\nvalue = 0.07"] ;
92 -> 94 ;
95 [label="X[3] <= 55.987\nmse = 0.001\nsamples = 9\nvalue = 0.026"] ;
79 -> 95 ;
96 [label="X[2] <= 14.756\nmse = 0.001\nsamples = 2\nvalue = 0.06"] ;
95 -> 96 ;
97 [label="mse = 0.0\nsamples = 1\nvalue = 0.093"] ;
96 -> 97 ;
98 [label="mse = -0.0\nsamples = 1\nvalue = 0.028"] ;
96 -> 98 ;
99 [label="X[2] <= 16.248\nmse = 0.001\nsamples = 7\nvalue = 0.016"] ;
95 -> 99 ;
100 [label="X[2] <= 14.726\nmse = 0.0\nsamples = 4\nvalue = 0.004"] ;
99 -> 100 ;
101 [label="X[1] <= 62.25\nmse = 0.0\nsamples = 2\nvalue = 0.008"] ;
100 -> 101 ;
102 [label="mse = 0.0\nsamples = 1\nvalue = 0.0"] ;
101 -> 102 ;
103 [label="mse = 0.0\nsamples = 1\nvalue = 0.015"] ;
101 -> 103 ;
104 [label="mse = 0.0\nsamples = 2\nvalue = 0.0"] ;
100 -> 104 ;
105 [label="X[2] <= 16.676\nmse = 0.001\nsamples = 3\nvalue = 0.033"] ;
99 -> 105 ;
106 [label="mse = 0.0\nsamples = 1\nvalue = 0.08"] ;
105 -> 106 ;
107 [label="X[0] <= 23859.557\nmse = 0.0\nsamples = 2\nvalue = 0.01"] ;
105 -> 107 ;
108 [label="mse = 0.0\nsamples = 1\nvalue = 0.019"] ;
107 -> 108 ;
109 [label="mse = 0.0\nsamples = 1\nvalue = 0.0"] ;
107 -> 109 ;
110 [label="X[3] <= 61.486\nmse = 0.0\nsamples = 2\nvalue = 0.086"] ;
78 -> 110 ;
111 [label="mse = 0.0\nsamples = 1\nvalue = 0.096"] ;
110 -> 111 ;
112 [label="mse = -0.0\nsamples = 1\nvalue = 0.076"] ;
110 -> 112 ;
113 [label="X[3] <= 59.791\nmse = 0.003\nsamples = 2\nvalue = 0.126"] ;
77 -> 113 ;
114 [label="mse = 0.0\nsamples = 1\nvalue = 0.178"] ;
113 -> 114 ;
115 [label="mse = -0.0\nsamples = 1\nvalue = 0.074"] ;
113 -> 115 ;
116 [label="X[0] <= 58172.0\nmse = 0.002\nsamples = 211\nvalue = 0.041"] ;
52 -> 116 ;
117 [label="X[1] <= 66.15\nmse = 0.001\nsamples = 199\nvalue = 0.039"] ;
116 -> 117 ;
118 [label="X[0] <= 46058.5\nmse = 0.001\nsamples = 127\nvalue = 0.032"] ;
117 -> 118 ;
119 [label="X[0] <= 1166.019\nmse = 0.001\nsamples = 92\nvalue = 0.039"] ;
118 -> 119 ;
120 [label="X[0] <= 602.277\nmse = 0.0\nsamples = 9\nvalue = 0.016"] ;
119 -> 120 ;
121 [label="X[2] <= 28.407\nmse = 0.001\nsamples = 3\nvalue = 0.031"] ;
120 -> 121 ;
122 [label="X[1] <= 40.826\nmse = 0.0\nsamples = 2\nvalue = 0.046"] ;
121 -> 122 ;
123 [label="mse = 0.0\nsamples = 1\nvalue = 0.033"] ;
122 -> 123 ;
124 [label="mse = 0.0\nsamples = 1\nvalue = 0.058"] ;
122 -> 124 ;
125 [label="mse = 0.0\nsamples = 1\nvalue = 0.0"] ;
121 -> 125 ;
126 [label="X[1] <= 18.987\nmse = 0.0\nsamples = 6\nvalue = 0.008"] ;
120 -> 126 ;
127 [label="mse = 0.0\nsamples = 1\nvalue = 0.025"] ;
126 -> 127 ;
128 [label="X[3] <= 71.726\nmse = 0.0\nsamples = 5\nvalue = 0.005"] ;
126 -> 128 ;
129 [label="X[0] <= 790.4\nmse = 0.0\nsamples = 2\nvalue = 0.013"] ;
128 -> 129 ;
130 [label="mse = 0.0\nsamples = 1\nvalue = 0.025"] ;
129 -> 130 ;
131 [label="mse = 0.0\nsamples = 1\nvalue = 0.0"] ;
129 -> 131 ;
132 [label="mse = 0.0\nsamples = 3\nvalue = 0.0"] ;
128 -> 132 ;
133 [label="X[0] <= 4850.09\nmse = 0.001\nsamples = 83\nvalue = 0.041"] ;
119 -> 133 ;
134 [label="X[3] <= 84.07\nmse = 0.001\nsamples = 13\nvalue = 0.06"] ;
133 -> 134 ;
135 [label="X[1] <= 31.474\nmse = 0.001\nsamples = 11\nvalue = 0.052"] ;
134 -> 135 ;
136 [label="mse = 0.0\nsamples = 1\nvalue = 0.105"] ;
135 -> 136 ;
137 [label="X[1] <= 36.135\nmse = 0.001\nsamples = 10\nvalue = 0.047"] ;
135 -> 137 ;
138 [label="mse = 0.0\nsamples = 1\nvalue = 0.0"] ;
137 -> 138 ;
139 [label="X[0] <= 1536.821\nmse = 0.001\nsamples = 9\nvalue = 0.052"] ;
137 -> 139 ;
140 [label="X[3] <= 66.651\nmse = 0.0\nsamples = 3\nvalue = 0.067"] ;
139 -> 140 ;
141 [label="mse = 0.0\nsamples = 1\nvalue = 0.039"] ;
140 -> 141 ;
142 [label="X[0] <= 1508.073\nmse = 0.0\nsamples = 2\nvalue = 0.08"] ;
140 -> 142 ;
143 [label="mse = 0.0\nsamples = 1\nvalue = 0.09"] ;
142 -> 143 ;
144 [label="mse = -0.0\nsamples = 1\nvalue = 0.071"] ;
142 -> 144 ;
145 [label="X[1] <= 45.214\nmse = 0.001\nsamples = 6\nvalue = 0.045"] ;
139 -> 145 ;
146 [label="mse = 0.0\nsamples = 1\nvalue = 0.0"] ;
145 -> 146 ;
147 [label="X[3] <= 64.425\nmse = 0.0\nsamples = 5\nvalue = 0.054"] ;
145 -> 147 ;
148 [label="mse = 0.0\nsamples = 1\nvalue = 0.08"] ;
147 -> 148 ;
149 [label="X[2] <= 28.713\nmse = 0.0\nsamples = 4\nvalue = 0.048"] ;
147 -> 149 ;
150 [label="X[3] <= 73.946\nmse = 0.0\nsamples = 3\nvalue = 0.053"] ;
149 -> 150 ;
151 [label="X[1] <= 54.843\nmse = 0.0\nsamples = 2\nvalue = 0.049"] ;
150 -> 151 ;
152 [label="mse = 0.0\nsamples = 1\nvalue = 0.051"] ;
151 -> 152 ;
153 [label="mse = 0.0\nsamples = 1\nvalue = 0.048"] ;
151 -> 153 ;
154 [label="mse = -0.0\nsamples = 1\nvalue = 0.059"] ;
150 -> 154 ;
155 [label="mse = -0.0\nsamples = 1\nvalue = 0.034"] ;
149 -> 155 ;
156 [label="X[3] <= 84.713\nmse = 0.0\nsamples = 2\nvalue = 0.102"] ;
134 -> 156 ;
157 [label="mse = 0.0\nsamples = 1\nvalue = 0.106"] ;
156 -> 157 ;
158 [label="mse = 0.0\nsamples = 1\nvalue = 0.098"] ;
156 -> 158 ;
159 [label="X[3] <= 77.195\nmse = 0.001\nsamples = 70\nvalue = 0.038"] ;
133 -> 159 ;
160 [label="X[3] <= 76.929\nmse = 0.001\nsamples = 52\nvalue = 0.043"] ;
159 -> 160 ;
161 [label="X[3] <= 76.608\nmse = 0.001\nsamples = 50\nvalue = 0.04"] ;
160 -> 161 ;
162 [label="X[2] <= 16.907\nmse = 0.001\nsamples = 48\nvalue = 0.042"] ;
161 -> 162 ;
163 [label="X[3] <= 72.831\nmse = 0.001\nsamples = 21\nvalue = 0.034"] ;
162 -> 163 ;
164 [label="X[2] <= 14.509\nmse = 0.001\nsamples = 11\nvalue = 0.017"] ;
163 -> 164 ;
165 [label="X[2] <= 12.686\nmse = 0.001\nsamples = 6\nvalue = 0.028"] ;
164 -> 165 ;
166 [label="X[0] <= 25316.0\nmse = 0.0\nsamples = 5\nvalue = 0.019"] ;
165 -> 166 ;
167 [label="X[1] <= 50.475\nmse = 0.0\nsamples = 3\nvalue = 0.032"] ;
166 -> 167 ;
168 [label="mse = 0.0\nsamples = 2\nvalue = 0.032"] ;
167 -> 168 ;
169 [label="mse = 0.0\nsamples = 1\nvalue = 0.031"] ;
167 -> 169 ;
170 [label="mse = 0.0\nsamples = 2\nvalue = 0.0"] ;
166 -> 170 ;
171 [label="mse = -0.0\nsamples = 1\nvalue = 0.076"] ;
165 -> 171 ;
172 [label="X[3] <= 71.258\nmse = 0.0\nsamples = 5\nvalue = 0.003"] ;
164 -> 172 ;
173 [label="mse = 0.0\nsamples = 4\nvalue = 0.0"] ;
172 -> 173 ;
174 [label="mse = 0.0\nsamples = 1\nvalue = 0.014"] ;
172 -> 174 ;
175 [label="X[2] <= 15.837\nmse = 0.001\nsamples = 10\nvalue = 0.053"] ;
163 -> 175 ;
176 [label="X[1] <= 56.146\nmse = 0.001\nsamples = 6\nvalue = 0.07"] ;
175 -> 176 ;
177 [label="X[3] <= 73.607\nmse = 0.0\nsamples = 3\nvalue = 0.098"] ;
176 -> 177 ;
178 [label="mse = 0.0\nsamples = 1\nvalue = 0.067"] ;
177 -> 178 ;
179 [label="X[2] <= 8.59\nmse = 0.0\nsamples = 2\nvalue = 0.113"] ;
177 -> 179 ;
180 [label="mse = 0.0\nsamples = 1\nvalue = 0.117"] ;
179 -> 180 ;
181 [label="mse = 0.0\nsamples = 1\nvalue = 0.109"] ;
179 -> 181 ;
182 [label="X[0] <= 43836.5\nmse = 0.0\nsamples = 3\nvalue = 0.043"] ;
176 -> 182 ;
183 [label="X[1] <= 57.75\nmse = 0.0\nsamples = 2\nvalue = 0.034"] ;
182 -> 183 ;
184 [label="mse = 0.0\nsamples = 1\nvalue = 0.042"] ;
183 -> 184 ;
185 [label="mse = -0.0\nsamples = 1\nvalue = 0.025"] ;
183 -> 185 ;
186 [label="mse = 0.0\nsamples = 1\nvalue = 0.062"] ;
182 -> 186 ;
187 [label="X[1] <= 52.8\nmse = 0.0\nsamples = 4\nvalue = 0.026"] ;
175 -> 187 ;
188 [label="mse = 0.0\nsamples = 1\nvalue = 0.0"] ;
187 -> 188 ;
189 [label="X[2] <= 16.006\nmse = 0.0\nsamples = 3\nvalue = 0.035"] ;
187 -> 189 ;
190 [label="mse = 0.0\nsamples = 1\nvalue = 0.025"] ;
189 -> 190 ;
191 [label="mse = 0.0\nsamples = 2\nvalue = 0.04"] ;
189 -> 191 ;
192 [label="X[1] <= 58.52\nmse = 0.001\nsamples = 27\nvalue = 0.048"] ;
162 -> 192 ;
193 [label="X[3] <= 75.544\nmse = 0.001\nsamples = 17\nvalue = 0.039"] ;
192 -> 193 ;
194 [label="X[3] <= 73.719\nmse = 0.001\nsamples = 14\nvalue = 0.033"] ;
193 -> 194 ;
195 [label="X[1] <= 51.566\nmse = 0.001\nsamples = 12\nvalue = 0.038"] ;
194 -> 195 ;
196 [label="X[3] <= 69.207\nmse = 0.001\nsamples = 9\nvalue = 0.045"] ;
195 -> 196 ;
197 [label="X[0] <= 22610.781\nmse = 0.0\nsamples = 2\nvalue = 0.077"] ;
196 -> 197 ;
198 [label="mse = 0.0\nsamples = 1\nvalue = 0.069"] ;
197 -> 198 ;
199 [label="mse = -0.0\nsamples = 1\nvalue = 0.084"] ;
197 -> 199 ;
200 [label="X[2] <= 19.414\nmse = 0.0\nsamples = 7\nvalue = 0.036"] ;
196 -> 200 ;
201 [label="X[2] <= 18.481\nmse = 0.0\nsamples = 2\nvalue = 0.021"] ;
200 -> 201 ;
202 [label="mse = 0.0\nsamples = 1\nvalue = 0.042"] ;
201 -> 202 ;
203 [label="mse = 0.0\nsamples = 1\nvalue = 0.0"] ;
201 -> 203 ;
204 [label="X[3] <= 70.209\nmse = 0.0\nsamples = 5\nvalue = 0.043"] ;
200 -> 204 ;
205 [label="mse = 0.0\nsamples = 1\nvalue = 0.015"] ;
204 -> 205 ;
206 [label="X[3] <= 71.318\nmse = 0.0\nsamples = 4\nvalue = 0.05"] ;
204 -> 206 ;
207 [label="mse = 0.0\nsamples = 1\nvalue = 0.042"] ;
206 -> 207 ;
208 [label="X[3] <= 72.293\nmse = 0.0\nsamples = 3\nvalue = 0.052"] ;
206 -> 208 ;
209 [label="mse = 0.0\nsamples = 1\nvalue = 0.061"] ;
208 -> 209 ;
210 [label="X[2] <= 21.253\nmse = 0.0\nsamples = 2\nvalue = 0.048"] ;
208 -> 210 ;
211 [label="mse = 0.0\nsamples = 1\nvalue = 0.05"] ;
210 -> 211 ;
212 [label="mse = 0.0\nsamples = 1\nvalue = 0.046"] ;
210 -> 212 ;
213 [label="X[0] <= 6602.618\nmse = 0.0\nsamples = 3\nvalue = 0.017"] ;
195 -> 213 ;
214 [label="mse = 0.0\nsamples = 1\nvalue = 0.0"] ;
213 -> 214 ;
215 [label="X[2] <= 24.673\nmse = 0.0\nsamples = 2\nvalue = 0.026"] ;
213 -> 215 ;
216 [label="mse = 0.0\nsamples = 1\nvalue = 0.025"] ;
215 -> 216 ;
217 [label="mse = 0.0\nsamples = 1\nvalue = 0.027"] ;
215 -> 217 ;
218 [label="mse = -0.0\nsamples = 2\nvalue = 0.0"] ;
194 -> 218 ;
219 [label="X[2] <= 18.556\nmse = 0.0\nsamples = 3\nvalue = 0.067"] ;
193 -> 219 ;
220 [label="mse = 0.0\nsamples = 1\nvalue = 0.053"] ;
219 -> 220 ;
221 [label="X[2] <= 19.887\nmse = 0.0\nsamples = 2\nvalue = 0.075"] ;
219 -> 221 ;
222 [label="mse = 0.0\nsamples = 1\nvalue = 0.083"] ;
221 -> 222 ;
223 [label="mse = 0.0\nsamples = 1\nvalue = 0.067"] ;
221 -> 223 ;
224 [label="X[3] <= 71.368\nmse = 0.001\nsamples = 10\nvalue = 0.065"] ;
192 -> 224 ;
225 [label="X[3] <= 64.846\nmse = 0.001\nsamples = 7\nvalue = 0.057"] ;
224 -> 225 ;
226 [label="mse = 0.0\nsamples = 1\nvalue = 0.085"] ;
225 -> 226 ;
227 [label="X[3] <= 66.154\nmse = 0.0\nsamples = 6\nvalue = 0.052"] ;
225 -> 227 ;
228 [label="mse = 0.0\nsamples = 1\nvalue = 0.013"] ;
227 -> 228 ;
229 [label="X[3] <= 67.536\nmse = 0.0\nsamples = 5\nvalue = 0.06"] ;
227 -> 229 ;
230 [label="X[2] <= 19.557\nmse = 0.0\nsamples = 3\nvalue = 0.07"] ;
229 -> 230 ;
231 [label="X[2] <= 17.943\nmse = 0.0\nsamples = 2\nvalue = 0.077"] ;
230 -> 231 ;
232 [label="mse = 0.0\nsamples = 1\nvalue = 0.078"] ;
231 -> 232 ;
233 [label="mse = 0.0\nsamples = 1\nvalue = 0.075"] ;
231 -> 233 ;
234 [label="mse = 0.0\nsamples = 1\nvalue = 0.057"] ;
230 -> 234 ;
235 [label="X[2] <= 18.714\nmse = 0.0\nsamples = 2\nvalue = 0.045"] ;
229 -> 235 ;
236 [label="mse = 0.0\nsamples = 1\nvalue = 0.044"] ;
235 -> 236 ;
237 [label="mse = 0.0\nsamples = 1\nvalue = 0.047"] ;
235 -> 237 ;
238 [label="X[0] <= 25781.936\nmse = 0.0\nsamples = 3\nvalue = 0.083"] ;
224 -> 238 ;
239 [label="mse = 0.0\nsamples = 1\nvalue = 0.055"] ;
238 -> 239 ;
240 [label="X[2] <= 19.454\nmse = 0.0\nsamples = 2\nvalue = 0.097"] ;
238 -> 240 ;
241 [label="mse = 0.0\nsamples = 1\nvalue = 0.087"] ;
240 -> 241 ;
242 [label="mse = 0.0\nsamples = 1\nvalue = 0.107"] ;
240 -> 242 ;
243 [label="mse = 0.0\nsamples = 2\nvalue = 0.0"] ;
161 -> 243 ;
244 [label="X[1] <= 52.8\nmse = 0.0\nsamples = 2\nvalue = 0.095"] ;
160 -> 244 ;
245 [label="mse = 0.0\nsamples = 1\nvalue = 0.094"] ;
244 -> 245 ;
246 [label="mse = 0.0\nsamples = 1\nvalue = 0.097"] ;
244 -> 246 ;
247 [label="X[1] <= 62.105\nmse = 0.001\nsamples = 18\nvalue = 0.025"] ;
159 -> 247 ;
248 [label="X[3] <= 84.85\nmse = 0.0\nsamples = 17\nvalue = 0.021"] ;
247 -> 248 ;
249 [label="X[3] <= 80.009\nmse = 0.0\nsamples = 15\nvalue = 0.024"] ;
248 -> 249 ;
250 [label="X[3] <= 79.292\nmse = 0.0\nsamples = 6\nvalue = 0.012"] ;
249 -> 250 ;
251 [label="X[2] <= 18.003\nmse = 0.0\nsamples = 3\nvalue = 0.025"] ;
250 -> 251 ;
252 [label="X[2] <= 16.087\nmse = 0.0\nsamples = 2\nvalue = 0.037"] ;
251 -> 252 ;
253 [label="mse = 0.0\nsamples = 1\nvalue = 0.048"] ;
252 -> 253 ;
254 [label="mse = 0.0\nsamples = 1\nvalue = 0.026"] ;
252 -> 254 ;
255 [label="mse = 0.0\nsamples = 1\nvalue = 0.0"] ;
251 -> 255 ;
256 [label="mse = 0.0\nsamples = 3\nvalue = 0.0"] ;
250 -> 256 ;
257 [label="X[3] <= 80.337\nmse = 0.0\nsamples = 9\nvalue = 0.031"] ;
249 -> 257 ;
258 [label="mse = 0.0\nsamples = 1\nvalue = 0.048"] ;
257 -> 258 ;
259 [label="X[1] <= 55.41\nmse = 0.0\nsamples = 8\nvalue = 0.029"] ;
257 -> 259 ;
260 [label="X[3] <= 83.11\nmse = 0.0\nsamples = 6\nvalue = 0.034"] ;
259 -> 260 ;
261 [label="X[1] <= 47.615\nmse = 0.0\nsamples = 4\nvalue = 0.031"] ;
260 -> 261 ;
262 [label="mse = 0.0\nsamples = 1\nvalue = 0.033"] ;
261 -> 262 ;
263 [label="X[2] <= 15.86\nmse = 0.001\nsamples = 3\nvalue = 0.03"] ;
261 -> 263 ;
264 [label="mse = 0.0\nsamples = 1\nvalue = 0.03"] ;
263 -> 264 ;
265 [label="mse = 0.001\nsamples = 2\nvalue = 0.029"] ;
263 -> 265 ;
266 [label="X[0] <= 22974.5\nmse = 0.0\nsamples = 2\nvalue = 0.042"] ;
260 -> 266 ;
267 [label="mse = 0.0\nsamples = 1\nvalue = 0.04"] ;
266 -> 267 ;
268 [label="mse = 0.0\nsamples = 1\nvalue = 0.044"] ;
266 -> 268 ;
269 [label="X[3] <= 81.651\nmse = 0.0\nsamples = 2\nvalue = 0.013"] ;
259 -> 269 ;
270 [label="mse = 0.0\nsamples = 1\nvalue = 0.0"] ;
269 -> 270 ;
271 [label="mse = 0.0\nsamples = 1\nvalue = 0.026"] ;
269 -> 271 ;
272 [label="mse = 0.0\nsamples = 2\nvalue = 0.0"] ;
248 -> 272 ;
273 [label="mse = 0.0\nsamples = 1\nvalue = 0.089"] ;
247 -> 273 ;
274 [label="X[3] <= 68.925\nmse = 0.001\nsamples = 35\nvalue = 0.015"] ;
118 -> 274 ;
275 [label="X[2] <= 15.971\nmse = 0.001\nsamples = 21\nvalue = 0.025"] ;
274 -> 275 ;
276 [label="X[2] <= 4.256\nmse = 0.001\nsamples = 19\nvalue = 0.02"] ;
275 -> 276 ;
277 [label="mse = 0.0\nsamples = 1\nvalue = 0.08"] ;
276 -> 277 ;
278 [label="X[3] <= 68.807\nmse = 0.001\nsamples = 18\nvalue = 0.017"] ;
276 -> 278 ;
279 [label="X[3] <= 64.271\nmse = 0.0\nsamples = 17\nvalue = 0.013"] ;
278 -> 279 ;
280 [label="mse = 0.0\nsamples = 6\nvalue = 0.0"] ;
279 -> 280 ;
281 [label="X[0] <= 47433.5\nmse = 0.001\nsamples = 11\nvalue = 0.02"] ;
279 -> 281 ;
282 [label="mse = 0.0\nsamples = 3\nvalue = 0.0"] ;
281 -> 282 ;
283 [label="X[2] <= 14.926\nmse = 0.001\nsamples = 8\nvalue = 0.028"] ;
281 -> 283 ;
284 [label="X[2] <= 13.952\nmse = 0.0\nsamples = 6\nvalue = 0.038"] ;
283 -> 284 ;
285 [label="X[1] <= 38.8\nmse = 0.0\nsamples = 3\nvalue = 0.019"] ;
284 -> 285 ;
286 [label="mse = 0.0\nsamples = 1\nvalue = 0.041"] ;
285 -> 286 ;
287 [label="X[1] <= 52.5\nmse = 0.0\nsamples = 2\nvalue = 0.008"] ;
285 -> 287 ;
288 [label="mse = 0.0\nsamples = 1\nvalue = 0.017"] ;
287 -> 288 ;
289 [label="mse = 0.0\nsamples = 1\nvalue = 0.0"] ;
287 -> 289 ;
290 [label="X[2] <= 14.793\nmse = 0.0\nsamples = 3\nvalue = 0.056"] ;
284 -> 290 ;
291 [label="X[3] <= 64.954\nmse = 0.0\nsamples = 2\nvalue = 0.052"] ;
290 -> 291 ;
292 [label="mse = 0.0\nsamples = 1\nvalue = 0.048"] ;
291 -> 292 ;
293 [label="mse = -0.0\nsamples = 1\nvalue = 0.055"] ;
291 -> 293 ;
294 [label="mse = 0.0\nsamples = 1\nvalue = 0.064"] ;
290 -> 294 ;
295 [label="mse = 0.0\nsamples = 2\nvalue = 0.0"] ;
283 -> 295 ;
296 [label="mse = 0.0\nsamples = 1\nvalue = 0.074"] ;
278 -> 296 ;
297 [label="X[2] <= 16.329\nmse = 0.0\nsamples = 2\nvalue = 0.075"] ;
275 -> 297 ;
298 [label="mse = 0.0\nsamples = 1\nvalue = 0.081"] ;
297 -> 298 ;
299 [label="mse = 0.0\nsamples = 1\nvalue = 0.069"] ;
297 -> 299 ;
300 [label="mse = 0.0\nsamples = 14\nvalue = 0.0"] ;
274 -> 300 ;
301 [label="X[3] <= 69.3\nmse = 0.002\nsamples = 72\nvalue = 0.05"] ;
117 -> 301 ;
302 [label="X[3] <= 69.22\nmse = 0.002\nsamples = 25\nvalue = 0.062"] ;
301 -> 302 ;
303 [label="X[2] <= 12.335\nmse = 0.001\nsamples = 23\nvalue = 0.058"] ;
302 -> 303 ;
304 [label="X[2] <= 11.112\nmse = 0.002\nsamples = 4\nvalue = 0.089"] ;
303 -> 304 ;
305 [label="X[3] <= 66.028\nmse = 0.001\nsamples = 2\nvalue = 0.055"] ;
304 -> 305 ;
306 [label="mse = 0.0\nsamples = 1\nvalue = 0.03"] ;
305 -> 306 ;
307 [label="mse = 0.0\nsamples = 1\nvalue = 0.079"] ;
305 -> 307 ;
308 [label="X[2] <= 12.0\nmse = 0.001\nsamples = 2\nvalue = 0.123"] ;
304 -> 308 ;
309 [label="mse = 0.0\nsamples = 1\nvalue = 0.099"] ;
308 -> 309 ;
310 [label="mse = -0.0\nsamples = 1\nvalue = 0.146"] ;
308 -> 310 ;
311 [label="X[2] <= 13.81\nmse = 0.001\nsamples = 19\nvalue = 0.051"] ;
303 -> 311 ;
312 [label="X[2] <= 12.552\nmse = 0.001\nsamples = 3\nvalue = 0.017"] ;
311 -> 312 ;
313 [label="mse = 0.0\nsamples = 1\nvalue = 0.051"] ;
312 -> 313 ;
314 [label="mse = 0.0\nsamples = 2\nvalue = 0.0"] ;
312 -> 314 ;
315 [label="X[3] <= 62.976\nmse = 0.001\nsamples = 16\nvalue = 0.057"] ;
311 -> 315 ;
316 [label="mse = 0.0\nsamples = 1\nvalue = 0.0"] ;
315 -> 316 ;
317 [label="X[2] <= 23.889\nmse = 0.001\nsamples = 15\nvalue = 0.061"] ;
315 -> 317 ;
318 [label="X[3] <= 68.695\nmse = 0.001\nsamples = 14\nvalue = 0.058"] ;
317 -> 318 ;
319 [label="X[3] <= 68.17\nmse = 0.001\nsamples = 11\nvalue = 0.053"] ;
318 -> 319 ;
320 [label="X[3] <= 64.005\nmse = 0.0\nsamples = 8\nvalue = 0.064"] ;
319 -> 320 ;
321 [label="X[3] <= 63.618\nmse = 0.0\nsamples = 2\nvalue = 0.084"] ;
320 -> 321 ;
322 [label="mse = 0.0\nsamples = 1\nvalue = 0.075"] ;
321 -> 322 ;
323 [label="mse = -0.0\nsamples = 1\nvalue = 0.093"] ;
321 -> 323 ;
324 [label="X[3] <= 64.338\nmse = 0.0\nsamples = 6\nvalue = 0.058"] ;
320 -> 324 ;
325 [label="mse = 0.0\nsamples = 1\nvalue = 0.031"] ;
324 -> 325 ;
326 [label="X[2] <= 16.995\nmse = 0.0\nsamples = 5\nvalue = 0.063"] ;
324 -> 326 ;
327 [label="X[2] <= 16.011\nmse = 0.0\nsamples = 4\nvalue = 0.058"] ;
326 -> 327 ;
328 [label="X[2] <= 15.56\nmse = 0.0\nsamples = 2\nvalue = 0.063"] ;
327 -> 328 ;
329 [label="mse = 0.0\nsamples = 1\nvalue = 0.062"] ;
328 -> 329 ;
330 [label="mse = 0.0\nsamples = 1\nvalue = 0.065"] ;
328 -> 330 ;
331 [label="X[2] <= 16.338\nmse = 0.0\nsamples = 2\nvalue = 0.054"] ;
327 -> 331 ;
332 [label="mse = 0.0\nsamples = 1\nvalue = 0.052"] ;
331 -> 332 ;
333 [label="mse = -0.0\nsamples = 1\nvalue = 0.055"] ;
331 -> 333 ;
334 [label="mse = 0.0\nsamples = 1\nvalue = 0.08"] ;
326 -> 334 ;
335 [label="X[1] <= 66.328\nmse = 0.0\nsamples = 3\nvalue = 0.022"] ;
319 -> 335 ;
336 [label="mse = 0.0\nsamples = 1\nvalue = 0.0"] ;
335 -> 336 ;
337 [label="X[2] <= 17.671\nmse = 0.0\nsamples = 2\nvalue = 0.033"] ;
335 -> 337 ;
338 [label="mse = 0.0\nsamples = 1\nvalue = 0.03"] ;
337 -> 338 ;
339 [label="mse = -0.0\nsamples = 1\nvalue = 0.036"] ;
337 -> 339 ;
340 [label="X[3] <= 69.049\nmse = 0.0\nsamples = 3\nvalue = 0.079"] ;
318 -> 340 ;
341 [label="X[3] <= 68.844\nmse = 0.0\nsamples = 2\nvalue = 0.094"] ;
340 -> 341 ;
342 [label="mse = 0.0\nsamples = 1\nvalue = 0.101"] ;
341 -> 342 ;
343 [label="mse = 0.0\nsamples = 1\nvalue = 0.087"] ;
341 -> 343 ;
344 [label="mse = -0.0\nsamples = 1\nvalue = 0.05"] ;
340 -> 344 ;
345 [label="mse = -0.0\nsamples = 1\nvalue = 0.101"] ;
317 -> 345 ;
346 [label="mse = 0.002\nsamples = 2\nvalue = 0.118"] ;
302 -> 346 ;
347 [label="X[1] <= 70.3\nmse = 0.002\nsamples = 47\nvalue = 0.044"] ;
301 -> 347 ;
348 [label="X[3] <= 70.868\nmse = 0.002\nsamples = 37\nvalue = 0.051"] ;
347 -> 348 ;
349 [label="X[3] <= 70.489\nmse = 0.0\nsamples = 4\nvalue = 0.005"] ;
348 -> 349 ;
350 [label="mse = 0.0\nsamples = 1\nvalue = 0.018"] ;
349 -> 350 ;
351 [label="mse = 0.0\nsamples = 3\nvalue = 0.0"] ;
349 -> 351 ;
352 [label="X[3] <= 76.7\nmse = 0.002\nsamples = 33\nvalue = 0.057"] ;
348 -> 352 ;
353 [label="X[0] <= 21533.15\nmse = 0.002\nsamples = 22\nvalue = 0.066"] ;
352 -> 353 ;
354 [label="X[3] <= 72.769\nmse = 0.0\nsamples = 2\nvalue = 0.004"] ;
353 -> 354 ;
355 [label="mse = 0.0\nsamples = 1\nvalue = 0.0"] ;
354 -> 355 ;
356 [label="mse = 0.0\nsamples = 1\nvalue = 0.008"] ;
354 -> 356 ;
357 [label="X[3] <= 75.742\nmse = 0.001\nsamples = 20\nvalue = 0.073"] ;
353 -> 357 ;
358 [label="X[3] <= 73.8\nmse = 0.001\nsamples = 18\nvalue = 0.069"] ;
357 -> 358 ;
359 [label="X[0] <= 52273.0\nmse = 0.001\nsamples = 10\nvalue = 0.079"] ;
358 -> 359 ;
360 [label="X[0] <= 36719.65\nmse = 0.0\nsamples = 4\nvalue = 0.054"] ;
359 -> 360 ;
361 [label="mse = 0.0\nsamples = 1\nvalue = 0.065"] ;
360 -> 361 ;
362 [label="X[2] <= 17.303\nmse = 0.0\nsamples = 3\nvalue = 0.05"] ;
360 -> 362 ;
363 [label="mse = 0.0\nsamples = 2\nvalue = 0.05"] ;
362 -> 363 ;
364 [label="mse = 0.0\nsamples = 1\nvalue = 0.049"] ;
362 -> 364 ;
365 [label="X[3] <= 71.662\nmse = 0.001\nsamples = 6\nvalue = 0.095"] ;
359 -> 365 ;
366 [label="mse = 0.0\nsamples = 1\nvalue = 0.142"] ;
365 -> 366 ;
367 [label="X[3] <= 73.594\nmse = 0.001\nsamples = 5\nvalue = 0.086"] ;
365 -> 367 ;
368 [label="X[2] <= 14.596\nmse = 0.0\nsamples = 4\nvalue = 0.075"] ;
367 -> 368 ;
369 [label="mse = 0.0\nsamples = 1\nvalue = 0.059"] ;
368 -> 369 ;
370 [label="X[2] <= 14.716\nmse = 0.0\nsamples = 3\nvalue = 0.08"] ;
368 -> 370 ;
371 [label="mse = 0.0\nsamples = 1\nvalue = 0.074"] ;
370 -> 371 ;
372 [label="mse = 0.0\nsamples = 2\nvalue = 0.083"] ;
370 -> 372 ;
373 [label="mse = -0.0\nsamples = 1\nvalue = 0.13"] ;
367 -> 373 ;
374 [label="X[2] <= 13.708\nmse = 0.001\nsamples = 8\nvalue = 0.058"] ;
358 -> 374 ;
375 [label="X[3] <= 75.579\nmse = 0.0\nsamples = 4\nvalue = 0.08"] ;
374 -> 375 ;
376 [label="X[3] <= 75.079\nmse = 0.0\nsamples = 3\nvalue = 0.089"] ;
375 -> 376 ;
377 [label="mse = 0.0\nsamples = 1\nvalue = 0.1"] ;
376 -> 377 ;
378 [label="X[1] <= 68.2\nmse = 0.0\nsamples = 2\nvalue = 0.084"] ;
376 -> 378 ;
379 [label="mse = 0.0\nsamples = 1\nvalue = 0.085"] ;
378 -> 379 ;
380 [label="mse = -0.0\nsamples = 1\nvalue = 0.083"] ;
378 -> 380 ;
381 [label="mse = 0.0\nsamples = 1\nvalue = 0.052"] ;
375 -> 381 ;
382 [label="X[0] <= 47946.5\nmse = 0.002\nsamples = 4\nvalue = 0.036"] ;
374 -> 382 ;
383 [label="mse = 0.0\nsamples = 1\nvalue = 0.105"] ;
382 -> 383 ;
384 [label="X[1] <= 66.3\nmse = 0.0\nsamples = 3\nvalue = 0.013"] ;
382 -> 384 ;
385 [label="mse = 0.0\nsamples = 1\nvalue = 0.029"] ;
384 -> 385 ;
386 [label="X[3] <= 74.623\nmse = 0.0\nsamples = 2\nvalue = 0.005"] ;
384 -> 386 ;
387 [label="mse = 0.0\nsamples = 1\nvalue = 0.0"] ;
386 -> 387 ;
388 [label="mse = 0.0\nsamples = 1\nvalue = 0.009"] ;
386 -> 388 ;
389 [label="X[3] <= 76.085\nmse = 0.0\nsamples = 2\nvalue = 0.102"] ;
357 -> 389 ;
390 [label="mse = 0.0\nsamples = 1\nvalue = 0.097"] ;
389 -> 390 ;
391 [label="mse = 0.0\nsamples = 1\nvalue = 0.107"] ;
389 -> 391 ;
392 [label="X[0] <= 52273.0\nmse = 0.001\nsamples = 11\nvalue = 0.038"] ;
352 -> 392 ;
393 [label="X[3] <= 88.023\nmse = 0.001\nsamples = 7\nvalue = 0.049"] ;
392 -> 393 ;
394 [label="X[2] <= 12.307\nmse = 0.0\nsamples = 6\nvalue = 0.055"] ;
393 -> 394 ;
395 [label="X[0] <= 34008.5\nmse = 0.0\nsamples = 2\nvalue = 0.037"] ;
394 -> 395 ;
396 [label="mse = 0.0\nsamples = 1\nvalue = 0.05"] ;
395 -> 396 ;
397 [label="mse = 0.0\nsamples = 1\nvalue = 0.023"] ;
395 -> 397 ;
398 [label="X[2] <= 13.483\nmse = 0.0\nsamples = 4\nvalue = 0.064"] ;
394 -> 398 ;
399 [label="mse = 0.0\nsamples = 1\nvalue = 0.083"] ;
398 -> 399 ;
400 [label="X[0] <= 24414.295\nmse = 0.0\nsamples = 3\nvalue = 0.058"] ;
398 -> 400 ;
401 [label="mse = 0.0\nsamples = 1\nvalue = 0.073"] ;
400 -> 401 ;
402 [label="X[1] <= 66.25\nmse = 0.0\nsamples = 2\nvalue = 0.05"] ;
400 -> 402 ;
403 [label="mse = 0.0\nsamples = 1\nvalue = 0.051"] ;
402 -> 403 ;
404 [label="mse = 0.0\nsamples = 1\nvalue = 0.049"] ;
402 -> 404 ;
405 [label="mse = 0.0\nsamples = 1\nvalue = 0.011"] ;
393 -> 405 ;
406 [label="X[1] <= 68.3\nmse = 0.001\nsamples = 4\nvalue = 0.019"] ;
392 -> 406 ;
407 [label="mse = 0.0\nsamples = 2\nvalue = 0.0"] ;
406 -> 407 ;
408 [label="X[2] <= 4.727\nmse = 0.001\nsamples = 2\nvalue = 0.038"] ;
406 -> 408 ;
409 [label="mse = 0.0\nsamples = 1\nvalue = 0.0"] ;
408 -> 409 ;
410 [label="mse = 0.0\nsamples = 1\nvalue = 0.077"] ;
408 -> 410 ;
411 [label="X[3] <= 73.423\nmse = 0.001\nsamples = 10\nvalue = 0.017"] ;
347 -> 411 ;
412 [label="X[2] <= 10.314\nmse = 0.0\nsamples = 6\nvalue = 0.008"] ;
411 -> 412 ;
413 [label="mse = 0.0\nsamples = 1\nvalue = 0.046"] ;
412 -> 413 ;
414 [label="mse = 0.0\nsamples = 5\nvalue = 0.0"] ;
412 -> 414 ;
415 [label="X[3] <= 78.621\nmse = 0.001\nsamples = 4\nvalue = 0.032"] ;
411 -> 415 ;
416 [label="X[3] <= 76.275\nmse = 0.0\nsamples = 2\nvalue = 0.063"] ;
415 -> 416 ;
417 [label="mse = 0.0\nsamples = 1\nvalue = 0.083"] ;
416 -> 417 ;
418 [label="mse = 0.0\nsamples = 1\nvalue = 0.044"] ;
416 -> 418 ;
419 [label="mse = 0.0\nsamples = 2\nvalue = 0.0"] ;
415 -> 419 ;
420 [label="X[2] <= 5.387\nmse = 0.002\nsamples = 12\nvalue = 0.071"] ;
116 -> 420 ;
421 [label="X[3] <= 73.06\nmse = 0.001\nsamples = 3\nvalue = 0.018"] ;
420 -> 421 ;
422 [label="mse = 0.0\nsamples = 2\nvalue = 0.0"] ;
421 -> 422 ;
423 [label="mse = 0.0\nsamples = 1\nvalue = 0.053"] ;
421 -> 423 ;
424 [label="X[2] <= 7.881\nmse = 0.001\nsamples = 9\nvalue = 0.088"] ;
420 -> 424 ;
425 [label="X[2] <= 5.888\nmse = 0.001\nsamples = 7\nvalue = 0.074"] ;
424 -> 425 ;
426 [label="X[3] <= 66.429\nmse = 0.0\nsamples = 2\nvalue = 0.102"] ;
425 -> 426 ;
427 [label="mse = 0.0\nsamples = 1\nvalue = 0.108"] ;
426 -> 427 ;
428 [label="mse = -0.0\nsamples = 1\nvalue = 0.095"] ;
426 -> 428 ;
429 [label="X[2] <= 6.863\nmse = 0.0\nsamples = 5\nvalue = 0.063"] ;
425 -> 429 ;
430 [label="X[3] <= 77.464\nmse = 0.0\nsamples = 2\nvalue = 0.041"] ;
429 -> 430 ;
431 [label="mse = 0.0\nsamples = 1\nvalue = 0.048"] ;
430 -> 431 ;
432 [label="mse = 0.0\nsamples = 1\nvalue = 0.034"] ;
430 -> 432 ;
433 [label="X[2] <= 7.076\nmse = 0.0\nsamples = 3\nvalue = 0.078"] ;
429 -> 433 ;
434 [label="mse = 0.0\nsamples = 1\nvalue = 0.096"] ;
433 -> 434 ;
435 [label="X[2] <= 7.228\nmse = 0.0\nsamples = 2\nvalue = 0.07"] ;
433 -> 435 ;
436 [label="mse = 0.0\nsamples = 1\nvalue = 0.078"] ;
435 -> 436 ;
437 [label="mse = -0.0\nsamples = 1\nvalue = 0.061"] ;
435 -> 437 ;
438 [label="X[2] <= 8.446\nmse = 0.0\nsamples = 2\nvalue = 0.137"] ;
424 -> 438 ;
439 [label="mse = 0.0\nsamples = 1\nvalue = 0.15"] ;
438 -> 439 ;
440 [label="mse = 0.0\nsamples = 1\nvalue = 0.125"] ;
438 -> 440 ;
441 [label="mse = -0.0\nsamples = 1\nvalue = 0.206"] ;
1 -> 441 ;
442 [label="X[3] <= 78.768\nmse = 0.003\nsamples = 561\nvalue = 0.065"] ;
0 -> 442 [labeldistance=2.5, labelangle=-45, headlabel="False"] ;
443 [label="X[3] <= 63.118\nmse = 0.003\nsamples = 478\nvalue = 0.069"] ;
442 -> 443 ;
444 [label="X[3] <= 40.275\nmse = 0.002\nsamples = 86\nvalue = 0.048"] ;
443 -> 444 ;
445 [label="X[2] <= 8.225\nmse = 0.002\nsamples = 15\nvalue = 0.085"] ;
444 -> 445 ;
446 [label="mse = 0.0\nsamples = 1\nvalue = 0.0"] ;
445 -> 446 ;
447 [label="X[2] <= 11.327\nmse = 0.001\nsamples = 14\nvalue = 0.092"] ;
445 -> 447 ;
448 [label="X[2] <= 8.882\nmse = 0.0\nsamples = 3\nvalue = 0.123"] ;
447 -> 448 ;
449 [label="mse = 0.0\nsamples = 1\nvalue = 0.135"] ;
448 -> 449 ;
450 [label="X[1] <= 83.6\nmse = 0.0\nsamples = 2\nvalue = 0.118"] ;
448 -> 450 ;
451 [label="mse = 0.0\nsamples = 1\nvalue = 0.116"] ;
450 -> 451 ;
452 [label="mse = -0.0\nsamples = 1\nvalue = 0.12"] ;
450 -> 452 ;
453 [label="X[2] <= 16.685\nmse = 0.001\nsamples = 11\nvalue = 0.083"] ;
447 -> 453 ;
454 [label="X[3] <= 29.715\nmse = 0.001\nsamples = 5\nvalue = 0.056"] ;
453 -> 454 ;
455 [label="mse = 0.0\nsamples = 1\nvalue = 0.0"] ;
454 -> 455 ;
456 [label="X[1] <= 94.6\nmse = 0.0\nsamples = 4\nvalue = 0.07"] ;
454 -> 456 ;
457 [label="X[1] <= 76.149\nmse = 0.0\nsamples = 3\nvalue = 0.064"] ;
456 -> 457 ;
458 [label="mse = 0.0\nsamples = 1\nvalue = 0.062"] ;
457 -> 458 ;
459 [label="mse = 0.0\nsamples = 2\nvalue = 0.065"] ;
457 -> 459 ;
460 [label="mse = 0.0\nsamples = 1\nvalue = 0.09"] ;
456 -> 460 ;
461 [label="X[3] <= 26.18\nmse = 0.0\nsamples = 6\nvalue = 0.105"] ;
453 -> 461 ;
462 [label="X[0] <= 13726.839\nmse = 0.0\nsamples = 3\nvalue = 0.091"] ;
461 -> 462 ;
463 [label="mse = 0.0\nsamples = 1\nvalue = 0.11"] ;
462 -> 463 ;
464 [label="X[1] <= 84.272\nmse = 0.0\nsamples = 2\nvalue = 0.082"] ;
462 -> 464 ;
465 [label="mse = 0.0\nsamples = 1\nvalue = 0.082"] ;
464 -> 465 ;
466 [label="mse = 0.0\nsamples = 1\nvalue = 0.081"] ;
464 -> 466 ;
467 [label="X[3] <= 36.29\nmse = 0.0\nsamples = 3\nvalue = 0.119"] ;
461 -> 467 ;
468 [label="X[0] <= 28864.222\nmse = 0.0\nsamples = 2\nvalue = 0.114"] ;
467 -> 468 ;
469 [label="mse = 0.0\nsamples = 1\nvalue = 0.119"] ;
468 -> 469 ;
470 [label="mse = -0.0\nsamples = 1\nvalue = 0.11"] ;
468 -> 470 ;
471 [label="mse = 0.0\nsamples = 1\nvalue = 0.129"] ;
467 -> 471 ;
472 [label="X[0] <= 61865.0\nmse = 0.001\nsamples = 71\nvalue = 0.04"] ;
444 -> 472 ;
473 [label="X[3] <= 62.132\nmse = 0.001\nsamples = 40\nvalue = 0.053"] ;
472 -> 473 ;
474 [label="X[0] <= 40502.492\nmse = 0.001\nsamples = 38\nvalue = 0.056"] ;
473 -> 474 ;
475 [label="X[1] <= 78.361\nmse = 0.001\nsamples = 10\nvalue = 0.039"] ;
474 -> 475 ;
476 [label="X[0] <= 19620.277\nmse = 0.0\nsamples = 2\nvalue = 0.083"] ;
475 -> 476 ;
477 [label="mse = 0.0\nsamples = 1\nvalue = 0.096"] ;
476 -> 477 ;
478 [label="mse = -0.0\nsamples = 1\nvalue = 0.069"] ;
476 -> 478 ;
479 [label="X[1] <= 90.133\nmse = 0.001\nsamples = 8\nvalue = 0.029"] ;
475 -> 479 ;
480 [label="X[1] <= 88.748\nmse = 0.0\nsamples = 4\nvalue = 0.009"] ;
479 -> 480 ;
481 [label="X[1] <= 87.354\nmse = 0.0\nsamples = 3\nvalue = 0.004"] ;
480 -> 481 ;
482 [label="X[2] <= 4.351\nmse = 0.0\nsamples = 2\nvalue = 0.002"] ;
481 -> 482 ;
483 [label="mse = 0.0\nsamples = 1\nvalue = 0.003"] ;
482 -> 483 ;
484 [label="mse = 0.0\nsamples = 1\nvalue = 0.0"] ;
482 -> 484 ;
485 [label="mse = -0.0\nsamples = 1\nvalue = 0.01"] ;
481 -> 485 ;
486 [label="mse = 0.0\nsamples = 1\nvalue = 0.023"] ;
480 -> 486 ;
487 [label="X[3] <= 49.499\nmse = 0.0\nsamples = 4\nvalue = 0.048"] ;
479 -> 487 ;
488 [label="X[3] <= 47.288\nmse = 0.0\nsamples = 2\nvalue = 0.036"] ;
487 -> 488 ;
489 [label="mse = 0.0\nsamples = 1\nvalue = 0.037"] ;
488 -> 489 ;
490 [label="mse = -0.0\nsamples = 1\nvalue = 0.036"] ;
488 -> 490 ;
491 [label="X[3] <= 54.637\nmse = 0.0\nsamples = 2\nvalue = 0.06"] ;
487 -> 491 ;
492 [label="mse = 0.0\nsamples = 1\nvalue = 0.074"] ;
491 -> 492 ;
493 [label="mse = 0.0\nsamples = 1\nvalue = 0.046"] ;
491 -> 493 ;
494 [label="X[2] <= 7.177\nmse = 0.001\nsamples = 28\nvalue = 0.062"] ;
474 -> 494 ;
495 [label="X[3] <= 58.03\nmse = 0.0\nsamples = 5\nvalue = 0.093"] ;
494 -> 495 ;
496 [label="mse = 0.0\nsamples = 1\nvalue = 0.112"] ;
495 -> 496 ;
497 [label="X[1] <= 83.956\nmse = 0.0\nsamples = 4\nvalue = 0.088"] ;
495 -> 497 ;
498 [label="mse = 0.0\nsamples = 1\nvalue = 0.076"] ;
497 -> 498 ;
499 [label="X[0] <= 55409.5\nmse = 0.0\nsamples = 3\nvalue = 0.092"] ;
497 -> 499 ;
500 [label="mse = 0.0\nsamples = 1\nvalue = 0.097"] ;
499 -> 500 ;
501 [label="X[3] <= 61.556\nmse = 0.0\nsamples = 2\nvalue = 0.089"] ;
499 -> 501 ;
502 [label="mse = 0.0\nsamples = 1\nvalue = 0.088"] ;
501 -> 502 ;
503 [label="mse = -0.0\nsamples = 1\nvalue = 0.091"] ;
501 -> 503 ;
504 [label="X[3] <= 61.747\nmse = 0.001\nsamples = 23\nvalue = 0.055"] ;
494 -> 504 ;
505 [label="X[0] <= 44979.477\nmse = 0.001\nsamples = 21\nvalue = 0.06"] ;
504 -> 505 ;
506 [label="X[1] <= 89.47\nmse = 0.0\nsamples = 2\nvalue = 0.093"] ;
505 -> 506 ;
507 [label="mse = 0.0\nsamples = 1\nvalue = 0.091"] ;
506 -> 507 ;
508 [label="mse = 0.0\nsamples = 1\nvalue = 0.094"] ;
506 -> 508 ;
509 [label="X[3] <= 61.372\nmse = 0.001\nsamples = 19\nvalue = 0.056"] ;
505 -> 509 ;
510 [label="X[1] <= 90.2\nmse = 0.001\nsamples = 18\nvalue = 0.059"] ;
509 -> 510 ;
511 [label="X[0] <= 47504.5\nmse = 0.001\nsamples = 17\nvalue = 0.063"] ;
510 -> 511 ;
512 [label="mse = 0.0\nsamples = 1\nvalue = 0.008"] ;
511 -> 512 ;
513 [label="X[2] <= 16.68\nmse = 0.001\nsamples = 16\nvalue = 0.066"] ;
511 -> 513 ;
514 [label="X[2] <= 10.035\nmse = 0.001\nsamples = 7\nvalue = 0.081"] ;
513 -> 514 ;
515 [label="X[2] <= 8.035\nmse = 0.0\nsamples = 2\nvalue = 0.058"] ;
514 -> 515 ;
516 [label="mse = 0.0\nsamples = 1\nvalue = 0.069"] ;
515 -> 516 ;
517 [label="mse = 0.0\nsamples = 1\nvalue = 0.046"] ;
515 -> 517 ;
518 [label="X[3] <= 54.157\nmse = 0.001\nsamples = 5\nvalue = 0.09"] ;
514 -> 518 ;
519 [label="X[1] <= 87.25\nmse = 0.0\nsamples = 4\nvalue = 0.099"] ;
518 -> 519 ;
520 [label="X[2] <= 14.927\nmse = 0.0\nsamples = 3\nvalue = 0.091"] ;
519 -> 520 ;
521 [label="mse = 0.0\nsamples = 1\nvalue = 0.081"] ;
520 -> 521 ;
522 [label="X[1] <= 79.9\nmse = 0.0\nsamples = 2\nvalue = 0.095"] ;
520 -> 522 ;
523 [label="mse = 0.0\nsamples = 1\nvalue = 0.098"] ;
522 -> 523 ;
524 [label="mse = 0.0\nsamples = 1\nvalue = 0.093"] ;
522 -> 524 ;
525 [label="mse = 0.0\nsamples = 1\nvalue = 0.125"] ;
519 -> 525 ;
526 [label="mse = -0.0\nsamples = 1\nvalue = 0.054"] ;
518 -> 526 ;
527 [label="X[3] <= 57.706\nmse = 0.0\nsamples = 9\nvalue = 0.055"] ;
513 -> 527 ;
528 [label="X[2] <= 18.603\nmse = 0.0\nsamples = 5\nvalue = 0.039"] ;
527 -> 528 ;
529 [label="X[2] <= 17.438\nmse = 0.0\nsamples = 3\nvalue = 0.046"] ;
528 -> 529 ;
530 [label="mse = 0.0\nsamples = 2\nvalue = 0.048"] ;
529 -> 530 ;
531 [label="mse = 0.0\nsamples = 1\nvalue = 0.042"] ;
529 -> 531 ;
532 [label="X[3] <= 55.549\nmse = 0.0\nsamples = 2\nvalue = 0.028"] ;
528 -> 532 ;
533 [label="mse = 0.0\nsamples = 1\nvalue = 0.028"] ;
532 -> 533 ;
534 [label="mse = -0.0\nsamples = 1\nvalue = 0.029"] ;
532 -> 534 ;
535 [label="X[2] <= 18.97\nmse = 0.0\nsamples = 4\nvalue = 0.074"] ;
527 -> 535 ;
536 [label="X[3] <= 59.548\nmse = 0.0\nsamples = 2\nvalue = 0.061"] ;
535 -> 536 ;
537 [label="mse = 0.0\nsamples = 1\nvalue = 0.062"] ;
536 -> 537 ;
538 [label="mse = 0.0\nsamples = 1\nvalue = 0.059"] ;
536 -> 538 ;
539 [label="X[3] <= 59.864\nmse = 0.0\nsamples = 2\nvalue = 0.088"] ;
535 -> 539 ;
540 [label="mse = 0.0\nsamples = 1\nvalue = 0.083"] ;
539 -> 540 ;
541 [label="mse = 0.0\nsamples = 1\nvalue = 0.092"] ;
539 -> 541 ;
542 [label="mse = 0.0\nsamples = 1\nvalue = 0.0"] ;
510 -> 542 ;
543 [label="mse = 0.0\nsamples = 1\nvalue = 0.0"] ;
509 -> 543 ;
544 [label="X[1] <= 82.9\nmse = 0.0\nsamples = 2\nvalue = 0.011"] ;
504 -> 544 ;
545 [label="mse = 0.0\nsamples = 1\nvalue = 0.022"] ;
544 -> 545 ;
546 [label="mse = 0.0\nsamples = 1\nvalue = 0.0"] ;
544 -> 546 ;
547 [label="mse = -0.0\nsamples = 2\nvalue = 0.0"] ;
473 -> 547 ;
548 [label="X[2] <= 12.524\nmse = 0.001\nsamples = 31\nvalue = 0.023"] ;
472 -> 548 ;
549 [label="X[2] <= 6.922\nmse = 0.001\nsamples = 26\nvalue = 0.019"] ;
548 -> 549 ;
550 [label="X[3] <= 56.824\nmse = 0.001\nsamples = 17\nvalue = 0.025"] ;
549 -> 550 ;
551 [label="X[3] <= 53.095\nmse = 0.001\nsamples = 7\nvalue = 0.044"] ;
550 -> 551 ;
552 [label="X[3] <= 46.458\nmse = 0.0\nsamples = 5\nvalue = 0.03"] ;
551 -> 552 ;
553 [label="mse = 0.0\nsamples = 1\nvalue = 0.0"] ;
552 -> 553 ;
554 [label="X[2] <= 5.156\nmse = 0.0\nsamples = 4\nvalue = 0.038"] ;
552 -> 554 ;
555 [label="mse = 0.0\nsamples = 1\nvalue = 0.025"] ;
554 -> 555 ;
556 [label="X[2] <= 6.266\nmse = 0.0\nsamples = 3\nvalue = 0.042"] ;
554 -> 556 ;
557 [label="mse = 0.0\nsamples = 2\nvalue = 0.038"] ;
556 -> 557 ;
558 [label="mse = 0.0\nsamples = 1\nvalue = 0.05"] ;
556 -> 558 ;
559 [label="X[2] <= 6.178\nmse = 0.0\nsamples = 2\nvalue = 0.078"] ;
551 -> 559 ;
560 [label="mse = 0.0\nsamples = 1\nvalue = 0.08"] ;
559 -> 560 ;
561 [label="mse = 0.0\nsamples = 1\nvalue = 0.077"] ;
559 -> 561 ;
562 [label="X[2] <= 5.319\nmse = 0.0\nsamples = 10\nvalue = 0.012"] ;
550 -> 562 ;
563 [label="X[2] <= 3.402\nmse = 0.0\nsamples = 5\nvalue = 0.004"] ;
562 -> 563 ;
564 [label="mse = 0.0\nsamples = 3\nvalue = 0.0"] ;
563 -> 564 ;
565 [label="X[2] <= 4.666\nmse = 0.0\nsamples = 2\nvalue = 0.009"] ;
563 -> 565 ;
566 [label="mse = 0.0\nsamples = 1\nvalue = 0.018"] ;
565 -> 566 ;
567 [label="mse = 0.0\nsamples = 1\nvalue = 0.0"] ;
565 -> 567 ;
568 [label="X[2] <= 5.572\nmse = 0.001\nsamples = 5\nvalue = 0.02"] ;
562 -> 568 ;
569 [label="mse = 0.0\nsamples = 1\nvalue = 0.066"] ;
568 -> 569 ;
570 [label="X[3] <= 59.206\nmse = 0.0\nsamples = 4\nvalue = 0.009"] ;
568 -> 570 ;
571 [label="X[3] <= 58.125\nmse = 0.0\nsamples = 2\nvalue = 0.018"] ;
570 -> 571 ;
572 [label="mse = 0.0\nsamples = 1\nvalue = 0.022"] ;
571 -> 572 ;
573 [label="mse = -0.0\nsamples = 1\nvalue = 0.014"] ;
571 -> 573 ;
574 [label="mse = 0.0\nsamples = 2\nvalue = 0.0"] ;
570 -> 574 ;
575 [label="X[3] <= 54.2\nmse = 0.0\nsamples = 9\nvalue = 0.008"] ;
549 -> 575 ;
576 [label="X[2] <= 7.832\nmse = 0.0\nsamples = 7\nvalue = 0.005"] ;
575 -> 576 ;
577 [label="X[3] <= 51.571\nmse = 0.0\nsamples = 2\nvalue = 0.013"] ;
576 -> 577 ;
578 [label="mse = 0.0\nsamples = 1\nvalue = 0.027"] ;
577 -> 578 ;
579 [label="mse = 0.0\nsamples = 1\nvalue = 0.0"] ;
577 -> 579 ;
580 [label="X[3] <= 41.925\nmse = 0.0\nsamples = 5\nvalue = 0.001"] ;
576 -> 580 ;
581 [label="mse = 0.0\nsamples = 1\nvalue = 0.007"] ;
580 -> 581 ;
582 [label="mse = 0.0\nsamples = 4\nvalue = 0.0"] ;
580 -> 582 ;
583 [label="X[0] <= 129961.641\nmse = 0.0\nsamples = 2\nvalue = 0.018"] ;
575 -> 583 ;
584 [label="mse = 0.0\nsamples = 1\nvalue = 0.036"] ;
583 -> 584 ;
585 [label="mse = 0.0\nsamples = 1\nvalue = 0.0"] ;
583 -> 585 ;
586 [label="X[2] <= 13.365\nmse = 0.001\nsamples = 5\nvalue = 0.046"] ;
548 -> 586 ;
587 [label="X[2] <= 12.946\nmse = 0.0\nsamples = 3\nvalue = 0.071"] ;
586 -> 587 ;
588 [label="X[3] <= 61.714\nmse = 0.0\nsamples = 2\nvalue = 0.061"] ;
587 -> 588 ;
589 [label="mse = 0.0\nsamples = 1\nvalue = 0.062"] ;
588 -> 589 ;
590 [label="mse = -0.0\nsamples = 1\nvalue = 0.06"] ;
588 -> 590 ;
591 [label="mse = 0.0\nsamples = 1\nvalue = 0.09"] ;
587 -> 591 ;
592 [label="X[1] <= 85.25\nmse = 0.0\nsamples = 2\nvalue = 0.009"] ;
586 -> 592 ;
593 [label="mse = 0.0\nsamples = 1\nvalue = 0.0"] ;
592 -> 593 ;
594 [label="mse = 0.0\nsamples = 1\nvalue = 0.018"] ;
592 -> 594 ;
595 [label="X[2] <= 11.376\nmse = 0.003\nsamples = 392\nvalue = 0.074"] ;
443 -> 595 ;
596 [label="X[2] <= 6.41\nmse = 0.003\nsamples = 221\nvalue = 0.081"] ;
595 -> 596 ;
597 [label="X[0] <= 75273.5\nmse = 0.002\nsamples = 85\nvalue = 0.059"] ;
596 -> 597 ;
598 [label="X[1] <= 90.65\nmse = 0.002\nsamples = 53\nvalue = 0.051"] ;
597 -> 598 ;
599 [label="X[3] <= 66.005\nmse = 0.002\nsamples = 46\nvalue = 0.057"] ;
598 -> 599 ;
600 [label="X[0] <= 65569.0\nmse = 0.0\nsamples = 4\nvalue = 0.012"] ;
599 -> 600 ;
601 [label="mse = 0.0\nsamples = 3\nvalue = 0.0"] ;
600 -> 601 ;
602 [label="mse = 0.0\nsamples = 1\nvalue = 0.048"] ;
600 -> 602 ;
603 [label="X[3] <= 69.387\nmse = 0.002\nsamples = 42\nvalue = 0.062"] ;
599 -> 603 ;
604 [label="X[1] <= 77.356\nmse = 0.001\nsamples = 2\nvalue = 0.114"] ;
603 -> 604 ;
605 [label="mse = 0.0\nsamples = 1\nvalue = 0.076"] ;
604 -> 605 ;
606 [label="mse = 0.0\nsamples = 1\nvalue = 0.152"] ;
604 -> 606 ;
607 [label="X[1] <= 88.187\nmse = 0.001\nsamples = 40\nvalue = 0.059"] ;
603 -> 607 ;
608 [label="X[3] <= 74.714\nmse = 0.001\nsamples = 35\nvalue = 0.054"] ;
607 -> 608 ;
609 [label="X[0] <= 61472.174\nmse = 0.002\nsamples = 17\nvalue = 0.039"] ;
608 -> 609 ;
610 [label="X[3] <= 73.059\nmse = 0.002\nsamples = 14\nvalue = 0.048"] ;
609 -> 610 ;
611 [label="X[3] <= 70.604\nmse = 0.001\nsamples = 9\nvalue = 0.035"] ;
610 -> 611 ;
612 [label="X[1] <= 86.407\nmse = 0.0\nsamples = 4\nvalue = 0.066"] ;
611 -> 612 ;
613 [label="X[2] <= 1.838\nmse = 0.0\nsamples = 2\nvalue = 0.059"] ;
612 -> 613 ;
614 [label="mse = 0.0\nsamples = 1\nvalue = 0.063"] ;
613 -> 614 ;
615 [label="mse = -0.0\nsamples = 1\nvalue = 0.054"] ;
613 -> 615 ;
616 [label="X[0] <= 57979.354\nmse = 0.0\nsamples = 2\nvalue = 0.073"] ;
612 -> 616 ;
617 [label="mse = 0.0\nsamples = 1\nvalue = 0.074"] ;
616 -> 617 ;
618 [label="mse = 0.0\nsamples = 1\nvalue = 0.071"] ;
616 -> 618 ;
619 [label="X[2] <= -4.367\nmse = 0.0\nsamples = 5\nvalue = 0.01"] ;
611 -> 619 ;
620 [label="mse = 0.0\nsamples = 1\nvalue = 0.033"] ;
619 -> 620 ;
621 [label="X[2] <= 6.18\nmse = 0.0\nsamples = 4\nvalue = 0.004"] ;
619 -> 621 ;
622 [label="mse = 0.0\nsamples = 3\nvalue = 0.0"] ;
621 -> 622 ;
623 [label="mse = 0.0\nsamples = 1\nvalue = 0.018"] ;
621 -> 623 ;
624 [label="X[3] <= 73.209\nmse = 0.002\nsamples = 5\nvalue = 0.07"] ;
610 -> 624 ;
625 [label="mse = 0.0\nsamples = 1\nvalue = 0.144"] ;
624 -> 625 ;
626 [label="X[2] <= 5.612\nmse = 0.001\nsamples = 4\nvalue = 0.052"] ;
624 -> 626 ;
627 [label="X[2] <= -1.481\nmse = 0.0\nsamples = 2\nvalue = 0.07"] ;
626 -> 627 ;
628 [label="mse = 0.0\nsamples = 1\nvalue = 0.05"] ;
627 -> 628 ;
629 [label="mse = 0.0\nsamples = 1\nvalue = 0.091"] ;
627 -> 629 ;
630 [label="X[0] <= 55350.5\nmse = 0.0\nsamples = 2\nvalue = 0.033"] ;
626 -> 630 ;
631 [label="mse = 0.0\nsamples = 1\nvalue = 0.033"] ;
630 -> 631 ;
632 [label="mse = 0.0\nsamples = 1\nvalue = 0.033"] ;
630 -> 632 ;
633 [label="mse = 0.0\nsamples = 3\nvalue = 0.0"] ;
609 -> 633 ;
634 [label="X[1] <= 82.756\nmse = 0.001\nsamples = 18\nvalue = 0.068"] ;
608 -> 634 ;
635 [label="X[3] <= 78.207\nmse = 0.001\nsamples = 16\nvalue = 0.073"] ;
634 -> 635 ;
636 [label="X[2] <= -3.62\nmse = 0.001\nsamples = 14\nvalue = 0.078"] ;
635 -> 636 ;
637 [label="mse = 0.0\nsamples = 1\nvalue = 0.038"] ;
636 -> 637 ;
638 [label="X[2] <= 4.452\nmse = 0.0\nsamples = 13\nvalue = 0.081"] ;
636 -> 638 ;
639 [label="X[0] <= 57401.5\nmse = 0.0\nsamples = 5\nvalue = 0.094"] ;
638 -> 639 ;
640 [label="X[1] <= 78.006\nmse = 0.0\nsamples = 2\nvalue = 0.116"] ;
639 -> 640 ;
641 [label="mse = 0.0\nsamples = 1\nvalue = 0.124"] ;
640 -> 641 ;
642 [label="mse = -0.0\nsamples = 1\nvalue = 0.107"] ;
640 -> 642 ;
643 [label="X[3] <= 76.191\nmse = 0.0\nsamples = 3\nvalue = 0.079"] ;
639 -> 643 ;
644 [label="mse = 0.0\nsamples = 1\nvalue = 0.064"] ;
643 -> 644 ;
645 [label="X[0] <= 63134.5\nmse = 0.0\nsamples = 2\nvalue = 0.086"] ;
643 -> 645 ;
646 [label="mse = 0.0\nsamples = 1\nvalue = 0.091"] ;
645 -> 646 ;
647 [label="mse = 0.0\nsamples = 1\nvalue = 0.082"] ;
645 -> 647 ;
648 [label="X[3] <= 76.652\nmse = 0.0\nsamples = 8\nvalue = 0.074"] ;
638 -> 648 ;
649 [label="X[3] <= 75.108\nmse = 0.0\nsamples = 4\nvalue = 0.059"] ;
648 -> 649 ;
650 [label="mse = 0.0\nsamples = 1\nvalue = 0.069"] ;
649 -> 650 ;
651 [label="X[0] <= 57401.5\nmse = 0.0\nsamples = 3\nvalue = 0.056"] ;
649 -> 651 ;
652 [label="X[3] <= 76.265\nmse = 0.0\nsamples = 2\nvalue = 0.053"] ;
651 -> 652 ;
653 [label="mse = 0.0\nsamples = 1\nvalue = 0.051"] ;
652 -> 653 ;
654 [label="mse = -0.0\nsamples = 1\nvalue = 0.056"] ;
652 -> 654 ;
655 [label="mse = -0.0\nsamples = 1\nvalue = 0.061"] ;
651 -> 655 ;
656 [label="X[2] <= 5.728\nmse = 0.0\nsamples = 4\nvalue = 0.089"] ;
648 -> 656 ;
657 [label="X[2] <= 5.148\nmse = 0.0\nsamples = 2\nvalue = 0.075"] ;
656 -> 657 ;
658 [label="mse = 0.0\nsamples = 1\nvalue = 0.083"] ;
657 -> 658 ;
659 [label="mse = 0.0\nsamples = 1\nvalue = 0.067"] ;
657 -> 659 ;
660 [label="X[0] <= 54190.5\nmse = 0.0\nsamples = 2\nvalue = 0.102"] ;
656 -> 660 ;
661 [label="mse = 0.0\nsamples = 1\nvalue = 0.099"] ;
660 -> 661 ;
662 [label="mse = -0.0\nsamples = 1\nvalue = 0.105"] ;
660 -> 662 ;
663 [label="X[1] <= 73.95\nmse = 0.0\nsamples = 2\nvalue = 0.034"] ;
635 -> 663 ;
664 [label="mse = 0.0\nsamples = 1\nvalue = 0.029"] ;
663 -> 664 ;
665 [label="mse = 0.0\nsamples = 1\nvalue = 0.039"] ;
663 -> 665 ;
666 [label="X[1] <= 85.987\nmse = 0.0\nsamples = 2\nvalue = 0.031"] ;
634 -> 666 ;
667 [label="mse = 0.0\nsamples = 1\nvalue = 0.036"] ;
666 -> 667 ;
668 [label="mse = 0.0\nsamples = 1\nvalue = 0.026"] ;
666 -> 668 ;
669 [label="X[2] <= 6.3\nmse = 0.0\nsamples = 5\nvalue = 0.093"] ;
607 -> 669 ;
670 [label="X[0] <= 61409.0\nmse = 0.0\nsamples = 4\nvalue = 0.083"] ;
669 -> 670 ;
671 [label="mse = 0.0\nsamples = 1\nvalue = 0.072"] ;
670 -> 671 ;
672 [label="X[3] <= 77.079\nmse = 0.0\nsamples = 3\nvalue = 0.087"] ;
670 -> 672 ;
673 [label="mse = 0.0\nsamples = 1\nvalue = 0.094"] ;
672 -> 673 ;
674 [label="X[3] <= 77.932\nmse = 0.0\nsamples = 2\nvalue = 0.084"] ;
672 -> 674 ;
675 [label="mse = 0.0\nsamples = 1\nvalue = 0.084"] ;
674 -> 675 ;
676 [label="mse = -0.0\nsamples = 1\nvalue = 0.083"] ;
674 -> 676 ;
677 [label="mse = -0.0\nsamples = 1\nvalue = 0.129"] ;
669 -> 677 ;
678 [label="X[2] <= 2.06\nmse = 0.0\nsamples = 7\nvalue = 0.011"] ;
598 -> 678 ;
679 [label="X[1] <= 94.407\nmse = 0.0\nsamples = 2\nvalue = 0.038"] ;
678 -> 679 ;
680 [label="mse = 0.0\nsamples = 1\nvalue = 0.052"] ;
679 -> 680 ;
681 [label="mse = 0.0\nsamples = 1\nvalue = 0.024"] ;
679 -> 681 ;
682 [label="mse = 0.0\nsamples = 5\nvalue = 0.0"] ;
678 -> 682 ;
683 [label="X[0] <= 82638.273\nmse = 0.002\nsamples = 32\nvalue = 0.072"] ;
597 -> 683 ;
684 [label="X[2] <= 5.07\nmse = 0.001\nsamples = 11\nvalue = 0.107"] ;
683 -> 684 ;
685 [label="X[3] <= 71.559\nmse = 0.001\nsamples = 3\nvalue = 0.074"] ;
684 -> 685 ;
686 [label="X[2] <= 4.642\nmse = 0.0\nsamples = 2\nvalue = 0.055"] ;
685 -> 686 ;
687 [label="mse = 0.0\nsamples = 1\nvalue = 0.055"] ;
686 -> 687 ;
688 [label="mse = 0.0\nsamples = 1\nvalue = 0.056"] ;
686 -> 688 ;
689 [label="mse = 0.0\nsamples = 1\nvalue = 0.11"] ;
685 -> 689 ;
690 [label="X[3] <= 75.862\nmse = 0.0\nsamples = 8\nvalue = 0.119"] ;
684 -> 690 ;
691 [label="X[3] <= 73.009\nmse = 0.0\nsamples = 7\nvalue = 0.114"] ;
690 -> 691 ;
692 [label="X[3] <= 67.164\nmse = 0.0\nsamples = 5\nvalue = 0.122"] ;
691 -> 692 ;
693 [label="mse = 0.0\nsamples = 1\nvalue = 0.134"] ;
692 -> 693 ;
694 [label="X[2] <= 6.262\nmse = 0.0\nsamples = 4\nvalue = 0.119"] ;
692 -> 694 ;
695 [label="X[2] <= 6.208\nmse = 0.0\nsamples = 3\nvalue = 0.114"] ;
694 -> 695 ;
696 [label="X[3] <= 71.103\nmse = 0.0\nsamples = 2\nvalue = 0.113"] ;
695 -> 696 ;
697 [label="mse = 0.0\nsamples = 1\nvalue = 0.112"] ;
696 -> 697 ;
698 [label="mse = 0.0\nsamples = 1\nvalue = 0.114"] ;
696 -> 698 ;
699 [label="mse = -0.0\nsamples = 1\nvalue = 0.117"] ;
695 -> 699 ;
700 [label="mse = -0.0\nsamples = 1\nvalue = 0.133"] ;
694 -> 700 ;
701 [label="X[0] <= 79411.0\nmse = 0.0\nsamples = 2\nvalue = 0.093"] ;
691 -> 701 ;
702 [label="mse = 0.0\nsamples = 1\nvalue = 0.083"] ;
701 -> 702 ;
703 [label="mse = 0.0\nsamples = 1\nvalue = 0.104"] ;
701 -> 703 ;
704 [label="mse = 0.0\nsamples = 1\nvalue = 0.159"] ;
690 -> 704 ;
705 [label="X[2] <= 5.367\nmse = 0.002\nsamples = 21\nvalue = 0.054"] ;
683 -> 705 ;
706 [label="X[2] <= 4.391\nmse = 0.0\nsamples = 7\nvalue = 0.018"] ;
705 -> 706 ;
707 [label="X[3] <= 72.103\nmse = 0.0\nsamples = 3\nvalue = 0.029"] ;
706 -> 707 ;
708 [label="X[2] <= 4.049\nmse = 0.0\nsamples = 2\nvalue = 0.033"] ;
707 -> 708 ;
709 [label="mse = 0.0\nsamples = 1\nvalue = 0.031"] ;
708 -> 709 ;
710 [label="mse = 0.0\nsamples = 1\nvalue = 0.035"] ;
708 -> 710 ;
711 [label="mse = -0.0\nsamples = 1\nvalue = 0.02"] ;
707 -> 711 ;
712 [label="X[3] <= 73.401\nmse = 0.0\nsamples = 4\nvalue = 0.01"] ;
706 -> 712 ;
713 [label="mse = 0.0\nsamples = 2\nvalue = 0.0"] ;
712 -> 713 ;
714 [label="X[2] <= 4.744\nmse = 0.0\nsamples = 2\nvalue = 0.019"] ;
712 -> 714 ;
715 [label="mse = 0.0\nsamples = 1\nvalue = 0.007"] ;
714 -> 715 ;
716 [label="mse = 0.0\nsamples = 1\nvalue = 0.031"] ;
714 -> 716 ;
717 [label="X[2] <= 5.557\nmse = 0.002\nsamples = 14\nvalue = 0.073"] ;
705 -> 717 ;
718 [label="X[2] <= 5.414\nmse = 0.0\nsamples = 4\nvalue = 0.099"] ;
717 -> 718 ;
719 [label="mse = 0.0\nsamples = 1\nvalue = 0.085"] ;
718 -> 719 ;
720 [label="X[2] <= 5.479\nmse = 0.001\nsamples = 3\nvalue = 0.104"] ;
718 -> 720 ;
721 [label="mse = 0.001\nsamples = 2\nvalue = 0.106"] ;
720 -> 721 ;
722 [label="mse = 0.0\nsamples = 1\nvalue = 0.101"] ;
720 -> 722 ;
723 [label="X[2] <= 6.144\nmse = 0.002\nsamples = 10\nvalue = 0.062"] ;
717 -> 723 ;
724 [label="X[2] <= 5.643\nmse = 0.001\nsamples = 8\nvalue = 0.05"] ;
723 -> 724 ;
725 [label="mse = 0.0\nsamples = 1\nvalue = 0.0"] ;
724 -> 725 ;
726 [label="X[2] <= 5.68\nmse = 0.001\nsamples = 7\nvalue = 0.057"] ;
724 -> 726 ;
727 [label="X[2] <= 5.676\nmse = 0.0\nsamples = 2\nvalue = 0.098"] ;
726 -> 727 ;
728 [label="mse = 0.0\nsamples = 1\nvalue = 0.098"] ;
727 -> 728 ;
729 [label="mse = 0.0\nsamples = 1\nvalue = 0.099"] ;
727 -> 729 ;
730 [label="X[2] <= 5.714\nmse = 0.0\nsamples = 5\nvalue = 0.04"] ;
726 -> 730 ;
731 [label="mse = 0.0\nsamples = 1\nvalue = 0.0"] ;
730 -> 731 ;
732 [label="X[3] <= 77.231\nmse = 0.0\nsamples = 4\nvalue = 0.05"] ;
730 -> 732 ;
733 [label="X[3] <= 72.984\nmse = 0.0\nsamples = 3\nvalue = 0.047"] ;
732 -> 733 ;
734 [label="X[0] <= 84271.273\nmse = 0.0\nsamples = 2\nvalue = 0.053"] ;
733 -> 734 ;
735 [label="mse = 0.0\nsamples = 1\nvalue = 0.048"] ;
734 -> 735 ;
736 [label="mse = 0.0\nsamples = 1\nvalue = 0.057"] ;
734 -> 736 ;
737 [label="mse = 0.0\nsamples = 1\nvalue = 0.036"] ;
733 -> 737 ;
738 [label="mse = -0.0\nsamples = 1\nvalue = 0.059"] ;
732 -> 738 ;
739 [label="X[3] <= 73.714\nmse = 0.0\nsamples = 2\nvalue = 0.111"] ;
723 -> 739 ;
740 [label="mse = 0.0\nsamples = 1\nvalue = 0.133"] ;
739 -> 740 ;
741 [label="mse = 0.0\nsamples = 1\nvalue = 0.09"] ;
739 -> 741 ;
742 [label="X[1] <= 94.85\nmse = 0.003\nsamples = 136\nvalue = 0.095"] ;
596 -> 742 ;
743 [label="X[1] <= 93.095\nmse = 0.003\nsamples = 127\nvalue = 0.099"] ;
742 -> 743 ;
744 [label="X[3] <= 66.212\nmse = 0.003\nsamples = 111\nvalue = 0.093"] ;
743 -> 744 ;
745 [label="X[3] <= 63.534\nmse = 0.002\nsamples = 11\nvalue = 0.127"] ;
744 -> 745 ;
746 [label="X[2] <= 8.948\nmse = 0.0\nsamples = 2\nvalue = 0.066"] ;
745 -> 746 ;
747 [label="mse = 0.0\nsamples = 1\nvalue = 0.044"] ;
746 -> 747 ;
748 [label="mse = -0.0\nsamples = 1\nvalue = 0.087"] ;
746 -> 748 ;
749 [label="X[3] <= 63.909\nmse = 0.001\nsamples = 9\nvalue = 0.141"] ;
745 -> 749 ;
750 [label="X[2] <= 10.703\nmse = 0.0\nsamples = 2\nvalue = 0.174"] ;
749 -> 750 ;
751 [label="mse = 0.0\nsamples = 1\nvalue = 0.195"] ;
750 -> 751 ;
752 [label="mse = 0.0\nsamples = 1\nvalue = 0.152"] ;
750 -> 752 ;
753 [label="X[3] <= 64.689\nmse = 0.001\nsamples = 7\nvalue = 0.131"] ;
749 -> 753 ;
754 [label="X[3] <= 64.21\nmse = 0.0\nsamples = 2\nvalue = 0.1"] ;
753 -> 754 ;
755 [label="mse = 0.0\nsamples = 1\nvalue = 0.089"] ;
754 -> 755 ;
756 [label="mse = 0.0\nsamples = 1\nvalue = 0.112"] ;
754 -> 756 ;
757 [label="X[0] <= 69452.5\nmse = 0.001\nsamples = 5\nvalue = 0.144"] ;
753 -> 757 ;
758 [label="X[1] <= 78.3\nmse = 0.001\nsamples = 4\nvalue = 0.136"] ;
757 -> 758 ;
759 [label="X[2] <= 10.454\nmse = 0.0\nsamples = 3\nvalue = 0.151"] ;
758 -> 759 ;
760 [label="mse = 0.0\nsamples = 1\nvalue = 0.174"] ;
759 -> 760 ;
761 [label="X[3] <= 65.587\nmse = 0.0\nsamples = 2\nvalue = 0.139"] ;
759 -> 761 ;
762 [label="mse = 0.0\nsamples = 1\nvalue = 0.135"] ;
761 -> 762 ;
763 [label="mse = -0.0\nsamples = 1\nvalue = 0.142"] ;
761 -> 763 ;
764 [label="mse = -0.0\nsamples = 1\nvalue = 0.093"] ;
758 -> 764 ;
765 [label="mse = 0.0\nsamples = 1\nvalue = 0.174"] ;
757 -> 765 ;
766 [label="X[0] <= 25384.446\nmse = 0.003\nsamples = 100\nvalue = 0.089"] ;
744 -> 766 ;
767 [label="mse = 0.0\nsamples = 1\nvalue = 0.0"] ;
766 -> 767 ;
768 [label="X[2] <= 9.079\nmse = 0.003\nsamples = 99\nvalue = 0.09"] ;
766 -> 768 ;
769 [label="X[2] <= 7.463\nmse = 0.002\nsamples = 50\nvalue = 0.081"] ;
768 -> 769 ;
770 [label="X[2] <= 6.978\nmse = 0.002\nsamples = 24\nvalue = 0.099"] ;
769 -> 770 ;
771 [label="X[2] <= 6.965\nmse = 0.001\nsamples = 13\nvalue = 0.082"] ;
770 -> 771 ;
772 [label="X[2] <= 6.632\nmse = 0.001\nsamples = 12\nvalue = 0.088"] ;
771 -> 772 ;
773 [label="X[1] <= 73.5\nmse = 0.0\nsamples = 6\nvalue = 0.104"] ;
772 -> 773 ;
774 [label="mse = 0.0\nsamples = 1\nvalue = 0.069"] ;
773 -> 774 ;
775 [label="X[3] <= 71.717\nmse = 0.0\nsamples = 5\nvalue = 0.111"] ;
773 -> 775 ;
776 [label="mse = 0.0\nsamples = 1\nvalue = 0.134"] ;
775 -> 776 ;
777 [label="X[3] <= 72.538\nmse = 0.0\nsamples = 4\nvalue = 0.105"] ;
775 -> 777 ;
778 [label="mse = 0.0\nsamples = 1\nvalue = 0.094"] ;
777 -> 778 ;
779 [label="X[1] <= 76.25\nmse = 0.0\nsamples = 3\nvalue = 0.109"] ;
777 -> 779 ;
780 [label="mse = 0.0\nsamples = 1\nvalue = 0.121"] ;
779 -> 780 ;
781 [label="X[1] <= 82.95\nmse = 0.0\nsamples = 2\nvalue = 0.103"] ;
779 -> 781 ;
782 [label="mse = 0.0\nsamples = 1\nvalue = 0.105"] ;
781 -> 782 ;
783 [label="mse = -0.0\nsamples = 1\nvalue = 0.1"] ;
781 -> 783 ;
784 [label="X[2] <= 6.933\nmse = 0.001\nsamples = 6\nvalue = 0.073"] ;
772 -> 784 ;
785 [label="X[1] <= 86.0\nmse = 0.0\nsamples = 5\nvalue = 0.064"] ;
784 -> 785 ;
786 [label="mse = 0.0\nsamples = 1\nvalue = 0.04"] ;
785 -> 786 ;
787 [label="X[2] <= 6.643\nmse = 0.0\nsamples = 4\nvalue = 0.07"] ;
785 -> 787 ;
788 [label="mse = 0.0\nsamples = 1\nvalue = 0.051"] ;
787 -> 788 ;
789 [label="X[2] <= 6.818\nmse = 0.0\nsamples = 3\nvalue = 0.076"] ;
787 -> 789 ;
790 [label="X[0] <= 69385.029\nmse = 0.0\nsamples = 2\nvalue = 0.08"] ;
789 -> 790 ;
791 [label="mse = 0.0\nsamples = 1\nvalue = 0.078"] ;
790 -> 791 ;
792 [label="mse = -0.0\nsamples = 1\nvalue = 0.082"] ;
790 -> 792 ;
793 [label="mse = 0.0\nsamples = 1\nvalue = 0.068"] ;
789 -> 793 ;
794 [label="mse = 0.0\nsamples = 1\nvalue = 0.118"] ;
784 -> 794 ;
795 [label="mse = -0.0\nsamples = 1\nvalue = 0.008"] ;
771 -> 795 ;
796 [label="X[2] <= 7.058\nmse = 0.002\nsamples = 11\nvalue = 0.118"] ;
770 -> 796 ;
797 [label="X[1] <= 81.25\nmse = 0.0\nsamples = 2\nvalue = 0.15"] ;
796 -> 797 ;
798 [label="mse = 0.0\nsamples = 1\nvalue = 0.141"] ;
797 -> 798 ;
799 [label="mse = -0.0\nsamples = 1\nvalue = 0.16"] ;
797 -> 799 ;
800 [label="X[2] <= 7.087\nmse = 0.002\nsamples = 9\nvalue = 0.111"] ;
796 -> 800 ;
801 [label="X[1] <= 81.25\nmse = 0.001\nsamples = 2\nvalue = 0.062"] ;
800 -> 801 ;
802 [label="mse = 0.0\nsamples = 1\nvalue = 0.038"] ;
801 -> 802 ;
803 [label="mse = 0.0\nsamples = 1\nvalue = 0.085"] ;
801 -> 803 ;
804 [label="X[1] <= 79.85\nmse = 0.001\nsamples = 7\nvalue = 0.126"] ;
800 -> 804 ;
805 [label="X[3] <= 77.242\nmse = 0.0\nsamples = 4\nvalue = 0.147"] ;
804 -> 805 ;
806 [label="X[0] <= 58383.0\nmse = 0.0\nsamples = 2\nvalue = 0.166"] ;
805 -> 806 ;
807 [label="mse = 0.0\nsamples = 1\nvalue = 0.157"] ;
806 -> 807 ;
808 [label="mse = 0.0\nsamples = 1\nvalue = 0.176"] ;
806 -> 808 ;
809 [label="X[2] <= 7.228\nmse = 0.0\nsamples = 2\nvalue = 0.128"] ;
805 -> 809 ;
810 [label="mse = 0.0\nsamples = 1\nvalue = 0.14"] ;
809 -> 810 ;
811 [label="mse = 0.0\nsamples = 1\nvalue = 0.116"] ;
809 -> 811 ;
812 [label="X[0] <= 49949.951\nmse = 0.001\nsamples = 3\nvalue = 0.097"] ;
804 -> 812 ;
813 [label="mse = 0.0\nsamples = 1\nvalue = 0.133"] ;
812 -> 813 ;
814 [label="X[3] <= 73.967\nmse = 0.0\nsamples = 2\nvalue = 0.078"] ;
812 -> 814 ;
815 [label="mse = 0.0\nsamples = 1\nvalue = 0.075"] ;
814 -> 815 ;
816 [label="mse = 0.0\nsamples = 1\nvalue = 0.082"] ;
814 -> 816 ;
817 [label="X[1] <= 86.0\nmse = 0.002\nsamples = 26\nvalue = 0.064"] ;
769 -> 817 ;
818 [label="X[0] <= 62768.0\nmse = 0.002\nsamples = 24\nvalue = 0.059"] ;
817 -> 818 ;
819 [label="X[3] <= 76.4\nmse = 0.002\nsamples = 20\nvalue = 0.065"] ;
818 -> 819 ;
820 [label="X[3] <= 73.75\nmse = 0.002\nsamples = 18\nvalue = 0.07"] ;
819 -> 820 ;
821 [label="X[2] <= 7.656\nmse = 0.002\nsamples = 15\nvalue = 0.062"] ;
820 -> 821 ;
822 [label="mse = 0.0\nsamples = 1\nvalue = 0.0"] ;
821 -> 822 ;
823 [label="X[2] <= 8.068\nmse = 0.001\nsamples = 14\nvalue = 0.066"] ;
821 -> 823 ;
824 [label="X[2] <= 7.875\nmse = 0.0\nsamples = 3\nvalue = 0.106"] ;
823 -> 824 ;
825 [label="mse = 0.0\nsamples = 1\nvalue = 0.109"] ;
824 -> 825 ;
826 [label="X[1] <= 78.3\nmse = 0.0\nsamples = 2\nvalue = 0.104"] ;
824 -> 826 ;
827 [label="mse = 0.0\nsamples = 1\nvalue = 0.103"] ;
826 -> 827 ;
828 [label="mse = 0.0\nsamples = 1\nvalue = 0.106"] ;
826 -> 828 ;
829 [label="X[3] <= 71.129\nmse = 0.001\nsamples = 11\nvalue = 0.055"] ;
823 -> 829 ;
830 [label="mse = 0.0\nsamples = 2\nvalue = 0.0"] ;
829 -> 830 ;
831 [label="X[3] <= 72.441\nmse = 0.001\nsamples = 9\nvalue = 0.068"] ;
829 -> 831 ;
832 [label="X[3] <= 72.095\nmse = 0.0\nsamples = 2\nvalue = 0.105"] ;
831 -> 832 ;
833 [label="mse = 0.0\nsamples = 1\nvalue = 0.115"] ;
832 -> 833 ;
834 [label="mse = 0.0\nsamples = 1\nvalue = 0.095"] ;
832 -> 834 ;
835 [label="X[2] <= 8.224\nmse = 0.0\nsamples = 7\nvalue = 0.057"] ;
831 -> 835 ;
836 [label="mse = 0.0\nsamples = 1\nvalue = 0.016"] ;
835 -> 836 ;
837 [label="X[3] <= 72.792\nmse = 0.0\nsamples = 6\nvalue = 0.064"] ;
835 -> 837 ;
838 [label="X[3] <= 72.599\nmse = 0.0\nsamples = 2\nvalue = 0.052"] ;
837 -> 838 ;
839 [label="mse = 0.0\nsamples = 1\nvalue = 0.06"] ;
838 -> 839 ;
840 [label="mse = -0.0\nsamples = 1\nvalue = 0.045"] ;
838 -> 840 ;
841 [label="X[2] <= 8.666\nmse = 0.0\nsamples = 4\nvalue = 0.07"] ;
837 -> 841 ;
842 [label="mse = 0.0\nsamples = 1\nvalue = 0.087"] ;
841 -> 842 ;
843 [label="X[2] <= 8.829\nmse = 0.0\nsamples = 3\nvalue = 0.065"] ;
841 -> 843 ;
844 [label="mse = 0.0\nsamples = 1\nvalue = 0.056"] ;
843 -> 844 ;
845 [label="X[2] <= 8.987\nmse = 0.0\nsamples = 2\nvalue = 0.069"] ;
843 -> 845 ;
846 [label="mse = 0.0\nsamples = 1\nvalue = 0.072"] ;
845 -> 846 ;
847 [label="mse = 0.0\nsamples = 1\nvalue = 0.066"] ;
845 -> 847 ;
848 [label="X[0] <= 59543.0\nmse = 0.0\nsamples = 3\nvalue = 0.109"] ;
820 -> 848 ;
849 [label="X[1] <= 80.649\nmse = 0.0\nsamples = 2\nvalue = 0.095"] ;
848 -> 849 ;
850 [label="mse = 0.0\nsamples = 1\nvalue = 0.098"] ;
849 -> 850 ;
851 [label="mse = 0.0\nsamples = 1\nvalue = 0.093"] ;
849 -> 851 ;
852 [label="mse = 0.0\nsamples = 1\nvalue = 0.137"] ;
848 -> 852 ;
853 [label="X[2] <= 8.469\nmse = 0.0\nsamples = 2\nvalue = 0.02"] ;
819 -> 853 ;
854 [label="mse = 0.0\nsamples = 1\nvalue = 0.0"] ;
853 -> 854 ;
855 [label="mse = 0.0\nsamples = 1\nvalue = 0.04"] ;
853 -> 855 ;
856 [label="X[2] <= 7.781\nmse = 0.001\nsamples = 4\nvalue = 0.031"] ;
818 -> 856 ;
857 [label="X[2] <= 7.586\nmse = 0.0\nsamples = 2\nvalue = 0.059"] ;
856 -> 857 ;
858 [label="mse = 0.0\nsamples = 1\nvalue = 0.077"] ;
857 -> 858 ;
859 [label="mse = 0.0\nsamples = 1\nvalue = 0.04"] ;
857 -> 859 ;
860 [label="X[0] <= 69062.0\nmse = 0.0\nsamples = 2\nvalue = 0.004"] ;
856 -> 860 ;
861 [label="mse = 0.0\nsamples = 1\nvalue = 0.0"] ;
860 -> 861 ;
862 [label="mse = 0.0\nsamples = 1\nvalue = 0.008"] ;
860 -> 862 ;
863 [label="X[0] <= 76507.0\nmse = 0.001\nsamples = 2\nvalue = 0.127"] ;
817 -> 863 ;
864 [label="mse = 0.0\nsamples = 1\nvalue = 0.151"] ;
863 -> 864 ;
865 [label="mse = 0.0\nsamples = 1\nvalue = 0.103"] ;
863 -> 865 ;
866 [label="X[0] <= 59543.0\nmse = 0.003\nsamples = 49\nvalue = 0.099"] ;
768 -> 866 ;
867 [label="X[3] <= 73.002\nmse = 0.003\nsamples = 22\nvalue = 0.08"] ;
866 -> 867 ;
868 [label="X[3] <= 69.178\nmse = 0.002\nsamples = 14\nvalue = 0.061"] ;
867 -> 868 ;
869 [label="X[2] <= 9.206\nmse = 0.0\nsamples = 5\nvalue = 0.105"] ;
868 -> 869 ;
870 [label="mse = 0.0\nsamples = 1\nvalue = 0.144"] ;
869 -> 870 ;
871 [label="X[0] <= 43352.446\nmse = 0.0\nsamples = 4\nvalue = 0.096"] ;
869 -> 871 ;
872 [label="mse = 0.0\nsamples = 1\nvalue = 0.083"] ;
871 -> 872 ;
873 [label="X[2] <= 9.876\nmse = 0.0\nsamples = 3\nvalue = 0.1"] ;
871 -> 873 ;
874 [label="mse = 0.0\nsamples = 1\nvalue = 0.088"] ;
873 -> 874 ;
875 [label="X[0] <= 56913.0\nmse = 0.0\nsamples = 2\nvalue = 0.106"] ;
873 -> 875 ;
876 [label="mse = 0.0\nsamples = 1\nvalue = 0.101"] ;
875 -> 876 ;
877 [label="mse = 0.0\nsamples = 1\nvalue = 0.111"] ;
875 -> 877 ;
878 [label="X[3] <= 71.242\nmse = 0.002\nsamples = 9\nvalue = 0.036"] ;
868 -> 878 ;
879 [label="mse = 0.0\nsamples = 3\nvalue = 0.0"] ;
878 -> 879 ;
880 [label="X[3] <= 71.431\nmse = 0.001\nsamples = 6\nvalue = 0.054"] ;
878 -> 880 ;
881 [label="X[1] <= 76.05\nmse = 0.0\nsamples = 2\nvalue = 0.093"] ;
880 -> 881 ;
882 [label="mse = 0.0\nsamples = 1\nvalue = 0.114"] ;
881 -> 882 ;
883 [label="mse = 0.0\nsamples = 1\nvalue = 0.071"] ;
881 -> 883 ;
884 [label="X[3] <= 71.933\nmse = 0.001\nsamples = 4\nvalue = 0.035"] ;
880 -> 884 ;
885 [label="X[3] <= 71.516\nmse = 0.0\nsamples = 2\nvalue = 0.009"] ;
884 -> 885 ;
886 [label="mse = 0.0\nsamples = 1\nvalue = 0.018"] ;
885 -> 886 ;
887 [label="mse = 0.0\nsamples = 1\nvalue = 0.0"] ;
885 -> 887 ;
888 [label="X[3] <= 72.591\nmse = 0.0\nsamples = 2\nvalue = 0.061"] ;
884 -> 888 ;
889 [label="mse = 0.0\nsamples = 1\nvalue = 0.07"] ;
888 -> 889 ;
890 [label="mse = 0.0\nsamples = 1\nvalue = 0.051"] ;
888 -> 890 ;
891 [label="X[2] <= 10.166\nmse = 0.001\nsamples = 8\nvalue = 0.113"] ;
867 -> 891 ;
892 [label="mse = 0.0\nsamples = 1\nvalue = 0.186"] ;
891 -> 892 ;
893 [label="X[2] <= 11.06\nmse = 0.001\nsamples = 7\nvalue = 0.102"] ;
891 -> 893 ;
894 [label="X[2] <= 10.241\nmse = 0.0\nsamples = 5\nvalue = 0.091"] ;
893 -> 894 ;
895 [label="mse = 0.0\nsamples = 1\nvalue = 0.116"] ;
894 -> 895 ;
896 [label="X[3] <= 74.425\nmse = 0.0\nsamples = 4\nvalue = 0.085"] ;
894 -> 896 ;
897 [label="X[2] <= 10.664\nmse = 0.0\nsamples = 2\nvalue = 0.096"] ;
896 -> 897 ;
898 [label="mse = 0.0\nsamples = 1\nvalue = 0.092"] ;
897 -> 898 ;
899 [label="mse = 0.0\nsamples = 1\nvalue = 0.101"] ;
897 -> 899 ;
900 [label="X[2] <= 10.348\nmse = 0.0\nsamples = 2\nvalue = 0.073"] ;
896 -> 900 ;
901 [label="mse = 0.0\nsamples = 1\nvalue = 0.076"] ;
900 -> 901 ;
902 [label="mse = 0.0\nsamples = 1\nvalue = 0.071"] ;
900 -> 902 ;
903 [label="X[2] <= 11.313\nmse = 0.0\nsamples = 2\nvalue = 0.13"] ;
893 -> 903 ;
904 [label="mse = 0.0\nsamples = 1\nvalue = 0.137"] ;
903 -> 904 ;
905 [label="mse = 0.0\nsamples = 1\nvalue = 0.122"] ;
903 -> 905 ;
906 [label="X[3] <= 73.567\nmse = 0.003\nsamples = 27\nvalue = 0.114"] ;
866 -> 906 ;
907 [label="X[2] <= 9.633\nmse = 0.003\nsamples = 21\nvalue = 0.124"] ;
906 -> 907 ;
908 [label="X[3] <= 69.156\nmse = 0.001\nsamples = 6\nvalue = 0.153"] ;
907 -> 908 ;
909 [label="X[2] <= 9.226\nmse = 0.0\nsamples = 2\nvalue = 0.11"] ;
908 -> 909 ;
910 [label="mse = 0.0\nsamples = 1\nvalue = 0.124"] ;
909 -> 910 ;
911 [label="mse = 0.0\nsamples = 1\nvalue = 0.096"] ;
909 -> 911 ;
912 [label="X[2] <= 9.518\nmse = 0.0\nsamples = 4\nvalue = 0.174"] ;
908 -> 912 ;
913 [label="X[2] <= 9.418\nmse = 0.0\nsamples = 3\nvalue = 0.168"] ;
912 -> 913 ;
914 [label="X[2] <= 9.3\nmse = 0.0\nsamples = 2\nvalue = 0.174"] ;
913 -> 914 ;
915 [label="mse = 0.0\nsamples = 1\nvalue = 0.175"] ;
914 -> 915 ;
916 [label="mse = 0.0\nsamples = 1\nvalue = 0.172"] ;
914 -> 916 ;
917 [label="mse = 0.0\nsamples = 1\nvalue = 0.158"] ;
913 -> 917 ;
918 [label="mse = 0.0\nsamples = 1\nvalue = 0.192"] ;
912 -> 918 ;
919 [label="X[3] <= 68.727\nmse = 0.003\nsamples = 15\nvalue = 0.113"] ;
907 -> 919 ;
920 [label="X[3] <= 68.227\nmse = 0.004\nsamples = 3\nvalue = 0.159"] ;
919 -> 920 ;
921 [label="X[0] <= 62078.5\nmse = 0.001\nsamples = 2\nvalue = 0.118"] ;
920 -> 921 ;
922 [label="mse = 0.0\nsamples = 1\nvalue = 0.146"] ;
921 -> 922 ;
923 [label="mse = 0.0\nsamples = 1\nvalue = 0.09"] ;
921 -> 923 ;
924 [label="mse = -0.0\nsamples = 1\nvalue = 0.241"] ;
920 -> 924 ;
925 [label="X[2] <= 9.892\nmse = 0.002\nsamples = 12\nvalue = 0.101"] ;
919 -> 925 ;
926 [label="X[0] <= 64431.0\nmse = 0.001\nsamples = 2\nvalue = 0.036"] ;
925 -> 926 ;
927 [label="mse = 0.0\nsamples = 1\nvalue = 0.0"] ;
926 -> 927 ;
928 [label="mse = 0.0\nsamples = 1\nvalue = 0.073"] ;
926 -> 928 ;
929 [label="X[3] <= 70.231\nmse = 0.001\nsamples = 10\nvalue = 0.114"] ;
925 -> 929 ;
930 [label="X[2] <= 10.758\nmse = 0.0\nsamples = 3\nvalue = 0.09"] ;
929 -> 930 ;
931 [label="mse = 0.0\nsamples = 1\nvalue = 0.079"] ;
930 -> 931 ;
932 [label="X[3] <= 69.5\nmse = 0.0\nsamples = 2\nvalue = 0.095"] ;
930 -> 932 ;
933 [label="mse = 0.0\nsamples = 1\nvalue = 0.099"] ;
932 -> 933 ;
934 [label="mse = -0.0\nsamples = 1\nvalue = 0.091"] ;
932 -> 934 ;
935 [label="X[3] <= 72.667\nmse = 0.001\nsamples = 7\nvalue = 0.125"] ;
929 -> 935 ;
936 [label="X[3] <= 72.092\nmse = 0.001\nsamples = 4\nvalue = 0.134"] ;
935 -> 936 ;
937 [label="X[3] <= 71.175\nmse = 0.0\nsamples = 3\nvalue = 0.121"] ;
936 -> 937 ;
938 [label="X[0] <= 65083.5\nmse = 0.0\nsamples = 2\nvalue = 0.137"] ;
937 -> 938 ;
939 [label="mse = 0.0\nsamples = 1\nvalue = 0.141"] ;
938 -> 939 ;
940 [label="mse = 0.0\nsamples = 1\nvalue = 0.133"] ;
938 -> 940 ;
941 [label="mse = -0.0\nsamples = 1\nvalue = 0.09"] ;
937 -> 941 ;
942 [label="mse = 0.0\nsamples = 1\nvalue = 0.17"] ;
936 -> 942 ;
943 [label="X[1] <= 87.85\nmse = 0.0\nsamples = 3\nvalue = 0.113"] ;
935 -> 943 ;
944 [label="X[1] <= 81.35\nmse = 0.0\nsamples = 2\nvalue = 0.107"] ;
943 -> 944 ;
945 [label="mse = 0.0\nsamples = 1\nvalue = 0.103"] ;
944 -> 945 ;
946 [label="mse = -0.0\nsamples = 1\nvalue = 0.111"] ;
944 -> 946 ;
947 [label="mse = 0.0\nsamples = 1\nvalue = 0.125"] ;
943 -> 947 ;
948 [label="X[3] <= 77.348\nmse = 0.003\nsamples = 6\nvalue = 0.08"] ;
906 -> 948 ;
949 [label="X[3] <= 74.207\nmse = 0.001\nsamples = 5\nvalue = 0.062"] ;
948 -> 949 ;
950 [label="mse = 0.0\nsamples = 1\nvalue = 0.0"] ;
949 -> 950 ;
951 [label="X[1] <= 77.1\nmse = 0.001\nsamples = 4\nvalue = 0.078"] ;
949 -> 951 ;
952 [label="mse = 0.0\nsamples = 1\nvalue = 0.111"] ;
951 -> 952 ;
953 [label="X[0] <= 72913.0\nmse = 0.0\nsamples = 3\nvalue = 0.066"] ;
951 -> 953 ;
954 [label="X[2] <= 9.716\nmse = 0.0\nsamples = 2\nvalue = 0.056"] ;
953 -> 954 ;
955 [label="mse = 0.0\nsamples = 1\nvalue = 0.06"] ;
954 -> 955 ;
956 [label="mse = 0.0\nsamples = 1\nvalue = 0.052"] ;
954 -> 956 ;
957 [label="mse = -0.0\nsamples = 1\nvalue = 0.086"] ;
953 -> 957 ;
958 [label="mse = 0.0\nsamples = 1\nvalue = 0.169"] ;
948 -> 958 ;
959 [label="X[3] <= 73.8\nmse = 0.0\nsamples = 16\nvalue = 0.143"] ;
743 -> 959 ;
960 [label="X[2] <= 9.646\nmse = 0.0\nsamples = 13\nvalue = 0.148"] ;
959 -> 960 ;
961 [label="X[2] <= 9.296\nmse = 0.0\nsamples = 10\nvalue = 0.155"] ;
960 -> 961 ;
962 [label="X[2] <= 8.757\nmse = 0.0\nsamples = 6\nvalue = 0.147"] ;
961 -> 962 ;
963 [label="X[2] <= 8.151\nmse = 0.0\nsamples = 3\nvalue = 0.152"] ;
962 -> 963 ;
964 [label="mse = 0.0\nsamples = 1\nvalue = 0.151"] ;
963 -> 964 ;
965 [label="mse = 0.0\nsamples = 2\nvalue = 0.152"] ;
963 -> 965 ;
966 [label="X[2] <= 9.113\nmse = 0.0\nsamples = 3\nvalue = 0.142"] ;
962 -> 966 ;
967 [label="X[2] <= 9.017\nmse = 0.0\nsamples = 2\nvalue = 0.144"] ;
966 -> 967 ;
968 [label="mse = 0.0\nsamples = 1\nvalue = 0.145"] ;
967 -> 968 ;
969 [label="mse = -0.0\nsamples = 1\nvalue = 0.143"] ;
967 -> 969 ;
970 [label="mse = -0.0\nsamples = 1\nvalue = 0.137"] ;
966 -> 970 ;
971 [label="X[3] <= 69.143\nmse = 0.0\nsamples = 4\nvalue = 0.167"] ;
961 -> 971 ;
972 [label="X[2] <= 9.525\nmse = 0.0\nsamples = 2\nvalue = 0.169"] ;
971 -> 972 ;
973 [label="mse = 0.0\nsamples = 1\nvalue = 0.17"] ;
972 -> 973 ;
974 [label="mse = 0.0\nsamples = 1\nvalue = 0.168"] ;
972 -> 974 ;
975 [label="mse = 0.0\nsamples = 2\nvalue = 0.166"] ;
971 -> 975 ;
976 [label="X[3] <= 68.159\nmse = 0.0\nsamples = 3\nvalue = 0.125"] ;
960 -> 976 ;
977 [label="mse = 0.0\nsamples = 1\nvalue = 0.144"] ;
976 -> 977 ;
978 [label="X[2] <= 10.04\nmse = 0.0\nsamples = 2\nvalue = 0.116"] ;
976 -> 978 ;
979 [label="mse = 0.0\nsamples = 1\nvalue = 0.111"] ;
978 -> 979 ;
980 [label="mse = 0.0\nsamples = 1\nvalue = 0.12"] ;
978 -> 980 ;
981 [label="X[3] <= 78.158\nmse = 0.0\nsamples = 3\nvalue = 0.122"] ;
959 -> 981 ;
982 [label="X[2] <= 8.698\nmse = 0.0\nsamples = 2\nvalue = 0.11"] ;
981 -> 982 ;
983 [label="mse = 0.0\nsamples = 1\nvalue = 0.114"] ;
982 -> 983 ;
984 [label="mse = 0.0\nsamples = 1\nvalue = 0.106"] ;
982 -> 984 ;
985 [label="mse = 0.0\nsamples = 1\nvalue = 0.147"] ;
981 -> 985 ;
986 [label="X[3] <= 68.086\nmse = 0.001\nsamples = 9\nvalue = 0.04"] ;
742 -> 986 ;
987 [label="mse = 0.0\nsamples = 1\nvalue = 0.094"] ;
986 -> 987 ;
988 [label="X[3] <= 77.678\nmse = 0.001\nsamples = 8\nvalue = 0.034"] ;
986 -> 988 ;
989 [label="X[2] <= 11.199\nmse = 0.001\nsamples = 7\nvalue = 0.025"] ;
988 -> 989 ;
990 [label="X[3] <= 76.086\nmse = 0.001\nsamples = 5\nvalue = 0.019"] ;
989 -> 990 ;
991 [label="X[3] <= 72.283\nmse = 0.0\nsamples = 4\nvalue = 0.012"] ;
990 -> 991 ;
992 [label="X[0] <= 61576.5\nmse = 0.001\nsamples = 2\nvalue = 0.025"] ;
991 -> 992 ;
993 [label="mse = 0.0\nsamples = 1\nvalue = 0.0"] ;
992 -> 993 ;
994 [label="mse = 0.0\nsamples = 1\nvalue = 0.05"] ;
992 -> 994 ;
995 [label="mse = 0.0\nsamples = 2\nvalue = 0.0"] ;
991 -> 995 ;
996 [label="mse = 0.0\nsamples = 1\nvalue = 0.043"] ;
990 -> 996 ;
997 [label="X[2] <= 11.214\nmse = 0.001\nsamples = 2\nvalue = 0.042"] ;
989 -> 997 ;
998 [label="mse = 0.0\nsamples = 1\nvalue = 0.065"] ;
997 -> 998 ;
999 [label="mse = -0.0\nsamples = 1\nvalue = 0.019"] ;
997 -> 999 ;
1000 [label="mse = 0.0\nsamples = 1\nvalue = 0.094"] ;
988 -> 1000 ;
1001 [label="X[1] <= 74.65\nmse = 0.003\nsamples = 171\nvalue = 0.064"] ;
595 -> 1001 ;
1002 [label="X[3] <= 75.583\nmse = 0.004\nsamples = 32\nvalue = 0.087"] ;
1001 -> 1002 ;
1003 [label="X[3] <= 74.514\nmse = 0.003\nsamples = 25\nvalue = 0.074"] ;
1002 -> 1003 ;
1004 [label="X[3] <= 73.875\nmse = 0.003\nsamples = 22\nvalue = 0.081"] ;
1003 -> 1004 ;
1005 [label="X[2] <= 12.032\nmse = 0.002\nsamples = 20\nvalue = 0.071"] ;
1004 -> 1005 ;
1006 [label="X[2] <= 11.756\nmse = 0.001\nsamples = 3\nvalue = 0.113"] ;
1005 -> 1006 ;
1007 [label="X[0] <= 55753.0\nmse = 0.0\nsamples = 2\nvalue = 0.096"] ;
1006 -> 1007 ;
1008 [label="mse = 0.0\nsamples = 1\nvalue = 0.106"] ;
1007 -> 1008 ;
1009 [label="mse = 0.0\nsamples = 1\nvalue = 0.085"] ;
1007 -> 1009 ;
1010 [label="mse = -0.0\nsamples = 1\nvalue = 0.149"] ;
1006 -> 1010 ;
1011 [label="X[2] <= 12.683\nmse = 0.001\nsamples = 17\nvalue = 0.063"] ;
1005 -> 1011 ;
1012 [label="X[2] <= 12.315\nmse = 0.001\nsamples = 3\nvalue = 0.021"] ;
1011 -> 1012 ;
1013 [label="mse = 0.0\nsamples = 1\nvalue = 0.062"] ;
1012 -> 1013 ;
1014 [label="mse = 0.0\nsamples = 2\nvalue = 0.0"] ;
1012 -> 1014 ;
1015 [label="X[3] <= 65.279\nmse = 0.001\nsamples = 14\nvalue = 0.072"] ;
1011 -> 1015 ;
1016 [label="X[1] <= 72.8\nmse = 0.001\nsamples = 3\nvalue = 0.043"] ;
1015 -> 1016 ;
1017 [label="mse = 0.001\nsamples = 2\nvalue = 0.029"] ;
1016 -> 1017 ;
1018 [label="mse = 0.0\nsamples = 1\nvalue = 0.07"] ;
1016 -> 1018 ;
1019 [label="X[3] <= 72.467\nmse = 0.001\nsamples = 11\nvalue = 0.08"] ;
1015 -> 1019 ;
1020 [label="X[3] <= 67.832\nmse = 0.0\nsamples = 5\nvalue = 0.108"] ;
1019 -> 1020 ;
1021 [label="mse = 0.0\nsamples = 1\nvalue = 0.09"] ;
1020 -> 1021 ;
1022 [label="X[2] <= 21.874\nmse = 0.0\nsamples = 4\nvalue = 0.113"] ;
1020 -> 1022 ;
1023 [label="X[2] <= 17.664\nmse = 0.0\nsamples = 2\nvalue = 0.118"] ;
1022 -> 1023 ;
1024 [label="mse = 0.0\nsamples = 1\nvalue = 0.117"] ;
1023 -> 1024 ;
1025 [label="mse = 0.0\nsamples = 1\nvalue = 0.12"] ;
1023 -> 1025 ;
1026 [label="X[2] <= 25.363\nmse = 0.0\nsamples = 2\nvalue = 0.107"] ;
1022 -> 1026 ;
1027 [label="mse = 0.0\nsamples = 1\nvalue = 0.105"] ;
1026 -> 1027 ;
1028 [label="mse = 0.0\nsamples = 1\nvalue = 0.11"] ;
1026 -> 1028 ;
1029 [label="X[1] <= 72.8\nmse = 0.0\nsamples = 6\nvalue = 0.057"] ;
1019 -> 1029 ;
1030 [label="mse = 0.0\nsamples = 1\nvalue = 0.081"] ;
1029 -> 1030 ;
1031 [label="X[2] <= 20.77\nmse = 0.0\nsamples = 5\nvalue = 0.052"] ;
1029 -> 1031 ;
1032 [label="mse = 0.0\nsamples = 1\nvalue = 0.031"] ;
1031 -> 1032 ;
1033 [label="X[3] <= 72.823\nmse = 0.0\nsamples = 4\nvalue = 0.057"] ;
1031 -> 1033 ;
1034 [label="mse = 0.0\nsamples = 1\nvalue = 0.049"] ;
1033 -> 1034 ;
1035 [label="X[3] <= 73.023\nmse = 0.0\nsamples = 3\nvalue = 0.06"] ;
1033 -> 1035 ;
1036 [label="mse = 0.0\nsamples = 1\nvalue = 0.059"] ;
1035 -> 1036 ;
1037 [label="X[2] <= 21.936\nmse = 0.0\nsamples = 2\nvalue = 0.06"] ;
1035 -> 1037 ;
1038 [label="mse = 0.0\nsamples = 1\nvalue = 0.06"] ;
1037 -> 1038 ;
1039 [label="mse = -0.0\nsamples = 1\nvalue = 0.061"] ;
1037 -> 1039 ;
1040 [label="X[2] <= 15.746\nmse = 0.009\nsamples = 2\nvalue = 0.182"] ;
1004 -> 1040 ;
1041 [label="mse = 0.0\nsamples = 1\nvalue = 0.085"] ;
1040 -> 1041 ;
1042 [label="mse = 0.0\nsamples = 1\nvalue = 0.28"] ;
1040 -> 1042 ;
1043 [label="X[3] <= 74.978\nmse = 0.001\nsamples = 3\nvalue = 0.027"] ;
1003 -> 1043 ;
1044 [label="mse = 0.0\nsamples = 2\nvalue = 0.0"] ;
1043 -> 1044 ;
1045 [label="mse = 0.0\nsamples = 1\nvalue = 0.082"] ;
1043 -> 1045 ;
1046 [label="X[2] <= 19.256\nmse = 0.004\nsamples = 7\nvalue = 0.131"] ;
1002 -> 1046 ;
1047 [label="X[3] <= 76.74\nmse = 0.0\nsamples = 2\nvalue = 0.074"] ;
1046 -> 1047 ;
1048 [label="mse = 0.0\nsamples = 1\nvalue = 0.094"] ;
1047 -> 1048 ;
1049 [label="mse = 0.0\nsamples = 1\nvalue = 0.054"] ;
1047 -> 1049 ;
1050 [label="X[2] <= 19.812\nmse = 0.003\nsamples = 5\nvalue = 0.153"] ;
1046 -> 1050 ;
1051 [label="mse = 0.0\nsamples = 1\nvalue = 0.254"] ;
1050 -> 1051 ;
1052 [label="X[3] <= 78.042\nmse = 0.001\nsamples = 4\nvalue = 0.128"] ;
1050 -> 1052 ;
1053 [label="X[3] <= 76.55\nmse = 0.0\nsamples = 3\nvalue = 0.141"] ;
1052 -> 1053 ;
1054 [label="mse = 0.0\nsamples = 1\nvalue = 0.118"] ;
1053 -> 1054 ;
1055 [label="X[2] <= 20.764\nmse = 0.0\nsamples = 2\nvalue = 0.152"] ;
1053 -> 1055 ;
1056 [label="mse = 0.0\nsamples = 1\nvalue = 0.147"] ;
1055 -> 1056 ;
1057 [label="mse = -0.0\nsamples = 1\nvalue = 0.157"] ;
1055 -> 1057 ;
1058 [label="mse = -0.0\nsamples = 1\nvalue = 0.091"] ;
1052 -> 1058 ;
1059 [label="X[1] <= 83.969\nmse = 0.002\nsamples = 139\nvalue = 0.058"] ;
1001 -> 1059 ;
1060 [label="X[3] <= 71.583\nmse = 0.002\nsamples = 66\nvalue = 0.045"] ;
1059 -> 1060 ;
1061 [label="X[3] <= 67.367\nmse = 0.002\nsamples = 43\nvalue = 0.056"] ;
1060 -> 1061 ;
1062 [label="X[2] <= 13.917\nmse = 0.001\nsamples = 18\nvalue = 0.039"] ;
1061 -> 1062 ;
1063 [label="X[3] <= 66.325\nmse = 0.001\nsamples = 5\nvalue = 0.015"] ;
1062 -> 1063 ;
1064 [label="mse = 0.0\nsamples = 2\nvalue = 0.0"] ;
1063 -> 1064 ;
1065 [label="X[3] <= 66.75\nmse = 0.001\nsamples = 3\nvalue = 0.024"] ;
1063 -> 1065 ;
1066 [label="mse = 0.0\nsamples = 1\nvalue = 0.073"] ;
1065 -> 1066 ;
1067 [label="mse = 0.0\nsamples = 2\nvalue = 0.0"] ;
1065 -> 1067 ;
1068 [label="X[2] <= 17.153\nmse = 0.001\nsamples = 13\nvalue = 0.048"] ;
1062 -> 1068 ;
1069 [label="X[1] <= 75.3\nmse = 0.0\nsamples = 4\nvalue = 0.083"] ;
1068 -> 1069 ;
1070 [label="X[2] <= 16.34\nmse = 0.0\nsamples = 3\nvalue = 0.089"] ;
1069 -> 1070 ;
1071 [label="mse = 0.0\nsamples = 1\nvalue = 0.11"] ;
1070 -> 1071 ;
1072 [label="X[3] <= 66.033\nmse = 0.0\nsamples = 2\nvalue = 0.079"] ;
1070 -> 1072 ;
1073 [label="mse = 0.0\nsamples = 1\nvalue = 0.085"] ;
1072 -> 1073 ;
1074 [label="mse = 0.0\nsamples = 1\nvalue = 0.073"] ;
1072 -> 1074 ;
1075 [label="mse = 0.0\nsamples = 1\nvalue = 0.062"] ;
1069 -> 1075 ;
1076 [label="X[3] <= 65.221\nmse = 0.001\nsamples = 9\nvalue = 0.033"] ;
1068 -> 1076 ;
1077 [label="mse = 0.0\nsamples = 2\nvalue = 0.0"] ;
1076 -> 1077 ;
1078 [label="X[3] <= 65.525\nmse = 0.001\nsamples = 7\nvalue = 0.042"] ;
1076 -> 1078 ;
1079 [label="mse = 0.0\nsamples = 1\nvalue = 0.087"] ;
1078 -> 1079 ;
1080 [label="X[2] <= 20.737\nmse = 0.0\nsamples = 6\nvalue = 0.035"] ;
1078 -> 1080 ;
1081 [label="X[2] <= 20.569\nmse = 0.0\nsamples = 5\nvalue = 0.03"] ;
1080 -> 1081 ;
1082 [label="X[3] <= 65.555\nmse = 0.0\nsamples = 4\nvalue = 0.037"] ;
1081 -> 1082 ;
1083 [label="mse = 0.0\nsamples = 1\nvalue = 0.053"] ;
1082 -> 1083 ;
1084 [label="X[3] <= 67.236\nmse = 0.0\nsamples = 3\nvalue = 0.032"] ;
1082 -> 1084 ;
1085 [label="X[1] <= 75.632\nmse = 0.0\nsamples = 2\nvalue = 0.035"] ;
1084 -> 1085 ;
1086 [label="mse = 0.0\nsamples = 1\nvalue = 0.044"] ;
1085 -> 1086 ;
1087 [label="mse = 0.0\nsamples = 1\nvalue = 0.027"] ;
1085 -> 1087 ;
1088 [label="mse = -0.0\nsamples = 1\nvalue = 0.026"] ;
1084 -> 1088 ;
1089 [label="mse = 0.0\nsamples = 1\nvalue = 0.0"] ;
1081 -> 1089 ;
1090 [label="mse = -0.0\nsamples = 1\nvalue = 0.061"] ;
1080 -> 1090 ;
1091 [label="X[2] <= 16.558\nmse = 0.002\nsamples = 25\nvalue = 0.069"] ;
1061 -> 1091 ;
1092 [label="X[2] <= 13.321\nmse = 0.001\nsamples = 11\nvalue = 0.053"] ;
1091 -> 1092 ;
1093 [label="X[3] <= 71.068\nmse = 0.001\nsamples = 4\nvalue = 0.08"] ;
1092 -> 1093 ;
1094 [label="X[2] <= 12.407\nmse = 0.0\nsamples = 3\nvalue = 0.092"] ;
1093 -> 1094 ;
1095 [label="X[3] <= 69.998\nmse = 0.0\nsamples = 2\nvalue = 0.083"] ;
1094 -> 1095 ;
1096 [label="mse = 0.0\nsamples = 1\nvalue = 0.085"] ;
1095 -> 1096 ;
1097 [label="mse = -0.0\nsamples = 1\nvalue = 0.08"] ;
1095 -> 1097 ;
1098 [label="mse = 0.0\nsamples = 1\nvalue = 0.111"] ;
1094 -> 1098 ;
1099 [label="mse = 0.0\nsamples = 1\nvalue = 0.042"] ;
1093 -> 1099 ;
1100 [label="X[3] <= 67.45\nmse = 0.001\nsamples = 7\nvalue = 0.038"] ;
1092 -> 1100 ;
1101 [label="mse = 0.0\nsamples = 1\nvalue = 0.083"] ;
1100 -> 1101 ;
1102 [label="X[2] <= 14.022\nmse = 0.0\nsamples = 6\nvalue = 0.03"] ;
1100 -> 1102 ;
1103 [label="mse = 0.0\nsamples = 1\nvalue = 0.0"] ;
1102 -> 1103 ;
1104 [label="X[3] <= 70.439\nmse = 0.0\nsamples = 5\nvalue = 0.036"] ;
1102 -> 1104 ;
1105 [label="X[3] <= 69.461\nmse = 0.0\nsamples = 3\nvalue = 0.029"] ;
1104 -> 1105 ;
1106 [label="X[2] <= 16.201\nmse = 0.0\nsamples = 2\nvalue = 0.044"] ;
1105 -> 1106 ;
1107 [label="mse = 0.0\nsamples = 1\nvalue = 0.047"] ;
1106 -> 1107 ;
1108 [label="mse = -0.0\nsamples = 1\nvalue = 0.042"] ;
1106 -> 1108 ;
1109 [label="mse = 0.0\nsamples = 1\nvalue = 0.0"] ;
1105 -> 1109 ;
1110 [label="X[2] <= 15.194\nmse = 0.0\nsamples = 2\nvalue = 0.046"] ;
1104 -> 1110 ;
1111 [label="mse = 0.0\nsamples = 1\nvalue = 0.053"] ;
1110 -> 1111 ;
1112 [label="mse = 0.0\nsamples = 1\nvalue = 0.04"] ;
1110 -> 1112 ;
1113 [label="X[1] <= 78.741\nmse = 0.002\nsamples = 14\nvalue = 0.082"] ;
1091 -> 1113 ;
1114 [label="X[3] <= 69.064\nmse = 0.002\nsamples = 13\nvalue = 0.088"] ;
1113 -> 1114 ;
1115 [label="X[3] <= 68.687\nmse = 0.003\nsamples = 6\nvalue = 0.071"] ;
1114 -> 1115 ;
1116 [label="X[2] <= 19.946\nmse = 0.003\nsamples = 5\nvalue = 0.085"] ;
1115 -> 1116 ;
1117 [label="X[3] <= 68.394\nmse = 0.002\nsamples = 3\nvalue = 0.116"] ;
1116 -> 1117 ;
1118 [label="mse = 0.0\nsamples = 2\nvalue = 0.087"] ;
1117 -> 1118 ;
1119 [label="mse = 0.0\nsamples = 1\nvalue = 0.175"] ;
1117 -> 1119 ;
1120 [label="X[2] <= 20.486\nmse = 0.001\nsamples = 2\nvalue = 0.038"] ;
1116 -> 1120 ;
1121 [label="mse = 0.0\nsamples = 1\nvalue = 0.006"] ;
1120 -> 1121 ;
1122 [label="mse = 0.0\nsamples = 1\nvalue = 0.071"] ;
1120 -> 1122 ;
1123 [label="mse = -0.0\nsamples = 1\nvalue = 0.0"] ;
1115 -> 1123 ;
1124 [label="X[2] <= 18.983\nmse = 0.0\nsamples = 7\nvalue = 0.102"] ;
1114 -> 1124 ;
1125 [label="X[2] <= 18.535\nmse = 0.0\nsamples = 4\nvalue = 0.093"] ;
1124 -> 1125 ;
1126 [label="X[3] <= 69.486\nmse = 0.0\nsamples = 3\nvalue = 0.1"] ;
1125 -> 1126 ;
1127 [label="mse = 0.0\nsamples = 1\nvalue = 0.104"] ;
1126 -> 1127 ;
1128 [label="X[3] <= 69.821\nmse = 0.0\nsamples = 2\nvalue = 0.097"] ;
1126 -> 1128 ;
1129 [label="mse = 0.0\nsamples = 1\nvalue = 0.095"] ;
1128 -> 1129 ;
1130 [label="mse = 0.0\nsamples = 1\nvalue = 0.1"] ;
1128 -> 1130 ;
1131 [label="mse = 0.0\nsamples = 1\nvalue = 0.075"] ;
1125 -> 1131 ;
1132 [label="X[3] <= 70.063\nmse = 0.0\nsamples = 3\nvalue = 0.114"] ;
1124 -> 1132 ;
1133 [label="mse = 0.0\nsamples = 1\nvalue = 0.107"] ;
1132 -> 1133 ;
1134 [label="X[2] <= 22.457\nmse = 0.0\nsamples = 2\nvalue = 0.118"] ;
1132 -> 1134 ;
1135 [label="mse = 0.0\nsamples = 1\nvalue = 0.119"] ;
1134 -> 1135 ;
1136 [label="mse = 0.0\nsamples = 1\nvalue = 0.116"] ;
1134 -> 1136 ;
1137 [label="mse = 0.0\nsamples = 1\nvalue = 0.0"] ;
1113 -> 1137 ;
1138 [label="X[0] <= 62678.793\nmse = 0.001\nsamples = 23\nvalue = 0.023"] ;
1060 -> 1138 ;
1139 [label="X[0] <= 20134.251\nmse = 0.001\nsamples = 22\nvalue = 0.018"] ;
1138 -> 1139 ;
1140 [label="X[2] <= 27.459\nmse = 0.001\nsamples = 3\nvalue = 0.07"] ;
1139 -> 1140 ;
1141 [label="X[3] <= 76.165\nmse = 0.0\nsamples = 2\nvalue = 0.086"] ;
1140 -> 1141 ;
1142 [label="mse = 0.0\nsamples = 1\nvalue = 0.097"] ;
1141 -> 1142 ;
1143 [label="mse = 0.0\nsamples = 1\nvalue = 0.076"] ;
1141 -> 1143 ;
1144 [label="mse = -0.0\nsamples = 1\nvalue = 0.038"] ;
1140 -> 1144 ;
1145 [label="X[3] <= 71.833\nmse = 0.0\nsamples = 19\nvalue = 0.01"] ;
1139 -> 1145 ;
1146 [label="mse = 0.0\nsamples = 1\nvalue = 0.038"] ;
1145 -> 1146 ;
1147 [label="X[2] <= 19.667\nmse = 0.0\nsamples = 18\nvalue = 0.008"] ;
1145 -> 1147 ;
1148 [label="X[3] <= 77.685\nmse = 0.0\nsamples = 9\nvalue = 0.002"] ;
1147 -> 1148 ;
1149 [label="mse = 0.0\nsamples = 8\nvalue = 0.0"] ;
1148 -> 1149 ;
1150 [label="mse = 0.0\nsamples = 1\nvalue = 0.018"] ;
1148 -> 1150 ;
1151 [label="X[3] <= 74.795\nmse = 0.0\nsamples = 9\nvalue = 0.015"] ;
1147 -> 1151 ;
1152 [label="X[1] <= 81.735\nmse = 0.0\nsamples = 5\nvalue = 0.024"] ;
1151 -> 1152 ;
1153 [label="X[2] <= 20.162\nmse = 0.0\nsamples = 3\nvalue = 0.04"] ;
1152 -> 1153 ;
1154 [label="mse = 0.0\nsamples = 1\nvalue = 0.033"] ;
1153 -> 1154 ;
1155 [label="X[3] <= 74.525\nmse = 0.0\nsamples = 2\nvalue = 0.044"] ;
1153 -> 1155 ;
1156 [label="mse = 0.0\nsamples = 1\nvalue = 0.046"] ;
1155 -> 1156 ;
1157 [label="mse = 0.0\nsamples = 1\nvalue = 0.041"] ;
1155 -> 1157 ;
1158 [label="mse = -0.0\nsamples = 2\nvalue = 0.0"] ;
1152 -> 1158 ;
1159 [label="X[3] <= 77.553\nmse = 0.0\nsamples = 4\nvalue = 0.003"] ;
1151 -> 1159 ;
1160 [label="X[3] <= 76.015\nmse = 0.0\nsamples = 2\nvalue = 0.007"] ;
1159 -> 1160 ;
1161 [label="mse = 0.0\nsamples = 1\nvalue = 0.0"] ;
1160 -> 1161 ;
1162 [label="mse = 0.0\nsamples = 1\nvalue = 0.014"] ;
1160 -> 1162 ;
1163 [label="mse = 0.0\nsamples = 2\nvalue = 0.0"] ;
1159 -> 1163 ;
1164 [label="mse = 0.0\nsamples = 1\nvalue = 0.132"] ;
1138 -> 1164 ;
1165 [label="X[3] <= 64.885\nmse = 0.002\nsamples = 73\nvalue = 0.07"] ;
1059 -> 1165 ;
1166 [label="X[2] <= 15.451\nmse = 0.003\nsamples = 7\nvalue = 0.112"] ;
1165 -> 1166 ;
1167 [label="X[0] <= 71389.0\nmse = 0.0\nsamples = 4\nvalue = 0.154"] ;
1166 -> 1167 ;
1168 [label="X[2] <= 12.053\nmse = 0.0\nsamples = 3\nvalue = 0.163"] ;
1167 -> 1168 ;
1169 [label="mse = 0.0\nsamples = 1\nvalue = 0.15"] ;
1168 -> 1169 ;
1170 [label="X[3] <= 64.091\nmse = 0.0\nsamples = 2\nvalue = 0.169"] ;
1168 -> 1170 ;
1171 [label="mse = 0.0\nsamples = 1\nvalue = 0.171"] ;
1170 -> 1171 ;
1172 [label="mse = -0.0\nsamples = 1\nvalue = 0.167"] ;
1170 -> 1172 ;
1173 [label="mse = -0.0\nsamples = 1\nvalue = 0.129"] ;
1167 -> 1173 ;
1174 [label="X[3] <= 64.049\nmse = 0.001\nsamples = 3\nvalue = 0.057"] ;
1166 -> 1174 ;
1175 [label="X[0] <= 61261.5\nmse = 0.0\nsamples = 2\nvalue = 0.079"] ;
1174 -> 1175 ;
1176 [label="mse = 0.0\nsamples = 1\nvalue = 0.077"] ;
1175 -> 1176 ;
1177 [label="mse = 0.0\nsamples = 1\nvalue = 0.081"] ;
1175 -> 1177 ;
1178 [label="mse = -0.0\nsamples = 1\nvalue = 0.012"] ;
1174 -> 1178 ;
1179 [label="X[1] <= 91.345\nmse = 0.002\nsamples = 66\nvalue = 0.066"] ;
1165 -> 1179 ;
1180 [label="X[2] <= 21.156\nmse = 0.002\nsamples = 54\nvalue = 0.072"] ;
1179 -> 1180 ;
1181 [label="X[0] <= 59270.344\nmse = 0.001\nsamples = 23\nvalue = 0.058"] ;
1180 -> 1181 ;
1182 [label="X[2] <= 17.761\nmse = 0.001\nsamples = 14\nvalue = 0.046"] ;
1181 -> 1182 ;
1183 [label="X[2] <= 14.674\nmse = 0.0\nsamples = 4\nvalue = 0.02"] ;
1182 -> 1183 ;
1184 [label="mse = 0.0\nsamples = 1\nvalue = 0.0"] ;
1183 -> 1184 ;
1185 [label="X[1] <= 87.303\nmse = 0.0\nsamples = 3\nvalue = 0.027"] ;
1183 -> 1185 ;
1186 [label="X[3] <= 71.439\nmse = 0.0\nsamples = 2\nvalue = 0.028"] ;
1185 -> 1186 ;
1187 [label="mse = 0.0\nsamples = 1\nvalue = 0.028"] ;
1186 -> 1187 ;
1188 [label="mse = -0.0\nsamples = 1\nvalue = 0.027"] ;
1186 -> 1188 ;
1189 [label="mse = 0.0\nsamples = 1\nvalue = 0.025"] ;
1185 -> 1189 ;
1190 [label="X[2] <= 20.882\nmse = 0.001\nsamples = 10\nvalue = 0.056"] ;
1182 -> 1190 ;
1191 [label="X[2] <= 20.744\nmse = 0.001\nsamples = 8\nvalue = 0.065"] ;
1190 -> 1191 ;
1192 [label="X[2] <= 20.693\nmse = 0.001\nsamples = 7\nvalue = 0.06"] ;
1191 -> 1192 ;
1193 [label="X[2] <= 20.34\nmse = 0.001\nsamples = 6\nvalue = 0.07"] ;
1192 -> 1193 ;
1194 [label="X[3] <= 75.169\nmse = 0.0\nsamples = 4\nvalue = 0.054"] ;
1193 -> 1194 ;
1195 [label="X[2] <= 19.154\nmse = 0.0\nsamples = 2\nvalue = 0.05"] ;
1194 -> 1195 ;
1196 [label="mse = 0.0\nsamples = 1\nvalue = 0.059"] ;
1195 -> 1196 ;
1197 [label="mse = -0.0\nsamples = 1\nvalue = 0.042"] ;
1195 -> 1197 ;
1198 [label="X[3] <= 77.561\nmse = 0.0\nsamples = 2\nvalue = 0.059"] ;
1194 -> 1198 ;
1199 [label="mse = 0.0\nsamples = 1\nvalue = 0.058"] ;
1198 -> 1199 ;
1200 [label="mse = -0.0\nsamples = 1\nvalue = 0.06"] ;
1198 -> 1200 ;
1201 [label="X[3] <= 75.325\nmse = 0.0\nsamples = 2\nvalue = 0.1"] ;
1193 -> 1201 ;
1202 [label="mse = 0.0\nsamples = 1\nvalue = 0.1"] ;
1201 -> 1202 ;
1203 [label="mse = 0.0\nsamples = 1\nvalue = 0.101"] ;
1201 -> 1203 ;
1204 [label="mse = -0.0\nsamples = 1\nvalue = 0.0"] ;
1192 -> 1204 ;
1205 [label="mse = -0.0\nsamples = 1\nvalue = 0.104"] ;
1191 -> 1205 ;
1206 [label="X[0] <= 52845.844\nmse = 0.0\nsamples = 2\nvalue = 0.021"] ;
1190 -> 1206 ;
1207 [label="mse = 0.0\nsamples = 1\nvalue = 0.0"] ;
1206 -> 1207 ;
1208 [label="mse = 0.0\nsamples = 1\nvalue = 0.042"] ;
1206 -> 1208 ;
1209 [label="X[1] <= 87.85\nmse = 0.001\nsamples = 9\nvalue = 0.076"] ;
1181 -> 1209 ;
1210 [label="X[3] <= 70.667\nmse = 0.001\nsamples = 8\nvalue = 0.08"] ;
1209 -> 1210 ;
1211 [label="mse = 0.0\nsamples = 1\nvalue = 0.053"] ;
1210 -> 1211 ;
1212 [label="X[3] <= 74.0\nmse = 0.001\nsamples = 7\nvalue = 0.084"] ;
1210 -> 1212 ;
1213 [label="X[0] <= 64870.0\nmse = 0.0\nsamples = 2\nvalue = 0.111"] ;
1212 -> 1213 ;
1214 [label="mse = 0.0\nsamples = 1\nvalue = 0.11"] ;
1213 -> 1214 ;
1215 [label="mse = 0.0\nsamples = 1\nvalue = 0.111"] ;
1213 -> 1215 ;
1216 [label="X[3] <= 77.895\nmse = 0.001\nsamples = 5\nvalue = 0.074"] ;
1212 -> 1216 ;
1217 [label="X[2] <= 17.49\nmse = 0.0\nsamples = 3\nvalue = 0.058"] ;
1216 -> 1217 ;
1218 [label="X[2] <= 13.723\nmse = 0.0\nsamples = 2\nvalue = 0.069"] ;
1217 -> 1218 ;
1219 [label="mse = 0.0\nsamples = 1\nvalue = 0.063"] ;
1218 -> 1219 ;
1220 [label="mse = 0.0\nsamples = 1\nvalue = 0.076"] ;
1218 -> 1220 ;
1221 [label="mse = 0.0\nsamples = 1\nvalue = 0.035"] ;
1217 -> 1221 ;
1222 [label="X[2] <= 17.7\nmse = 0.0\nsamples = 2\nvalue = 0.098"] ;
1216 -> 1222 ;
1223 [label="mse = 0.0\nsamples = 1\nvalue = 0.089"] ;
1222 -> 1223 ;
1224 [label="mse = 0.0\nsamples = 1\nvalue = 0.106"] ;
1222 -> 1224 ;
1225 [label="mse = 0.0\nsamples = 1\nvalue = 0.037"] ;
1209 -> 1225 ;
1226 [label="X[2] <= 21.807\nmse = 0.002\nsamples = 31\nvalue = 0.083"] ;
1180 -> 1226 ;
1227 [label="X[2] <= 21.602\nmse = 0.002\nsamples = 4\nvalue = 0.123"] ;
1226 -> 1227 ;
1228 [label="X[0] <= 54742.5\nmse = 0.0\nsamples = 3\nvalue = 0.1"] ;
1227 -> 1228 ;
1229 [label="X[3] <= 75.559\nmse = 0.0\nsamples = 2\nvalue = 0.086"] ;
1228 -> 1229 ;
1230 [label="mse = 0.0\nsamples = 1\nvalue = 0.099"] ;
1229 -> 1230 ;
1231 [label="mse = 0.0\nsamples = 1\nvalue = 0.074"] ;
1229 -> 1231 ;
1232 [label="mse = 0.0\nsamples = 1\nvalue = 0.128"] ;
1228 -> 1232 ;
1233 [label="mse = 0.0\nsamples = 1\nvalue = 0.19"] ;
1227 -> 1233 ;
1234 [label="X[2] <= 21.867\nmse = 0.002\nsamples = 27\nvalue = 0.077"] ;
1226 -> 1234 ;
1235 [label="mse = 0.0\nsamples = 1\nvalue = 0.0"] ;
1234 -> 1235 ;
1236 [label="X[0] <= 59270.344\nmse = 0.001\nsamples = 26\nvalue = 0.08"] ;
1234 -> 1236 ;
1237 [label="X[0] <= 52845.844\nmse = 0.001\nsamples = 25\nvalue = 0.077"] ;
1236 -> 1237 ;
1238 [label="X[3] <= 70.996\nmse = 0.001\nsamples = 23\nvalue = 0.081"] ;
1237 -> 1238 ;
1239 [label="X[3] <= 70.187\nmse = 0.001\nsamples = 10\nvalue = 0.066"] ;
1238 -> 1239 ;
1240 [label="X[2] <= 22.277\nmse = 0.0\nsamples = 9\nvalue = 0.074"] ;
1239 -> 1240 ;
1241 [label="mse = 0.0\nsamples = 1\nvalue = 0.042"] ;
1240 -> 1241 ;
1242 [label="X[2] <= 25.983\nmse = 0.0\nsamples = 8\nvalue = 0.078"] ;
1240 -> 1242 ;
1243 [label="X[3] <= 68.868\nmse = 0.0\nsamples = 7\nvalue = 0.082"] ;
1242 -> 1243 ;
1244 [label="X[3] <= 65.031\nmse = 0.0\nsamples = 5\nvalue = 0.084"] ;
1243 -> 1244 ;
1245 [label="X[3] <= 64.976\nmse = 0.0\nsamples = 2\nvalue = 0.076"] ;
1244 -> 1245 ;
1246 [label="mse = 0.0\nsamples = 1\nvalue = 0.072"] ;
1245 -> 1246 ;
1247 [label="mse = 0.0\nsamples = 1\nvalue = 0.079"] ;
1245 -> 1247 ;
1248 [label="X[2] <= 23.359\nmse = 0.0\nsamples = 3\nvalue = 0.09"] ;
1244 -> 1248 ;
1249 [label="mse = 0.0\nsamples = 1\nvalue = 0.097"] ;
1248 -> 1249 ;
1250 [label="X[2] <= 24.131\nmse = 0.0\nsamples = 2\nvalue = 0.086"] ;
1248 -> 1250 ;
1251 [label="mse = 0.0\nsamples = 1\nvalue = 0.08"] ;
1250 -> 1251 ;
1252 [label="mse = -0.0\nsamples = 1\nvalue = 0.093"] ;
1250 -> 1252 ;
1253 [label="X[1] <= 87.869\nmse = 0.0\nsamples = 2\nvalue = 0.075"] ;
1243 -> 1253 ;
1254 [label="mse = 0.0\nsamples = 1\nvalue = 0.073"] ;
1253 -> 1254 ;
1255 [label="mse = 0.0\nsamples = 1\nvalue = 0.077"] ;
1253 -> 1255 ;
1256 [label="mse = -0.0\nsamples = 1\nvalue = 0.051"] ;
1242 -> 1256 ;
1257 [label="mse = 0.0\nsamples = 1\nvalue = 0.0"] ;
1239 -> 1257 ;
1258 [label="X[2] <= 24.118\nmse = 0.001\nsamples = 13\nvalue = 0.092"] ;
1238 -> 1258 ;
1259 [label="X[3] <= 76.062\nmse = 0.0\nsamples = 11\nvalue = 0.083"] ;
1258 -> 1259 ;
1260 [label="X[3] <= 71.063\nmse = 0.0\nsamples = 7\nvalue = 0.074"] ;
1259 -> 1260 ;
1261 [label="mse = 0.0\nsamples = 1\nvalue = 0.109"] ;
1260 -> 1261 ;
1262 [label="X[3] <= 72.454\nmse = 0.0\nsamples = 6\nvalue = 0.068"] ;
1260 -> 1262 ;
1263 [label="X[2] <= 22.573\nmse = 0.0\nsamples = 3\nvalue = 0.078"] ;
1262 -> 1263 ;
1264 [label="mse = 0.0\nsamples = 1\nvalue = 0.074"] ;
1263 -> 1264 ;
1265 [label="X[3] <= 71.69\nmse = 0.0\nsamples = 2\nvalue = 0.081"] ;
1263 -> 1265 ;
1266 [label="mse = 0.0\nsamples = 1\nvalue = 0.083"] ;
1265 -> 1266 ;
1267 [label="mse = 0.0\nsamples = 1\nvalue = 0.078"] ;
1265 -> 1267 ;
1268 [label="X[2] <= 22.667\nmse = 0.0\nsamples = 3\nvalue = 0.058"] ;
1262 -> 1268 ;
1269 [label="mse = 0.0\nsamples = 1\nvalue = 0.079"] ;
1268 -> 1269 ;
1270 [label="X[2] <= 23.121\nmse = 0.0\nsamples = 2\nvalue = 0.048"] ;
1268 -> 1270 ;
1271 [label="mse = 0.0\nsamples = 1\nvalue = 0.04"] ;
1270 -> 1271 ;
1272 [label="mse = -0.0\nsamples = 1\nvalue = 0.057"] ;
1270 -> 1272 ;
1273 [label="X[2] <= 23.263\nmse = 0.0\nsamples = 4\nvalue = 0.099"] ;
1259 -> 1273 ;
1274 [label="X[2] <= 22.679\nmse = 0.0\nsamples = 3\nvalue = 0.095"] ;
1273 -> 1274 ;
1275 [label="X[3] <= 78.222\nmse = 0.0\nsamples = 2\nvalue = 0.105"] ;
1274 -> 1275 ;
1276 [label="mse = 0.0\nsamples = 1\nvalue = 0.111"] ;
1275 -> 1276 ;
1277 [label="mse = 0.0\nsamples = 1\nvalue = 0.098"] ;
1275 -> 1277 ;
1278 [label="mse = -0.0\nsamples = 1\nvalue = 0.076"] ;
1274 -> 1278 ;
1279 [label="mse = 0.0\nsamples = 1\nvalue = 0.112"] ;
1273 -> 1279 ;
1280 [label="X[2] <= 26.961\nmse = 0.0\nsamples = 2\nvalue = 0.139"] ;
1258 -> 1280 ;
1281 [label="mse = 0.0\nsamples = 1\nvalue = 0.146"] ;
1280 -> 1281 ;
1282 [label="mse = 0.0\nsamples = 1\nvalue = 0.131"] ;
1280 -> 1282 ;
1283 [label="X[3] <= 75.115\nmse = 0.001\nsamples = 2\nvalue = 0.028"] ;
1237 -> 1283 ;
1284 [label="mse = 0.0\nsamples = 1\nvalue = 0.056"] ;
1283 -> 1284 ;
1285 [label="mse = 0.0\nsamples = 1\nvalue = 0.0"] ;
1283 -> 1285 ;
1286 [label="mse = 0.0\nsamples = 1\nvalue = 0.17"] ;
1236 -> 1286 ;
1287 [label="X[0] <= 137241.0\nmse = 0.002\nsamples = 12\nvalue = 0.037"] ;
1179 -> 1287 ;
1288 [label="X[2] <= 26.083\nmse = 0.001\nsamples = 11\nvalue = 0.029"] ;
1287 -> 1288 ;
1289 [label="X[2] <= 24.661\nmse = 0.001\nsamples = 8\nvalue = 0.041"] ;
1288 -> 1289 ;
1290 [label="X[3] <= 70.614\nmse = 0.0\nsamples = 7\nvalue = 0.03"] ;
1289 -> 1290 ;
1291 [label="X[2] <= 11.769\nmse = 0.0\nsamples = 2\nvalue = 0.06"] ;
1290 -> 1291 ;
1292 [label="mse = 0.0\nsamples = 1\nvalue = 0.074"] ;
1291 -> 1292 ;
1293 [label="mse = 0.0\nsamples = 1\nvalue = 0.046"] ;
1291 -> 1293 ;
1294 [label="X[1] <= 93.45\nmse = 0.0\nsamples = 5\nvalue = 0.018"] ;
1290 -> 1294 ;
1295 [label="mse = 0.0\nsamples = 1\nvalue = 0.0"] ;
1294 -> 1295 ;
1296 [label="X[3] <= 75.273\nmse = 0.0\nsamples = 4\nvalue = 0.022"] ;
1294 -> 1296 ;
1297 [label="X[0] <= 45741.485\nmse = 0.0\nsamples = 2\nvalue = 0.026"] ;
1296 -> 1297 ;
1298 [label="mse = 0.0\nsamples = 1\nvalue = 0.028"] ;
1297 -> 1298 ;
1299 [label="mse = -0.0\nsamples = 1\nvalue = 0.025"] ;
1297 -> 1299 ;
1300 [label="X[0] <= 61440.0\nmse = 0.0\nsamples = 2\nvalue = 0.018"] ;
1296 -> 1300 ;
1301 [label="mse = 0.0\nsamples = 1\nvalue = 0.02"] ;
1300 -> 1301 ;
1302 [label="mse = 0.0\nsamples = 1\nvalue = 0.016"] ;
1300 -> 1302 ;
1303 [label="mse = 0.0\nsamples = 1\nvalue = 0.114"] ;
1289 -> 1303 ;
1304 [label="mse = 0.0\nsamples = 3\nvalue = 0.0"] ;
1288 -> 1304 ;
1305 [label="mse = 0.0\nsamples = 1\nvalue = 0.118"] ;
1287 -> 1305 ;
1306 [label="X[3] <= 88.798\nmse = 0.002\nsamples = 83\nvalue = 0.04"] ;
442 -> 1306 ;
1307 [label="X[0] <= 78342.5\nmse = 0.002\nsamples = 82\nvalue = 0.039"] ;
1306 -> 1307 ;
1308 [label="X[2] <= 7.357\nmse = 0.002\nsamples = 76\nvalue = 0.036"] ;
1307 -> 1308 ;
1309 [label="X[3] <= 81.147\nmse = 0.001\nsamples = 21\nvalue = 0.023"] ;
1308 -> 1309 ;
1310 [label="X[2] <= 6.669\nmse = 0.002\nsamples = 10\nvalue = 0.048"] ;
1309 -> 1310 ;
1311 [label="X[3] <= 79.694\nmse = 0.001\nsamples = 7\nvalue = 0.065"] ;
1310 -> 1311 ;
1312 [label="X[2] <= 2.113\nmse = 0.0\nsamples = 2\nvalue = 0.012"] ;
1311 -> 1312 ;
1313 [label="mse = 0.0\nsamples = 1\nvalue = 0.0"] ;
1312 -> 1313 ;
1314 [label="mse = 0.0\nsamples = 1\nvalue = 0.023"] ;
1312 -> 1314 ;
1315 [label="X[2] <= 4.153\nmse = 0.0\nsamples = 5\nvalue = 0.087"] ;
1311 -> 1315 ;
1316 [label="X[0] <= 56750.494\nmse = 0.0\nsamples = 2\nvalue = 0.103"] ;
1315 -> 1316 ;
