digraph Tree {
node [shape=box] ;
0 [label="tpc*max_cases <= 12.205\nmse = 0.001\nsamples = 279\nvalue = 0.046"] ;
1 [label="tpc*max_cases <= 0.354\nmse = 0.0\nsamples = 209\nvalue = 0.042"] ;
0 -> 1 [labeldistance=2.5, labelangle=45, headlabel="True"] ;
2 [label="mse = 0.0\nsamples = 4\nvalue = 0.083"] ;
1 -> 2 ;
3 [label="mse = 0.0\nsamples = 205\nvalue = 0.041"] ;
1 -> 3 ;
4 [label="mse = 0.001\nsamples = 70\nvalue = 0.057"] ;
0 -> 4 [labeldistance=2.5, labelangle=-45, headlabel="False"] ;
}