digraph Tree {
node [shape=box] ;
0 [label="Urbanization <= 96.113\nmse = 0.004\nsamples = 125\nvalue = 0.27"] ;
1 [label="GDP <= 75273.5\nmse = 0.004\nsamples = 121\nvalue = 0.275"] ;
0 -> 1 [labeldistance=2.5, labelangle=45, headlabel="True"] ;
2 [label="tmp**2 <= 483.524\nmse = 0.004\nsamples = 102\nvalue = 0.268"] ;
1 -> 2 ;
3 [label="mse = 0.003\nsamples = 83\nvalue = 0.261"] ;
2 -> 3 ;
4 [label="mse = 0.004\nsamples = 19\nvalue = 0.301"] ;
2 -> 4 ;
5 [label="avg_interval_RH <= 67.048\nmse = 0.004\nsamples = 19\nvalue = 0.308"] ;
1 -> 5 ;
6 [label="mse = 0.0\nsamples = 4\nvalue = 0.224"] ;
5 -> 6 ;
7 [label="mse = 0.003\nsamples = 15\nvalue = 0.33"] ;
5 -> 7 ;
8 [label="mse = 0.001\nsamples = 4\nvalue = 0.144"] ;
0 -> 8 [labeldistance=2.5, labelangle=-45, headlabel="False"] ;
}