digraph Tree {
node [shape=box] ;
0 [label="tpc*max_cases <= 0.779\nmse = 0.0\nsamples = 939\nvalue = 0.047"] ;
1 [label="GDP <= 65971.5\nmse = 0.0\nsamples = 469\nvalue = 0.043"] ;
0 -> 1 [labeldistance=2.5, labelangle=45, headlabel="True"] ;
2 [label="urb**2 <= 6377.345\nmse = 0.0\nsamples = 435\nvalue = 0.042"] ;
1 -> 2 ;
3 [label="Tests \ Pop <= 0.004\nmse = 0.0\nsamples = 377\nvalue = 0.043"] ;
2 -> 3 ;
4 [label="tpc*max_cases <= 0.222\nmse = 0.0\nsamples = 213\nvalue = 0.045"] ;
3 -> 4 ;
5 [label="avg_interval_RH <= 52.07\nmse = 0.0\nsamples = 100\nvalue = 0.04"] ;
4 -> 5 ;
6 [label="mse = 0.0\nsamples = 1\nvalue = 0.1"] ;
5 -> 6 ;
7 [label="mse = 0.0\nsamples = 99\nvalue = 0.04"] ;
5 -> 7 ;
8 [label="mse = 0.0\nsamples = 113\nvalue = 0.05"] ;
4 -> 8 ;
9 [label="mse = 0.0\nsamples = 164\nvalue = 0.04"] ;
3 -> 9 ;
10 [label="mse = 0.0\nsamples = 58\nvalue = 0.035"] ;
2 -> 10 ;
11 [label="Median Age <= 37.75\nmse = 0.001\nsamples = 34\nvalue = 0.058"] ;
1 -> 11 ;
12 [label="mse = 0.0\nsamples = 6\nvalue = 0.034"] ;
11 -> 12 ;
13 [label="tmp*rh <= 879.47\nmse = 0.001\nsamples = 28\nvalue = 0.063"] ;
11 -> 13 ;
14 [label="mse = 0.0\nsamples = 25\nvalue = 0.059"] ;
13 -> 14 ;
15 [label="mse = 0.0\nsamples = 3\nvalue = 0.101"] ;
13 -> 15 ;
16 [label="Tests \ Pop <= 0.012\nmse = 0.0\nsamples = 470\nvalue = 0.051"] ;
0 -> 16 [labeldistance=2.5, labelangle=-45, headlabel="False"] ;
17 [label="GDP <= 58238.0\nmse = 0.0\nsamples = 384\nvalue = 0.053"] ;
16 -> 17 ;
18 [label="mse = 0.0\nsamples = 217\nvalue = 0.05"] ;
17 -> 18 ;
19 [label="tmp*rh <= 336.125\nmse = 0.0\nsamples = 167\nvalue = 0.057"] ;
17 -> 19 ;
20 [label="mse = 0.0\nsamples = 5\nvalue = 0.031"] ;
19 -> 20 ;
21 [label="mse = 0.0\nsamples = 162\nvalue = 0.058"] ;
19 -> 21 ;
22 [label="tpc*max_cases <= 4.649\nmse = 0.0\nsamples = 86\nvalue = 0.04"] ;
16 -> 22 ;
23 [label="mse = 0.0\nsamples = 46\nvalue = 0.034"] ;
22 -> 23 ;
24 [label="mse = 0.0\nsamples = 40\nvalue = 0.046"] ;
22 -> 24 ;
}