digraph Tree {
node [shape=box] ;
0 [label="avg_interval_tmp <= 7.002\nmse = 0.011\nsamples = 689\nvalue = 0.297"] ;
1 [label="avg_interval_tmp <= 4.037\nmse = 0.007\nsamples = 176\nvalue = 0.261"] ;
0 -> 1 [labeldistance=2.5, labelangle=45, headlabel="True"] ;
2 [label="avg_interval_tmp <= 2.553\nmse = 0.005\nsamples = 46\nvalue = 0.226"] ;
1 -> 2 ;
3 [label="mse = 0.005\nsamples = 18\nvalue = 0.26"] ;
2 -> 3 ;
4 [label="mse = 0.004\nsamples = 28\nvalue = 0.203"] ;
2 -> 4 ;
5 [label="GDP <= 45699.5\nmse = 0.007\nsamples = 130\nvalue = 0.273"] ;
1 -> 5 ;
6 [label="mse = 0.0\nsamples = 1\nvalue = 0.542"] ;
5 -> 6 ;
7 [label="mse = 0.006\nsamples = 129\nvalue = 0.271"] ;
5 -> 7 ;
8 [label="avg_interval_RH <= 58.885\nmse = 0.012\nsamples = 513\nvalue = 0.31"] ;
0 -> 8 [labeldistance=2.5, labelangle=-45, headlabel="False"] ;
9 [label="Urbanization <= 85.45\nmse = 0.027\nsamples = 42\nvalue = 0.384"] ;
8 -> 9 ;
10 [label="mse = 0.03\nsamples = 28\nvalue = 0.437"] ;
9 -> 10 ;
11 [label="mse = 0.003\nsamples = 14\nvalue = 0.277"] ;
9 -> 11 ;
12 [label="avg_interval_tmp <= 7.146\nmse = 0.01\nsamples = 471\nvalue = 0.303"] ;
8 -> 12 ;
13 [label="mse = 0.028\nsamples = 8\nvalue = 0.435"] ;
12 -> 13 ;
14 [label="mse = 0.01\nsamples = 463\nvalue = 0.301"] ;
12 -> 14 ;
}