digraph Tree {
node [shape=box] ;
0 [label="tmp*rh <= 728.847\nmse = 0.002\nsamples = 122\nvalue = 0.155"] ;
1 [label="GDP <= 68323.0\nmse = 0.001\nsamples = 60\nvalue = 0.167"] ;
0 -> 1 [labeldistance=2.5, labelangle=45, headlabel="True"] ;
2 [label="mse = 0.001\nsamples = 26\nvalue = 0.145"] ;
1 -> 2 ;
3 [label="tmp*rh <= 364.497\nmse = 0.001\nsamples = 34\nvalue = 0.185"] ;
1 -> 3 ;
4 [label="avg_interval_RH <= 69.619\nmse = 0.002\nsamples = 3\nvalue = 0.128"] ;
3 -> 4 ;
5 [label="mse = 0.0\nsamples = 2\nvalue = 0.099"] ;
4 -> 5 ;
6 [label="mse = 0.0\nsamples = 1\nvalue = 0.185"] ;
4 -> 6 ;
7 [label="mse = 0.001\nsamples = 31\nvalue = 0.19"] ;
3 -> 7 ;
8 [label="urb**2 <= 9426.374\nmse = 0.002\nsamples = 62\nvalue = 0.142"] ;
0 -> 8 [labeldistance=2.5, labelangle=-45, headlabel="False"] ;
9 [label="tmp**2 <= 169.261\nmse = 0.001\nsamples = 60\nvalue = 0.145"] ;
8 -> 9 ;
10 [label="urb**2 <= 8138.93\nmse = 0.001\nsamples = 22\nvalue = 0.127"] ;
9 -> 10 ;
11 [label="mse = 0.001\nsamples = 4\nvalue = 0.167"] ;
10 -> 11 ;
12 [label="Median Age <= 37.6\nmse = 0.001\nsamples = 18\nvalue = 0.117"] ;
10 -> 12 ;
13 [label="mse = 0.001\nsamples = 16\nvalue = 0.123"] ;
12 -> 13 ;
14 [label="mse = 0.0\nsamples = 2\nvalue = 0.071"] ;
12 -> 14 ;
15 [label="avg_interval_RH <= 71.161\nmse = 0.001\nsamples = 38\nvalue = 0.155"] ;
9 -> 15 ;
16 [label="mse = 0.001\nsamples = 15\nvalue = 0.173"] ;
15 -> 16 ;
17 [label="mse = 0.001\nsamples = 23\nvalue = 0.144"] ;
15 -> 17 ;
18 [label="mse = 0.0\nsamples = 2\nvalue = 0.061"] ;
8 -> 18 ;
}