digraph Tree {
node [shape=box] ;
0 [label="tpc*max_cases <= 0.838\nmse = 0.003\nsamples = 603\nvalue = 0.148"] ;
1 [label="Tests \ Pop <= 0.004\nmse = 0.003\nsamples = 397\nvalue = 0.138"] ;
0 -> 1 [labeldistance=2.5, labelangle=45, headlabel="True"] ;
2 [label="avg_interval_RH <= 71.423\nmse = 0.003\nsamples = 206\nvalue = 0.148"] ;
1 -> 2 ;
3 [label="avg_interval_tmp <= 19.247\nmse = 0.003\nsamples = 105\nvalue = 0.161"] ;
2 -> 3 ;
4 [label="tmp*rh <= 837.034\nmse = 0.003\nsamples = 91\nvalue = 0.156"] ;
3 -> 4 ;
5 [label="mse = 0.002\nsamples = 34\nvalue = 0.173"] ;
4 -> 5 ;
6 [label="mse = 0.003\nsamples = 57\nvalue = 0.146"] ;
4 -> 6 ;
7 [label="avg_interval_RH <= 69.302\nmse = 0.002\nsamples = 14\nvalue = 0.193"] ;
3 -> 7 ;
8 [label="mse = 0.002\nsamples = 12\nvalue = 0.183"] ;
7 -> 8 ;
9 [label="mse = 0.0\nsamples = 2\nvalue = 0.253"] ;
7 -> 9 ;
10 [label="Tests \ Pop <= 0.004\nmse = 0.002\nsamples = 101\nvalue = 0.135"] ;
2 -> 10 ;
11 [label="avg_interval_RH <= 87.705\nmse = 0.002\nsamples = 72\nvalue = 0.126"] ;
10 -> 11 ;
12 [label="mse = 0.002\nsamples = 70\nvalue = 0.124"] ;
11 -> 12 ;
13 [label="mse = 0.0\nsamples = 2\nvalue = 0.203"] ;
11 -> 13 ;
14 [label="avg_interval_RH <= 77.858\nmse = 0.002\nsamples = 29\nvalue = 0.156"] ;
10 -> 14 ;
15 [label="mse = 0.002\nsamples = 16\nvalue = 0.178"] ;
14 -> 15 ;
16 [label="mse = 0.001\nsamples = 13\nvalue = 0.131"] ;
14 -> 16 ;
17 [label="Median Age <= 39.5\nmse = 0.003\nsamples = 191\nvalue = 0.128"] ;
1 -> 17 ;
18 [label="tpc*max_cases <= 0.214\nmse = 0.003\nsamples = 136\nvalue = 0.119"] ;
17 -> 18 ;
19 [label="avg_interval_RH <= 67.009\nmse = 0.002\nsamples = 54\nvalue = 0.099"] ;
18 -> 19 ;
20 [label="mse = 0.004\nsamples = 10\nvalue = 0.135"] ;
19 -> 20 ;
21 [label="mse = 0.001\nsamples = 44\nvalue = 0.09"] ;
19 -> 21 ;
22 [label="Tests \ Pop <= 0.009\nmse = 0.003\nsamples = 82\nvalue = 0.132"] ;
18 -> 22 ;
23 [label="mse = 0.003\nsamples = 63\nvalue = 0.141"] ;
22 -> 23 ;
24 [label="mse = 0.002\nsamples = 19\nvalue = 0.103"] ;
22 -> 24 ;
25 [label="Median Age <= 42.8\nmse = 0.002\nsamples = 55\nvalue = 0.149"] ;
17 -> 25 ;
26 [label="avg_interval_tmp <= 8.979\nmse = 0.002\nsamples = 47\nvalue = 0.156"] ;
25 -> 26 ;
27 [label="mse = 0.002\nsamples = 19\nvalue = 0.174"] ;
26 -> 27 ;
28 [label="mse = 0.002\nsamples = 28\nvalue = 0.144"] ;
26 -> 28 ;
29 [label="tpc*max_cases <= 0.331\nmse = 0.002\nsamples = 8\nvalue = 0.111"] ;
25 -> 29 ;
30 [label="mse = 0.0\nsamples = 3\nvalue = 0.063"] ;
29 -> 30 ;
31 [label="mse = 0.0\nsamples = 5\nvalue = 0.139"] ;
29 -> 31 ;
32 [label="tmp**2 <= 48.062\nmse = 0.002\nsamples = 206\nvalue = 0.166"] ;
0 -> 32 [labeldistance=2.5, labelangle=-45, headlabel="False"] ;
33 [label="Tests \ Pop <= 0.012\nmse = 0.002\nsamples = 71\nvalue = 0.148"] ;
32 -> 33 ;
34 [label="Tests \ Pop <= 0.006\nmse = 0.001\nsamples = 47\nvalue = 0.163"] ;
33 -> 34 ;
35 [label="Tests \ Pop <= 0.005\nmse = 0.001\nsamples = 19\nvalue = 0.142"] ;
34 -> 35 ;
36 [label="mse = 0.001\nsamples = 2\nvalue = 0.179"] ;
35 -> 36 ;
37 [label="mse = 0.0\nsamples = 17\nvalue = 0.137"] ;
35 -> 37 ;
38 [label="tmp*rh <= 300.51\nmse = 0.001\nsamples = 28\nvalue = 0.177"] ;
34 -> 38 ;
39 [label="mse = 0.0\nsamples = 2\nvalue = 0.124"] ;
38 -> 39 ;
40 [label="mse = 0.001\nsamples = 26\nvalue = 0.181"] ;
38 -> 40 ;
41 [label="avg_interval_tmp <= 6.665\nmse = 0.002\nsamples = 24\nvalue = 0.119"] ;
33 -> 41 ;
42 [label="avg_interval_RH <= 82.314\nmse = 0.001\nsamples = 20\nvalue = 0.129"] ;
41 -> 42 ;
43 [label="mse = 0.001\nsamples = 18\nvalue = 0.135"] ;
42 -> 43 ;
44 [label="mse = 0.0\nsamples = 2\nvalue = 0.074"] ;
42 -> 44 ;
45 [label="tpc*max_cases <= 2.036\nmse = 0.0\nsamples = 4\nvalue = 0.068"] ;
41 -> 45 ;
46 [label="mse = 0.0\nsamples = 1\nvalue = 0.038"] ;
45 -> 46 ;
47 [label="mse = 0.0\nsamples = 3\nvalue = 0.078"] ;
45 -> 47 ;
48 [label="urb**2 <= 4682.56\nmse = 0.002\nsamples = 135\nvalue = 0.175"] ;
32 -> 48 ;
49 [label="tmp*rh <= 1065.62\nmse = 0.001\nsamples = 13\nvalue = 0.144"] ;
48 -> 49 ;
50 [label="tmp**2 <= 235.024\nmse = 0.0\nsamples = 5\nvalue = 0.121"] ;
49 -> 50 ;
51 [label="mse = 0.0\nsamples = 2\nvalue = 0.104"] ;
50 -> 51 ;
52 [label="mse = 0.0\nsamples = 3\nvalue = 0.133"] ;
50 -> 52 ;
53 [label="tmp*rh <= 1117.674\nmse = 0.0\nsamples = 8\nvalue = 0.159"] ;
49 -> 53 ;
54 [label="mse = 0.0\nsamples = 4\nvalue = 0.173"] ;
53 -> 54 ;
55 [label="mse = 0.0\nsamples = 4\nvalue = 0.144"] ;
53 -> 55 ;
56 [label="Urbanization <= 74.85\nmse = 0.002\nsamples = 122\nvalue = 0.179"] ;
48 -> 56 ;
57 [label="avg_interval_RH <= 76.903\nmse = 0.001\nsamples = 30\nvalue = 0.2"] ;
56 -> 57 ;
58 [label="mse = 0.001\nsamples = 21\nvalue = 0.207"] ;
57 -> 58 ;
59 [label="mse = 0.001\nsamples = 9\nvalue = 0.183"] ;
57 -> 59 ;
60 [label="GDP <= 61380.5\nmse = 0.002\nsamples = 92\nvalue = 0.172"] ;
56 -> 60 ;
61 [label="mse = 0.001\nsamples = 35\nvalue = 0.153"] ;
60 -> 61 ;
62 [label="mse = 0.002\nsamples = 57\nvalue = 0.183"] ;
60 -> 62 ;
}