digraph Tree {
node [shape=box] ;
0 [label="Tests \ Pop <= 0.005\nmse = 0.003\nsamples = 1131\nvalue = 0.153"] ;
1 [label="Median Age <= 37.75\nmse = 0.003\nsamples = 647\nvalue = 0.147"] ;
0 -> 1 [labeldistance=2.5, labelangle=45, headlabel="True"] ;
2 [label="urb**2 <= 5572.825\nmse = 0.003\nsamples = 332\nvalue = 0.153"] ;
1 -> 2 ;
3 [label="avg_interval_tmp <= 14.925\nmse = 0.004\nsamples = 107\nvalue = 0.167"] ;
2 -> 3 ;
4 [label="mse = 0.003\nsamples = 95\nvalue = 0.159"] ;
3 -> 4 ;
5 [label="mse = 0.003\nsamples = 12\nvalue = 0.225"] ;
3 -> 5 ;
6 [label="tpc*max_cases <= 0.063\nmse = 0.002\nsamples = 225\nvalue = 0.147"] ;
2 -> 6 ;
7 [label="mse = 0.003\nsamples = 4\nvalue = 0.221"] ;
6 -> 7 ;
8 [label="mse = 0.002\nsamples = 221\nvalue = 0.146"] ;
6 -> 8 ;
9 [label="mse = 0.003\nsamples = 315\nvalue = 0.14"] ;
1 -> 9 ;
10 [label="GDP <= 40500.5\nmse = 0.003\nsamples = 484\nvalue = 0.161"] ;
0 -> 10 [labeldistance=2.5, labelangle=-45, headlabel="False"] ;
11 [label="mse = 0.003\nsamples = 51\nvalue = 0.131"] ;
10 -> 11 ;
12 [label="GDP <= 53761.0\nmse = 0.003\nsamples = 433\nvalue = 0.164"] ;
10 -> 12 ;
13 [label="avg_interval_RH <= 31.347\nmse = 0.003\nsamples = 151\nvalue = 0.177"] ;
12 -> 13 ;
14 [label="mse = 0.001\nsamples = 5\nvalue = 0.092"] ;
13 -> 14 ;
15 [label="mse = 0.003\nsamples = 146\nvalue = 0.18"] ;
13 -> 15 ;
16 [label="avg_interval_RH <= 76.314\nmse = 0.003\nsamples = 282\nvalue = 0.158"] ;
12 -> 16 ;
17 [label="tmp**2 <= 23.05\nmse = 0.003\nsamples = 272\nvalue = 0.159"] ;
16 -> 17 ;
18 [label="mse = 0.001\nsamples = 7\nvalue = 0.217"] ;
17 -> 18 ;
19 [label="tmp*rh <= 315.013\nmse = 0.003\nsamples = 265\nvalue = 0.158"] ;
17 -> 19 ;
20 [label="mse = 0.0\nsamples = 5\nvalue = 0.086"] ;
19 -> 20 ;
21 [label="mse = 0.002\nsamples = 260\nvalue = 0.159"] ;
19 -> 21 ;
22 [label="mse = 0.0\nsamples = 10\nvalue = 0.112"] ;
16 -> 22 ;
}