digraph Tree {
node [shape=box] ;
0 [label="tmp*rh <= 1060.576\nmse = 0.0\nsamples = 479\nvalue = 0.05"] ;
1 [label="GDP <= 63912.0\nmse = 0.0\nsamples = 312\nvalue = 0.053"] ;
0 -> 1 [labeldistance=2.5, labelangle=45, headlabel="True"] ;
2 [label="Urbanization <= 59.679\nmse = 0.0\nsamples = 254\nvalue = 0.052"] ;
1 -> 2 ;
3 [label="imobility**2 <= 185.026\nmse = 0.0\nsamples = 12\nvalue = 0.063"] ;
2 -> 3 ;
4 [label="mse = 0.0\nsamples = 2\nvalue = 0.03"] ;
3 -> 4 ;
5 [label="mse = 0.0\nsamples = 10\nvalue = 0.069"] ;
3 -> 5 ;
6 [label="imobility**2 <= 207.293\nmse = 0.0\nsamples = 242\nvalue = 0.051"] ;
2 -> 6 ;
7 [label="mse = 0.0\nsamples = 30\nvalue = 0.045"] ;
6 -> 7 ;
8 [label="mse = 0.0\nsamples = 212\nvalue = 0.052"] ;
6 -> 8 ;
9 [label="GDP <= 65971.5\nmse = 0.0\nsamples = 58\nvalue = 0.06"] ;
1 -> 9 ;
10 [label="mse = 0.0\nsamples = 11\nvalue = 0.07"] ;
9 -> 10 ;
11 [label="imobility**2 <= 325.952\nmse = 0.0\nsamples = 47\nvalue = 0.057"] ;
9 -> 11 ;
12 [label="mse = 0.0\nsamples = 7\nvalue = 0.044"] ;
11 -> 12 ;
13 [label="mse = 0.0\nsamples = 40\nvalue = 0.06"] ;
11 -> 13 ;
14 [label="tpc*max_cases <= 0.598\nmse = 0.0\nsamples = 167\nvalue = 0.045"] ;
0 -> 14 [labeldistance=2.5, labelangle=-45, headlabel="False"] ;
15 [label="mse = 0.0\nsamples = 58\nvalue = 0.05"] ;
14 -> 15 ;
16 [label="avg_interval_RH <= 59.894\nmse = 0.0\nsamples = 109\nvalue = 0.043"] ;
14 -> 16 ;
17 [label="mse = 0.0\nsamples = 1\nvalue = 0.079"] ;
16 -> 17 ;
18 [label="mse = 0.0\nsamples = 108\nvalue = 0.042"] ;
16 -> 18 ;
}