digraph Tree {
node [shape=box] ;
0 [label="Median Age <= 39.15\nmse = 0.002\nsamples = 122\nvalue = 0.157"] ;
1 [label="tmp**2 <= 492.3\nmse = 0.002\nsamples = 59\nvalue = 0.145"] ;
0 -> 1 [labeldistance=2.5, labelangle=45, headlabel="True"] ;
2 [label="tmp**2 <= 166.266\nmse = 0.002\nsamples = 57\nvalue = 0.147"] ;
1 -> 2 ;
3 [label="GDP <= 51802.5\nmse = 0.001\nsamples = 46\nvalue = 0.141"] ;
2 -> 3 ;
4 [label="avg_interval_RH <= 45.781\nmse = 0.001\nsamples = 5\nvalue = 0.183"] ;
3 -> 4 ;
5 [label="mse = 0.0\nsamples = 3\nvalue = 0.159"] ;
4 -> 5 ;
6 [label="mse = 0.0\nsamples = 2\nvalue = 0.218"] ;
4 -> 6 ;
7 [label="avg_interval_RH <= 54.345\nmse = 0.001\nsamples = 41\nvalue = 0.136"] ;
3 -> 7 ;
8 [label="mse = 0.0\nsamples = 2\nvalue = 0.074"] ;
7 -> 8 ;
9 [label="avg_interval_tmp <= 9.055\nmse = 0.001\nsamples = 39\nvalue = 0.139"] ;
7 -> 9 ;
10 [label="avg_interval_tmp <= 6.099\nmse = 0.001\nsamples = 17\nvalue = 0.152"] ;
9 -> 10 ;
11 [label="mse = 0.0\nsamples = 6\nvalue = 0.127"] ;
10 -> 11 ;
12 [label="tmp*rh <= 658.232\nmse = 0.001\nsamples = 11\nvalue = 0.165"] ;
10 -> 12 ;
13 [label="tmp**2 <= 66.034\nmse = 0.001\nsamples = 9\nvalue = 0.158"] ;
12 -> 13 ;
14 [label="mse = 0.0\nsamples = 8\nvalue = 0.166"] ;
13 -> 14 ;
15 [label="mse = -0.0\nsamples = 1\nvalue = 0.09"] ;
13 -> 15 ;
16 [label="mse = 0.0\nsamples = 2\nvalue = 0.198"] ;
12 -> 16 ;
17 [label="avg_interval_tmp <= 12.032\nmse = 0.001\nsamples = 22\nvalue = 0.129"] ;
9 -> 17 ;
18 [label="mse = 0.001\nsamples = 17\nvalue = 0.122"] ;
17 -> 18 ;
19 [label="mse = 0.0\nsamples = 5\nvalue = 0.155"] ;
17 -> 19 ;
20 [label="Urbanization <= 94.6\nmse = 0.002\nsamples = 11\nvalue = 0.174"] ;
2 -> 20 ;
21 [label="mse = 0.0\nsamples = 4\nvalue = 0.137"] ;
20 -> 21 ;
22 [label="avg_interval_RH <= 40.361\nmse = 0.001\nsamples = 7\nvalue = 0.195"] ;
20 -> 22 ;
23 [label="mse = 0.0\nsamples = 2\nvalue = 0.232"] ;
22 -> 23 ;
24 [label="mse = 0.001\nsamples = 5\nvalue = 0.18"] ;
22 -> 24 ;
25 [label="mse = 0.0\nsamples = 2\nvalue = 0.069"] ;
1 -> 25 ;
26 [label="avg_interval_tmp <= 10.575\nmse = 0.002\nsamples = 63\nvalue = 0.168"] ;
0 -> 26 [labeldistance=2.5, labelangle=-45, headlabel="False"] ;
27 [label="tmp**2 <= 52.639\nmse = 0.001\nsamples = 33\nvalue = 0.184"] ;
26 -> 27 ;
28 [label="tmp**2 <= 21.496\nmse = 0.001\nsamples = 18\nvalue = 0.168"] ;
27 -> 28 ;
29 [label="mse = 0.0\nsamples = 1\nvalue = 0.103"] ;
28 -> 29 ;
30 [label="mse = 0.001\nsamples = 17\nvalue = 0.172"] ;
28 -> 30 ;
31 [label="mse = 0.0\nsamples = 15\nvalue = 0.202"] ;
27 -> 31 ;
32 [label="tmp**2 <= 503.656\nmse = 0.002\nsamples = 30\nvalue = 0.151"] ;
26 -> 32 ;
33 [label="tmp*rh <= 764.179\nmse = 0.001\nsamples = 18\nvalue = 0.13"] ;
32 -> 33 ;
34 [label="mse = 0.0\nsamples = 2\nvalue = 0.065"] ;
33 -> 34 ;
35 [label="mse = 0.001\nsamples = 16\nvalue = 0.138"] ;
33 -> 35 ;
36 [label="mse = 0.0\nsamples = 12\nvalue = 0.182"] ;
32 -> 36 ;
}