digraph Tree {
node [shape=box] ;
0 [label="avg_interval_RH <= 75.679\nmse = 0.001\nsamples = 23\nvalue = 0.057"] ;
1 [label="avg_interval_RH <= 72.163\nmse = 0.001\nsamples = 20\nvalue = 0.061"] ;
0 -> 1 [labeldistance=2.5, labelangle=45, headlabel="True"] ;
2 [label="avg_interval_RH <= 65.857\nmse = 0.001\nsamples = 14\nvalue = 0.056"] ;
1 -> 2 ;
3 [label="mse = 0.0\nsamples = 1\nvalue = 0.095"] ;
2 -> 3 ;
4 [label="tmp*rh <= 623.234\nmse = 0.001\nsamples = 13\nvalue = 0.052"] ;
2 -> 4 ;
5 [label="avg_interval_tmp <= 8.646\nmse = 0.001\nsamples = 8\nvalue = 0.06"] ;
4 -> 5 ;
6 [label="avg_interval_RH <= 69.781\nmse = 0.0\nsamples = 6\nvalue = 0.053"] ;
5 -> 6 ;
7 [label="mse = 0.0\nsamples = 2\nvalue = 0.033"] ;
6 -> 7 ;
8 [label="avg_interval_RH <= 70.143\nmse = 0.0\nsamples = 4\nvalue = 0.063"] ;
6 -> 8 ;
9 [label="mse = 0.0\nsamples = 1\nvalue = 0.079"] ;
8 -> 9 ;
10 [label="mse = 0.0\nsamples = 3\nvalue = 0.057"] ;
8 -> 10 ;
11 [label="avg_interval_tmp <= 9.214\nmse = 0.001\nsamples = 2\nvalue = 0.08"] ;
5 -> 11 ;
12 [label="mse = 0.0\nsamples = 1\nvalue = 0.105"] ;
11 -> 12 ;
13 [label="mse = 0.0\nsamples = 1\nvalue = 0.056"] ;
11 -> 13 ;
14 [label="tmp*rh <= 671.69\nmse = 0.001\nsamples = 5\nvalue = 0.041"] ;
4 -> 14 ;
15 [label="mse = 0.0\nsamples = 2\nvalue = 0.016"] ;
14 -> 15 ;
16 [label="Median Age <= 40.85\nmse = 0.0\nsamples = 3\nvalue = 0.057"] ;
14 -> 16 ;
17 [label="mse = 0.0\nsamples = 2\nvalue = 0.071"] ;
16 -> 17 ;
18 [label="mse = 0.0\nsamples = 1\nvalue = 0.03"] ;
16 -> 18 ;
19 [label="avg_interval_tmp <= 8.181\nmse = 0.0\nsamples = 6\nvalue = 0.073"] ;
1 -> 19 ;
20 [label="mse = 0.0\nsamples = 2\nvalue = 0.056"] ;
19 -> 20 ;
21 [label="mse = 0.0\nsamples = 4\nvalue = 0.082"] ;
19 -> 21 ;
22 [label="avg_interval_RH <= 77.046\nmse = 0.0\nsamples = 3\nvalue = 0.031"] ;
0 -> 22 [labeldistance=2.5, labelangle=-45, headlabel="False"] ;
23 [label="mse = 0.0\nsamples = 1\nvalue = 0.014"] ;
22 -> 23 ;
24 [label="mse = 0.0\nsamples = 2\nvalue = 0.04"] ;
22 -> 24 ;
}