digraph Tree {
node [shape=box] ;
0 [label="tmp*rh <= 1061.591\nmse = 0.0\nsamples = 479\nvalue = 0.051"] ;
1 [label="imobility**2 <= 184.781\nmse = 0.0\nsamples = 328\nvalue = 0.054"] ;
0 -> 1 [labeldistance=2.5, labelangle=45, headlabel="True"] ;
2 [label="mse = 0.0\nsamples = 16\nvalue = 0.042"] ;
1 -> 2 ;
3 [label="mse = 0.0\nsamples = 312\nvalue = 0.055"] ;
1 -> 3 ;
4 [label="mse = 0.0\nsamples = 151\nvalue = 0.045"] ;
0 -> 4 [labeldistance=2.5, labelangle=-45, headlabel="False"] ;
}