digraph Tree {
node [shape=box] ;
0 [label="avg_interval_tmp <= 4.954\nmse = 0.008\nsamples = 660\nvalue = 0.293"] ;
1 [label="avg_interval_tmp <= 2.634\nmse = 0.006\nsamples = 73\nvalue = 0.258"] ;
0 -> 1 [labeldistance=2.5, labelangle=45, headlabel="True"] ;
2 [label="avg_interval_RH <= 63.578\nmse = 0.004\nsamples = 18\nvalue = 0.301"] ;
1 -> 2 ;
3 [label="mse = 0.002\nsamples = 6\nvalue = 0.252"] ;
2 -> 3 ;
4 [label="mse = 0.003\nsamples = 12\nvalue = 0.326"] ;
2 -> 4 ;
5 [label="avg_interval_tmp <= 3.14\nmse = 0.005\nsamples = 55\nvalue = 0.243"] ;
1 -> 5 ;
6 [label="mse = 0.001\nsamples = 6\nvalue = 0.177"] ;
5 -> 6 ;
7 [label="mse = 0.005\nsamples = 49\nvalue = 0.252"] ;
5 -> 7 ;
8 [label="Urbanization <= 79.85\nmse = 0.008\nsamples = 587\nvalue = 0.298"] ;
0 -> 8 [labeldistance=2.5, labelangle=-45, headlabel="False"] ;
9 [label="GDP <= 42753.5\nmse = 0.008\nsamples = 368\nvalue = 0.307"] ;
8 -> 9 ;
10 [label="mse = 0.007\nsamples = 31\nvalue = 0.251"] ;
9 -> 10 ;
11 [label="mse = 0.008\nsamples = 337\nvalue = 0.312"] ;
9 -> 11 ;
12 [label="avg_interval_tmp <= 5.01\nmse = 0.006\nsamples = 219\nvalue = 0.283"] ;
8 -> 12 ;
13 [label="mse = 0.0\nsamples = 1\nvalue = 0.482"] ;
12 -> 13 ;
14 [label="mse = 0.006\nsamples = 218\nvalue = 0.282"] ;
12 -> 14 ;
}